GenomeStart 274
Neuron 1 1 0.00000000 1 0.00000000 0.00000000 0.00000000 0.00000000
Neuron 2 1 0.00000000 1 0.00000000 0.00000000 0.00000000 0.00000000
Neuron 3 1 0.00000000 1 0.00000000 0.00000000 0.00000000 0.00000000
Neuron 4 1 0.00000000 1 0.00000000 0.00000000 0.00000000 0.00000000
Neuron 5 1 0.00000000 1 0.00000000 0.00000000 0.00000000 0.00000000
Neuron 6 2 0.00000000 1 0.00000000 0.00000000 0.00000000 0.00000000
Neuron 7 4 1.00000000 2 3.83243417 0.00000000 0.00000000 0.15044620
Neuron 8 4 1.00000000 2 3.76727621 0.00000000 0.00000000 0.02418854
Neuron 9 3 0.50000000 6 3.08747075 0.00000000 0.00000000 -0.06817236
Neuron 10 3 0.50000000 6 3.83053742 0.00000000 0.00000000 -0.42945507
Link 1 9 1 0 -0.02025760
Link 2 9 2 0 -0.54322906
Link 3 9 3 0 0.25752924
Link 4 9 4 0 -0.48418654
Link 5 9 5 0 0.26092639
Link 6 9 6 0 0.75016691
Link 1 10 7 0 0.85764826
Link 2 10 8 0 0.38094922
Link 3 10 9 0 -0.80802240
Link 4 10 10 0 0.70374567
Link 5 10 11 0 -0.14118274
Link 6 10 12 0 0.09067692
Link 9 7 13 0 0.65960087
Link 10 7 14 0 0.46805476
Link 9 8 15 0 -0.12818793
Link 10 8 16 0 -0.01833610
GenomeEnd

