GenomeStart 2451
Neuron 1 1 0.00000000 1 0.00000000 0.00000000 0.00000000 0.00000000
Neuron 2 1 0.00000000 1 0.00000000 0.00000000 0.00000000 0.00000000
Neuron 3 1 0.00000000 1 0.00000000 0.00000000 0.00000000 0.00000000
Neuron 4 1 0.00000000 1 0.00000000 0.00000000 0.00000000 0.00000000
Neuron 5 1 0.00000000 1 0.00000000 0.00000000 0.00000000 0.00000000
Neuron 6 2 0.00000000 1 0.00000000 0.00000000 0.00000000 0.00000000
Neuron 7 4 1.00000000 2 3.30188667 0.00000000 0.00000000 0.43072579
Neuron 8 4 1.00000000 2 3.29694134 0.00000000 0.00000000 -0.17381362
Neuron 9 3 0.50000000 6 3.52172697 0.00000000 0.00000000 0.31384448
Neuron 10 3 0.50000000 6 3.69733106 0.00000000 0.00000000 0.00265643
Link 1 9 1 0 0.93990427
Link 2 9 2 0 -0.00449175
Link 3 9 3 0 0.02826845
Link 4 9 4 0 0.06551538
Link 5 9 5 0 0.14812277
Link 6 9 6 0 -0.01395456
Link 1 10 7 0 0.13707792
Link 2 10 8 0 -0.87810391
Link 3 10 9 0 -0.17436741
Link 4 10 10 0 -0.37472499
Link 5 10 11 0 -0.10567523
Link 6 10 12 0 -0.68843471
Link 9 7 13 0 0.14083481
Link 10 7 14 0 -0.26968058
Link 9 8 15 0 0.00083152
Link 10 8 16 0 0.20858945
GenomeEnd

