GenomeStart 1050
Neuron 1 1 0.00000000 1 0.00000000 0.00000000 0.00000000 0.00000000
Neuron 2 1 0.00000000 1 0.00000000 0.00000000 0.00000000 0.00000000
Neuron 3 1 0.00000000 1 0.00000000 0.00000000 0.00000000 0.00000000
Neuron 4 1 0.00000000 1 0.00000000 0.00000000 0.00000000 0.00000000
Neuron 5 1 0.00000000 1 0.00000000 0.00000000 0.00000000 0.00000000
Neuron 6 2 0.00000000 1 0.00000000 0.00000000 0.00000000 0.00000000
Neuron 7 4 1.00000000 2 3.72396376 0.00000000 0.00000000 -0.31044738
Neuron 8 4 1.00000000 2 3.07710359 0.00000000 0.00000000 0.62846806
Neuron 9 3 0.50000000 6 3.51591334 0.00000000 0.00000000 0.17935871
Neuron 10 3 0.50000000 6 3.37002468 0.00000000 0.00000000 0.56271723
Link 1 9 1 0 0.14122389
Link 2 9 2 0 -0.44220697
Link 3 9 3 0 -0.18642240
Link 4 9 4 0 -0.02616872
Link 5 9 5 0 0.50861690
Link 6 9 6 0 -0.86300052
Link 1 10 7 0 0.24937514
Link 2 10 8 0 0.90749791
Link 3 10 9 0 -0.26091018
Link 4 10 10 0 0.31564177
Link 5 10 11 0 -0.08270998
Link 6 10 12 0 -0.25197708
Link 9 7 13 0 0.40299119
Link 10 7 14 0 -0.28438780
Link 9 8 15 0 0.15875782
Link 10 8 16 0 0.55240363
GenomeEnd

