GenomeStart 554
Neuron 1 1 0.00000000 1 0.00000000 0.00000000 0.00000000 0.00000000
Neuron 2 1 0.00000000 1 0.00000000 0.00000000 0.00000000 0.00000000
Neuron 3 1 0.00000000 1 0.00000000 0.00000000 0.00000000 0.00000000
Neuron 4 1 0.00000000 1 0.00000000 0.00000000 0.00000000 0.00000000
Neuron 5 1 0.00000000 1 0.00000000 0.00000000 0.00000000 0.00000000
Neuron 6 2 0.00000000 1 0.00000000 0.00000000 0.00000000 0.00000000
Neuron 7 4 1.00000000 2 3.48754881 0.00000000 0.00000000 0.08968145
Neuron 8 4 1.00000000 11 3.16934121 0.00000000 0.00000000 -0.54174132
Neuron 9 3 0.50000000 6 3.43178331 0.00000000 0.00000000 -0.15338191
Neuron 10 3 0.50000000 6 3.87863920 0.00000000 0.00000000 -0.39849650
Link 1 9 1 0 -0.22414974
Link 2 9 2 0 -0.18592739
Link 3 9 3 0 0.22570581
Link 4 9 4 0 -0.02134354
Link 5 9 5 0 0.44833428
Link 6 9 6 0 0.43043877
Link 1 10 7 0 0.26617464
Link 2 10 8 0 -0.04988895
Link 3 10 9 0 0.44096312
Link 4 10 10 0 -0.45023268
Link 5 10 11 0 -0.06081880
Link 6 10 12 0 0.37287116
Link 9 7 13 0 0.41524921
Link 10 7 14 0 -0.67381572
Link 9 8 15 0 0.39723865
Link 10 8 16 0 0.32172505
GenomeEnd

