GenomeStart 3500
Neuron 1 1 0.00000000 1 0.00000000 0.00000000 0.00000000 0.00000000
Neuron 2 1 0.00000000 1 0.00000000 0.00000000 0.00000000 0.00000000
Neuron 3 1 0.00000000 1 0.00000000 0.00000000 0.00000000 0.00000000
Neuron 4 1 0.00000000 1 0.00000000 0.00000000 0.00000000 0.00000000
Neuron 5 1 0.00000000 1 0.00000000 0.00000000 0.00000000 0.00000000
Neuron 6 2 0.00000000 1 0.00000000 0.00000000 0.00000000 0.00000000
Neuron 7 4 1.00000000 2 3.49161729 0.00000000 0.00000000 -0.24365782
Neuron 8 4 1.00000000 2 3.48295707 0.00000000 0.00000000 0.24160151
Neuron 9 3 0.50000000 6 3.22347460 0.00000000 0.00000000 -0.22976172
Neuron 10 3 0.50000000 6 3.42749952 0.00000000 0.00000000 -0.20719308
Link 1 9 1 0 0.09363958
Link 2 9 2 0 -0.42930362
Link 3 9 3 0 0.26639118
Link 4 9 4 0 -0.10861806
Link 5 9 5 0 -0.01826832
Link 6 9 6 0 0.53293063
Link 1 10 7 0 -0.00833761
Link 2 10 8 0 -0.00209649
Link 3 10 9 0 -0.53394246
Link 4 10 10 0 0.98172066
Link 5 10 11 0 0.27215591
Link 6 10 12 0 0.08906575
Link 9 7 13 0 0.56912753
Link 10 7 14 0 0.79191878
Link 9 8 15 0 0.68730209
Link 10 8 16 0 -0.25904097
GenomeEnd

