GenomeStart 3178
Neuron 1 1 0.00000000 1 0.00000000 0.00000000 0.00000000 0.00000000
Neuron 2 1 0.00000000 1 0.00000000 0.00000000 0.00000000 0.00000000
Neuron 3 1 0.00000000 1 0.00000000 0.00000000 0.00000000 0.00000000
Neuron 4 1 0.00000000 1 0.00000000 0.00000000 0.00000000 0.00000000
Neuron 5 1 0.00000000 1 0.00000000 0.00000000 0.00000000 0.00000000
Neuron 6 2 0.00000000 1 0.00000000 0.00000000 0.00000000 0.00000000
Neuron 7 4 1.00000000 2 3.31260787 0.00000000 0.00000000 -0.45351511
Neuron 8 4 1.00000000 9 3.82336734 0.00000000 0.00000000 -0.68149829
Neuron 9 3 0.50000000 6 3.66294956 0.00000000 0.00000000 0.12719729
Neuron 10 3 0.50000000 9 3.24705881 0.00000000 0.00000000 0.37159196
Link 1 9 1 0 0.21276813
Link 2 9 2 0 -0.31002776
Link 3 9 3 0 0.44746690
Link 4 9 4 0 -0.16372263
Link 5 9 5 0 0.10856593
Link 6 9 6 0 0.68107210
Link 1 10 7 0 0.10651401
Link 2 10 8 0 -0.18449559
Link 3 10 9 0 0.41930535
Link 4 10 10 0 0.29337575
Link 5 10 11 0 -0.11171346
Link 6 10 12 0 0.12786161
Link 9 7 13 0 -0.42276247
Link 10 7 14 0 0.04169053
Link 9 8 15 0 0.24990327
Link 10 8 16 0 -0.12680608
GenomeEnd

