GenomeStart 282
Neuron 1 1 0.00000000 1 0.00000000 0.00000000 0.00000000 0.00000000
Neuron 2 1 0.00000000 1 0.00000000 0.00000000 0.00000000 0.00000000
Neuron 3 1 0.00000000 1 0.00000000 0.00000000 0.00000000 0.00000000
Neuron 4 1 0.00000000 1 0.00000000 0.00000000 0.00000000 0.00000000
Neuron 5 1 0.00000000 1 0.00000000 0.00000000 0.00000000 0.00000000
Neuron 6 2 0.00000000 1 0.00000000 0.00000000 0.00000000 0.00000000
Neuron 7 4 1.00000000 2 3.23109190 0.00000000 0.00000000 0.38301039
Neuron 8 4 1.00000000 2 3.59922336 0.00000000 0.00000000 0.38741147
Neuron 9 3 0.50000000 4 3.68594573 0.00000000 0.00000000 0.63715039
Neuron 10 3 0.50000000 6 3.35204286 0.00000000 0.00000000 -0.32477704
Link 1 9 1 0 0.31174014
Link 2 9 2 0 0.11859694
Link 3 9 3 0 -0.78889382
Link 4 9 4 0 0.10846009
Link 5 9 5 0 -0.10432885
Link 6 9 6 0 -0.41595944
Link 1 10 7 0 0.20656231
Link 2 10 8 0 -0.03440902
Link 3 10 9 0 -0.49546671
Link 4 10 10 0 0.56079723
Link 5 10 11 0 -0.13666089
Link 6 10 12 0 -0.34293256
Link 9 7 13 0 0.32944729
Link 10 7 14 0 -0.64108063
Link 9 8 15 0 -0.35278853
Link 10 8 16 0 0.08680781
GenomeEnd

