GenomeStart 548
Neuron 1 1 0.00000000 1 0.00000000 0.00000000 0.00000000 0.00000000
Neuron 2 1 0.00000000 1 0.00000000 0.00000000 0.00000000 0.00000000
Neuron 3 1 0.00000000 1 0.00000000 0.00000000 0.00000000 0.00000000
Neuron 4 1 0.00000000 1 0.00000000 0.00000000 0.00000000 0.00000000
Neuron 5 1 0.00000000 1 0.00000000 0.00000000 0.00000000 0.00000000
Neuron 6 2 0.00000000 1 0.00000000 0.00000000 0.00000000 0.00000000
Neuron 7 4 1.00000000 2 3.34742747 0.00000000 0.00000000 0.10852710
Neuron 8 4 1.00000000 2 3.27882607 0.00000000 0.00000000 -0.72847416
Neuron 9 3 0.50000000 6 3.49727131 0.00000000 0.00000000 -0.56274785
Neuron 10 3 0.50000000 9 3.69722236 0.00000000 0.00000000 0.09288347
Link 1 9 1 0 0.48182735
Link 2 9 2 0 0.03530688
Link 3 9 3 0 -0.06609971
Link 4 9 4 0 0.55193450
Link 5 9 5 0 0.20105289
Link 6 9 6 0 -0.16388839
Link 1 10 7 0 -0.07677950
Link 2 10 8 0 -0.32673982
Link 3 10 9 0 0.54751489
Link 4 10 10 0 -0.38357620
Link 5 10 11 0 -0.38013933
Link 6 10 12 0 -0.37855383
Link 9 7 13 0 0.16805449
Link 10 7 14 0 -0.39078524
Link 9 8 15 0 0.17826821
Link 10 8 16 0 -0.16277905
GenomeEnd

