GenomeStart 1759
Neuron 1 1 0.00000000 1 0.00000000 0.00000000 0.00000000 0.00000000
Neuron 2 1 0.00000000 1 0.00000000 0.00000000 0.00000000 0.00000000
Neuron 3 1 0.00000000 1 0.00000000 0.00000000 0.00000000 0.00000000
Neuron 4 1 0.00000000 1 0.00000000 0.00000000 0.00000000 0.00000000
Neuron 5 1 0.00000000 1 0.00000000 0.00000000 0.00000000 0.00000000
Neuron 6 2 0.00000000 1 0.00000000 0.00000000 0.00000000 0.00000000
Neuron 7 4 1.00000000 2 3.82472764 0.00000000 0.00000000 0.79003483
Neuron 8 4 1.00000000 2 3.67230799 0.00000000 0.00000000 -0.11204696
Neuron 9 3 0.50000000 6 3.44785957 0.00000000 0.00000000 -0.84107802
Neuron 10 3 0.50000000 6 3.53929933 0.00000000 0.00000000 0.60785525
Link 1 9 1 0 -0.15634461
Link 2 9 2 0 -0.48693027
Link 3 9 3 0 -0.38078087
Link 4 9 4 0 -0.40256123
Link 5 9 5 0 -0.11628992
Link 6 9 6 0 -0.11377159
Link 1 10 7 0 0.34054497
Link 2 10 8 0 -0.80576694
Link 3 10 9 0 0.40358054
Link 4 10 10 0 -0.02963825
Link 5 10 11 0 -0.29752817
Link 6 10 12 0 -0.32063092
Link 9 7 13 0 0.59520006
Link 10 7 14 0 0.45282092
Link 9 8 15 0 -0.67824398
Link 10 8 16 0 -0.33976441
GenomeEnd

