GenomeStart 947
Neuron 1 1 0.00000000 1 0.00000000 0.00000000 0.00000000 0.00000000
Neuron 2 1 0.00000000 1 0.00000000 0.00000000 0.00000000 0.00000000
Neuron 3 1 0.00000000 1 0.00000000 0.00000000 0.00000000 0.00000000
Neuron 4 1 0.00000000 1 0.00000000 0.00000000 0.00000000 0.00000000
Neuron 5 1 0.00000000 1 0.00000000 0.00000000 0.00000000 0.00000000
Neuron 6 2 0.00000000 1 0.00000000 0.00000000 0.00000000 0.00000000
Neuron 7 4 1.00000000 9 3.21088169 0.00000000 0.00000000 0.42465983
Neuron 8 4 1.00000000 2 3.67133525 0.00000000 0.00000000 -0.36694600
Neuron 9 3 0.50000000 6 3.01933863 0.00000000 0.00000000 0.26551611
Neuron 10 3 0.50000000 6 3.93942195 0.00000000 0.00000000 -0.52408180
Link 1 9 1 0 -0.01431671
Link 2 9 2 0 0.05504103
Link 3 9 3 0 0.05902635
Link 4 9 4 0 0.10390842
Link 5 9 5 0 -0.29833401
Link 6 9 6 0 0.08890913
Link 1 10 7 0 -0.17300438
Link 2 10 8 0 -0.30992923
Link 3 10 9 0 0.16257629
Link 4 10 10 0 -0.59078346
Link 5 10 11 0 0.58585938
Link 6 10 12 0 0.69804766
Link 9 7 13 0 -0.55753354
Link 10 7 14 0 -0.40508915
Link 9 8 15 0 -0.87744719
Link 10 8 16 0 -0.71621348
GenomeEnd

