GenomeStart 2242
Neuron 1 1 0.00000000 1 0.00000000 0.00000000 0.00000000 0.00000000
Neuron 2 1 0.00000000 1 0.00000000 0.00000000 0.00000000 0.00000000
Neuron 3 1 0.00000000 1 0.00000000 0.00000000 0.00000000 0.00000000
Neuron 4 1 0.00000000 1 0.00000000 0.00000000 0.00000000 0.00000000
Neuron 5 1 0.00000000 1 0.00000000 0.00000000 0.00000000 0.00000000
Neuron 6 2 0.00000000 1 0.00000000 0.00000000 0.00000000 0.00000000
Neuron 7 4 1.00000000 2 3.88554535 0.00000000 0.00000000 0.15154687
Neuron 8 4 1.00000000 2 3.08278105 0.00000000 0.00000000 0.16692154
Neuron 9 3 0.50000000 6 3.46546393 0.00000000 0.00000000 -0.27822534
Neuron 10 3 0.50000000 6 3.41018635 0.00000000 0.00000000 -0.10873487
Link 1 9 1 0 0.01518082
Link 2 9 2 0 -0.43350675
Link 3 9 3 0 -0.10176917
Link 4 9 4 0 0.56559281
Link 5 9 5 0 -0.01562190
Link 6 9 6 0 -0.57599930
Link 1 10 7 0 -0.15559649
Link 2 10 8 0 -0.57920087
Link 3 10 9 0 0.00071954
Link 4 10 10 0 -0.19759033
Link 5 10 11 0 0.60801959
Link 6 10 12 0 0.34033323
Link 9 7 13 0 0.39718077
Link 10 7 14 0 -0.13200303
Link 9 8 15 0 -0.21439651
Link 10 8 16 0 -0.41325646
GenomeEnd

