GenomeStart 322
Neuron 1 1 0.00000000 1 0.00000000 0.00000000 0.00000000 0.00000000
Neuron 2 1 0.00000000 1 0.00000000 0.00000000 0.00000000 0.00000000
Neuron 3 1 0.00000000 1 0.00000000 0.00000000 0.00000000 0.00000000
Neuron 4 1 0.00000000 1 0.00000000 0.00000000 0.00000000 0.00000000
Neuron 5 1 0.00000000 1 0.00000000 0.00000000 0.00000000 0.00000000
Neuron 6 2 0.00000000 1 0.00000000 0.00000000 0.00000000 0.00000000
Neuron 7 4 1.00000000 2 3.73106884 0.00000000 0.00000000 0.24907684
Neuron 8 4 1.00000000 2 3.57673873 0.00000000 0.00000000 0.71289551
Neuron 9 3 0.50000000 6 3.83517704 0.00000000 0.00000000 0.18774740
Neuron 10 3 0.50000000 9 3.46843771 0.00000000 0.00000000 -0.20465624
Link 1 9 1 0 0.03580790
Link 2 9 2 0 0.13941807
Link 3 9 3 0 0.16534741
Link 4 9 4 0 0.35035512
Link 5 9 5 0 0.51804623
Link 6 9 6 0 0.79337826
Link 1 10 7 0 -0.01300938
Link 2 10 8 0 -0.69422024
Link 3 10 9 0 0.47102987
Link 4 10 10 0 -0.70195783
Link 5 10 11 0 -0.20247835
Link 6 10 12 0 -0.87555185
Link 9 7 13 0 -0.05396035
Link 10 7 14 0 0.61447030
Link 9 8 15 0 -0.06668963
Link 10 8 16 0 0.20342442
GenomeEnd

