GenomeStart 350
Neuron 1 1 0.00000000 1 0.00000000 0.00000000 0.00000000 0.00000000
Neuron 2 1 0.00000000 1 0.00000000 0.00000000 0.00000000 0.00000000
Neuron 3 1 0.00000000 1 0.00000000 0.00000000 0.00000000 0.00000000
Neuron 4 1 0.00000000 1 0.00000000 0.00000000 0.00000000 0.00000000
Neuron 5 1 0.00000000 1 0.00000000 0.00000000 0.00000000 0.00000000
Neuron 6 2 0.00000000 1 0.00000000 0.00000000 0.00000000 0.00000000
Neuron 7 4 1.00000000 2 3.24686194 0.00000000 0.00000000 0.04619706
Neuron 8 4 1.00000000 11 3.52663493 0.00000000 0.00000000 -0.65141011
Neuron 9 3 0.50000000 6 3.77810310 0.00000000 0.00000000 -0.30334999
Neuron 10 3 0.50000000 6 3.27741873 0.00000000 0.00000000 0.84073960
Link 1 9 1 0 -0.08263281
Link 2 9 2 0 -0.19246578
Link 3 9 3 0 -0.80911166
Link 4 9 4 0 -0.27725097
Link 5 9 5 0 0.88038484
Link 6 9 6 0 0.44977596
Link 1 10 7 0 -0.40293927
Link 2 10 8 0 0.43047689
Link 3 10 9 0 0.03491999
Link 4 10 10 0 -0.73413940
Link 5 10 11 0 -0.11648947
Link 6 10 12 0 -0.48963173
Link 9 7 13 0 0.49272003
Link 10 7 14 0 -0.15593386
Link 9 8 15 0 -0.58028387
Link 10 8 16 0 -0.50649584
GenomeEnd

