GenomeStart 744
Neuron 1 1 0.00000000 1 0.00000000 0.00000000 0.00000000 0.00000000
Neuron 2 1 0.00000000 1 0.00000000 0.00000000 0.00000000 0.00000000
Neuron 3 1 0.00000000 1 0.00000000 0.00000000 0.00000000 0.00000000
Neuron 4 1 0.00000000 1 0.00000000 0.00000000 0.00000000 0.00000000
Neuron 5 1 0.00000000 1 0.00000000 0.00000000 0.00000000 0.00000000
Neuron 6 2 0.00000000 1 0.00000000 0.00000000 0.00000000 0.00000000
Neuron 7 4 1.00000000 9 3.62833446 0.00000000 0.00000000 -0.42582449
Neuron 8 4 1.00000000 2 3.57454129 0.00000000 0.00000000 -0.51120745
Neuron 9 3 0.50000000 6 3.44287396 0.00000000 0.00000000 0.14229719
Neuron 10 3 0.50000000 6 3.52076719 0.00000000 0.00000000 0.20864919
Link 1 9 1 0 -0.02984154
Link 2 9 2 0 -0.14037118
Link 3 9 3 0 0.23137241
Link 4 9 4 0 -0.47908232
Link 5 9 5 0 -0.27372699
Link 6 9 6 0 0.56984780
Link 1 10 7 0 -0.13165109
Link 2 10 8 0 -0.27827197
Link 3 10 9 0 0.05561571
Link 4 10 10 0 0.16104036
Link 5 10 11 0 0.28186389
Link 6 10 12 0 -0.15533868
Link 9 7 13 0 0.12166540
Link 10 7 14 0 0.14339273
Link 9 8 15 0 -0.31106769
Link 10 8 16 0 -0.22508723
GenomeEnd

