GenomeStart 2432
Neuron 1 1 0.00000000 1 0.00000000 0.00000000 0.00000000 0.00000000
Neuron 2 1 0.00000000 1 0.00000000 0.00000000 0.00000000 0.00000000
Neuron 3 1 0.00000000 1 0.00000000 0.00000000 0.00000000 0.00000000
Neuron 4 1 0.00000000 1 0.00000000 0.00000000 0.00000000 0.00000000
Neuron 5 1 0.00000000 1 0.00000000 0.00000000 0.00000000 0.00000000
Neuron 6 2 0.00000000 1 0.00000000 0.00000000 0.00000000 0.00000000
Neuron 7 4 1.00000000 2 3.42279862 0.00000000 0.00000000 0.46858372
Neuron 8 4 1.00000000 9 3.40349855 0.00000000 0.00000000 -0.64152201
Neuron 9 3 0.50000000 6 3.42033805 0.00000000 0.00000000 0.73604939
Neuron 10 3 0.50000000 6 3.28434452 0.00000000 0.00000000 -0.19186009
Link 1 9 1 0 -0.02594013
Link 2 9 2 0 -0.53882090
Link 3 9 3 0 -0.27418720
Link 4 9 4 0 -0.62877684
Link 5 9 5 0 0.36358246
Link 6 9 6 0 -0.49761538
Link 1 10 7 0 -0.03340230
Link 2 10 8 0 0.11156148
Link 3 10 9 0 0.08425515
Link 4 10 10 0 0.34265602
Link 5 10 11 0 0.55592255
Link 6 10 12 0 -0.59663380
Link 9 7 13 0 -0.76192035
Link 10 7 14 0 -0.25820894
Link 9 8 15 0 0.20799185
Link 10 8 16 0 -0.59370331
GenomeEnd

