GenomeStart 2802
Neuron 1 1 0.00000000 1 0.00000000 0.00000000 0.00000000 0.00000000
Neuron 2 1 0.00000000 1 0.00000000 0.00000000 0.00000000 0.00000000
Neuron 3 1 0.00000000 1 0.00000000 0.00000000 0.00000000 0.00000000
Neuron 4 1 0.00000000 1 0.00000000 0.00000000 0.00000000 0.00000000
Neuron 5 1 0.00000000 1 0.00000000 0.00000000 0.00000000 0.00000000
Neuron 6 2 0.00000000 1 0.00000000 0.00000000 0.00000000 0.00000000
Neuron 7 4 1.00000000 2 3.83250414 0.00000000 0.00000000 -0.15806623
Neuron 8 4 1.00000000 2 3.30412951 0.00000000 0.00000000 0.05827563
Neuron 9 3 0.50000000 6 3.15406814 0.00000000 0.00000000 -0.82827049
Neuron 10 3 0.50000000 6 3.89251101 0.00000000 0.00000000 0.26803636
Link 1 9 1 0 -0.12281425
Link 2 9 2 0 -0.15357317
Link 3 9 3 0 0.09145737
Link 4 9 4 0 -0.34467602
Link 5 9 5 0 0.38104430
Link 6 9 6 0 0.08061242
Link 1 10 7 0 -0.07827534
Link 2 10 8 0 0.72121864
Link 3 10 9 0 0.34620073
Link 4 10 10 0 0.45090047
Link 5 10 11 0 -0.02146098
Link 6 10 12 0 -0.28969482
Link 9 7 13 0 0.41374599
Link 10 7 14 0 0.42415841
Link 9 8 15 0 0.18584228
Link 10 8 16 0 -0.09030930
GenomeEnd

