GenomeStart 740
Neuron 1 1 0.00000000 1 0.00000000 0.00000000 0.00000000 0.00000000
Neuron 2 1 0.00000000 1 0.00000000 0.00000000 0.00000000 0.00000000
Neuron 3 1 0.00000000 1 0.00000000 0.00000000 0.00000000 0.00000000
Neuron 4 1 0.00000000 1 0.00000000 0.00000000 0.00000000 0.00000000
Neuron 5 1 0.00000000 1 0.00000000 0.00000000 0.00000000 0.00000000
Neuron 6 2 0.00000000 1 0.00000000 0.00000000 0.00000000 0.00000000
Neuron 7 4 1.00000000 2 3.52613509 0.00000000 0.00000000 -0.42842457
Neuron 8 4 1.00000000 4 3.36166980 0.00000000 0.00000000 0.17529911
Neuron 9 3 0.50000000 11 3.63497074 0.00000000 0.00000000 0.26933158
Neuron 10 3 0.50000000 6 3.89697955 0.00000000 0.00000000 -0.04942939
Link 1 9 1 0 -0.79784235
Link 2 9 2 0 0.42823948
Link 3 9 3 0 -0.57960983
Link 4 9 4 0 0.29980119
Link 5 9 5 0 -0.59746396
Link 6 9 6 0 0.03249259
Link 1 10 7 0 -0.10619369
Link 2 10 8 0 0.46920087
Link 3 10 9 0 0.21640569
Link 4 10 10 0 0.00183765
Link 5 10 11 0 -0.53976008
Link 6 10 12 0 -0.01446954
Link 9 7 13 0 0.06654096
Link 10 7 14 0 -0.45624892
Link 9 8 15 0 0.03260978
Link 10 8 16 0 0.00389118
GenomeEnd

