GenomeStart 53198
Neuron 1 1 0.00000000 1 0.00000000 0.00000000 0.00000000 0.00000000
Neuron 2 1 0.00000000 1 0.00000000 0.00000000 0.00000000 0.00000000
Neuron 3 1 0.00000000 1 0.00000000 0.00000000 0.00000000 0.00000000
Neuron 4 1 0.00000000 1 0.00000000 0.00000000 0.00000000 0.00000000
Neuron 5 1 0.00000000 1 0.00000000 0.00000000 0.00000000 0.00000000
Neuron 6 2 0.00000000 1 0.00000000 0.00000000 0.00000000 0.00000000
Neuron 7 4 1.00000000 2 3.50111045 0.00000000 0.00000000 0.72682129
Neuron 8 4 1.00000000 6 3.42954762 0.00000000 0.00000000 0.48162215
Neuron 9 3 0.50000000 6 3.58746488 0.00000000 0.00000000 -0.09224692
Neuron 10 3 0.50000000 6 3.55177693 0.00000000 0.00000000 -0.12655933
Neuron 12 3 0.25000000 11 2.02392849 0.00000000 0.00000000 -0.48301895
Neuron 14 3 0.25000000 11 6.21665263 0.00000000 0.00000000 -0.02450520
Neuron 22 3 0.75000000 11 6.69761428 0.00000000 0.00000000 0.19831163
Link 1 9 1 0 0.14900319
Link 3 9 3 0 0.44505743
Link 4 9 4 0 -0.70848859
Link 5 9 5 0 -0.11298121
Link 6 9 6 0 0.36948747
Link 1 10 7 0 0.10415067
Link 2 10 8 0 -0.02027744
Link 3 10 9 0 -0.70120719
Link 4 10 10 0 0.11229785
Link 6 10 12 0 0.38867264
Link 10 7 14 0 0.58888784
Link 9 8 15 0 0.57385405
Link 10 8 16 0 -0.06980740
Link 5 12 23 0 0.19175210
Link 12 10 24 0 -0.31506561
Link 2 14 30 0 -0.01466911
Link 14 9 31 0 0.16064745
Link 9 22 64 0 -0.52074647
Link 22 7 65 0 -0.34291355
GenomeEnd

