GenomeStart 286
Neuron 1 1 0.00000000 1 0.00000000 0.00000000 0.00000000 0.00000000
Neuron 2 1 0.00000000 1 0.00000000 0.00000000 0.00000000 0.00000000
Neuron 3 1 0.00000000 1 0.00000000 0.00000000 0.00000000 0.00000000
Neuron 4 1 0.00000000 1 0.00000000 0.00000000 0.00000000 0.00000000
Neuron 5 1 0.00000000 1 0.00000000 0.00000000 0.00000000 0.00000000
Neuron 6 2 0.00000000 1 0.00000000 0.00000000 0.00000000 0.00000000
Neuron 7 4 1.00000000 2 3.37221363 0.00000000 0.00000000 -0.69368838
Neuron 8 4 1.00000000 2 3.59598123 0.00000000 0.00000000 0.65335015
Neuron 9 3 0.50000000 6 3.57371494 0.00000000 0.00000000 0.54961008
Neuron 10 3 0.50000000 4 3.49671368 0.00000000 0.00000000 0.54320014
Link 1 9 1 0 -0.07897696
Link 2 9 2 0 0.29331898
Link 3 9 3 0 0.49816394
Link 4 9 4 0 -0.63882261
Link 5 9 5 0 -0.08054583
Link 6 9 6 0 -0.64783449
Link 1 10 7 0 0.22779619
Link 2 10 8 0 0.28731314
Link 3 10 9 0 -0.18912719
Link 4 10 10 0 -0.56293630
Link 5 10 11 0 -0.22152520
Link 6 10 12 0 -0.46795959
Link 9 7 13 0 0.22292716
Link 10 7 14 0 0.17784047
Link 9 8 15 0 0.52510511
Link 10 8 16 0 -0.02821523
GenomeEnd

