GenomeStart 1370
Neuron 1 1 0.00000000 1 0.00000000 0.00000000 0.00000000 0.00000000
Neuron 2 1 0.00000000 1 0.00000000 0.00000000 0.00000000 0.00000000
Neuron 3 1 0.00000000 1 0.00000000 0.00000000 0.00000000 0.00000000
Neuron 4 1 0.00000000 1 0.00000000 0.00000000 0.00000000 0.00000000
Neuron 5 1 0.00000000 1 0.00000000 0.00000000 0.00000000 0.00000000
Neuron 6 2 0.00000000 1 0.00000000 0.00000000 0.00000000 0.00000000
Neuron 7 4 1.00000000 2 3.31794523 0.00000000 0.00000000 -0.49640659
Neuron 8 4 1.00000000 2 3.74192644 0.00000000 0.00000000 -0.36374743
Neuron 9 3 0.50000000 6 3.37610456 0.00000000 0.00000000 -0.13731555
Neuron 10 3 0.50000000 9 3.55547549 0.00000000 0.00000000 0.25940679
Link 1 9 1 0 0.20392862
Link 2 9 2 0 -0.54638668
Link 3 9 3 0 0.23876759
Link 4 9 4 0 0.42892641
Link 5 9 5 0 -0.08423798
Link 6 9 6 0 -0.13344589
Link 1 10 7 0 -0.16642090
Link 2 10 8 0 -0.51221345
Link 3 10 9 0 -0.09212039
Link 4 10 10 0 -0.25552195
Link 5 10 11 0 0.11728271
Link 6 10 12 0 -0.44540913
Link 9 7 13 0 0.03894369
Link 10 7 14 0 0.24587486
Link 9 8 15 0 0.07585559
Link 10 8 16 0 -0.44408310
GenomeEnd

