GenomeStart 4213
Neuron 1 1 0.00000000 1 0.00000000 0.00000000 0.00000000 0.00000000
Neuron 2 1 0.00000000 1 0.00000000 0.00000000 0.00000000 0.00000000
Neuron 3 1 0.00000000 1 0.00000000 0.00000000 0.00000000 0.00000000
Neuron 4 1 0.00000000 1 0.00000000 0.00000000 0.00000000 0.00000000
Neuron 5 1 0.00000000 1 0.00000000 0.00000000 0.00000000 0.00000000
Neuron 6 2 0.00000000 1 0.00000000 0.00000000 0.00000000 0.00000000
Neuron 7 4 1.00000000 2 3.49298374 0.00000000 0.00000000 -0.17065180
Neuron 8 4 1.00000000 4 3.26933275 0.00000000 0.00000000 0.77420765
Neuron 9 3 0.50000000 6 3.48932753 0.00000000 0.00000000 0.18103075
Neuron 10 3 0.50000000 9 3.77175100 0.00000000 0.00000000 0.78937179
Neuron 11 3 0.25000000 6 2.99022780 0.00000000 0.00000000 0.18787845
Link 1 9 1 0 0.05508327
Link 2 9 2 0 -0.11164722
Link 3 9 3 0 -0.30643026
Link 4 9 4 0 -0.55934614
Link 5 9 5 0 0.43491419
Link 6 9 6 0 -0.14732877
Link 2 10 8 0 -0.14850881
Link 3 10 9 0 0.09864937
Link 4 10 10 0 -0.50174684
Link 5 10 11 0 -0.06475468
Link 6 10 12 0 0.22427938
Link 9 7 13 0 -0.14702917
Link 10 7 14 0 -0.28191910
Link 9 8 15 0 0.00275080
Link 10 8 16 0 -0.18682544
Link 1 11 18 0 0.52378152
Link 11 10 19 0 -0.23396084
GenomeEnd

