GenomeStart 611
Neuron 1 1 0.00000000 1 0.00000000 0.00000000 0.00000000 0.00000000
Neuron 2 1 0.00000000 1 0.00000000 0.00000000 0.00000000 0.00000000
Neuron 3 1 0.00000000 1 0.00000000 0.00000000 0.00000000 0.00000000
Neuron 4 1 0.00000000 1 0.00000000 0.00000000 0.00000000 0.00000000
Neuron 5 1 0.00000000 1 0.00000000 0.00000000 0.00000000 0.00000000
Neuron 6 2 0.00000000 1 0.00000000 0.00000000 0.00000000 0.00000000
Neuron 7 4 1.00000000 9 3.68163363 0.00000000 0.00000000 0.43603024
Neuron 8 4 1.00000000 2 3.14435067 0.00000000 0.00000000 -0.08606368
Neuron 9 3 0.50000000 6 3.36887668 0.00000000 0.00000000 -0.14653468
Neuron 10 3 0.50000000 6 3.34898184 0.00000000 0.00000000 0.03498343
Link 1 9 1 0 -0.10857964
Link 2 9 2 0 -0.39606872
Link 3 9 3 0 -0.12483047
Link 4 9 4 0 0.11788987
Link 5 9 5 0 0.17678095
Link 6 9 6 0 0.72543115
Link 1 10 7 0 0.41029712
Link 2 10 8 0 -0.26193769
Link 3 10 9 0 -0.21522119
Link 4 10 10 0 -0.39399951
Link 5 10 11 0 0.05050087
Link 6 10 12 0 -0.21019233
Link 9 7 13 0 -0.20207159
Link 10 7 14 0 -0.28571097
Link 9 8 15 0 -0.55083870
Link 10 8 16 0 0.07926895
GenomeEnd

