GenomeStart 1128
Neuron 1 1 0.00000000 1 0.00000000 0.00000000 0.00000000 0.00000000
Neuron 2 1 0.00000000 1 0.00000000 0.00000000 0.00000000 0.00000000
Neuron 3 1 0.00000000 1 0.00000000 0.00000000 0.00000000 0.00000000
Neuron 4 1 0.00000000 1 0.00000000 0.00000000 0.00000000 0.00000000
Neuron 5 1 0.00000000 1 0.00000000 0.00000000 0.00000000 0.00000000
Neuron 6 2 0.00000000 1 0.00000000 0.00000000 0.00000000 0.00000000
Neuron 7 4 1.00000000 2 3.33166295 0.00000000 0.00000000 0.53462945
Neuron 8 4 1.00000000 6 3.28928671 0.00000000 0.00000000 -0.09966987
Neuron 9 3 0.50000000 6 3.38024461 0.00000000 0.00000000 0.40657305
Neuron 10 3 0.50000000 6 3.59233802 0.00000000 0.00000000 -0.32860893
Link 1 9 1 0 -0.00446634
Link 2 9 2 0 -0.21977052
Link 3 9 3 0 -0.08317174
Link 4 9 4 0 -0.25014120
Link 5 9 5 0 -0.07797283
Link 6 9 6 0 0.36053195
Link 1 10 7 0 -0.09726487
Link 2 10 8 0 0.51652154
Link 3 10 9 0 -0.00031171
Link 4 10 10 0 0.32438583
Link 5 10 11 0 0.02055105
Link 6 10 12 0 -0.01937548
Link 9 7 13 0 -0.26203316
Link 10 7 14 0 -0.11041002
Link 9 8 15 0 -0.56331340
Link 10 8 16 0 0.17249421
GenomeEnd

