GenomeStart 6339
Neuron 1 1 0.00000000 1 0.00000000 0.00000000 0.00000000 0.00000000
Neuron 2 1 0.00000000 1 0.00000000 0.00000000 0.00000000 0.00000000
Neuron 3 1 0.00000000 1 0.00000000 0.00000000 0.00000000 0.00000000
Neuron 4 1 0.00000000 1 0.00000000 0.00000000 0.00000000 0.00000000
Neuron 5 1 0.00000000 1 0.00000000 0.00000000 0.00000000 0.00000000
Neuron 6 2 0.00000000 1 0.00000000 0.00000000 0.00000000 0.00000000
Neuron 7 4 1.00000000 2 3.17101164 0.00000000 0.00000000 -0.02064012
Neuron 8 4 1.00000000 6 3.16132726 0.00000000 0.00000000 -0.02168010
Neuron 9 3 0.50000000 6 3.26300307 0.00000000 0.00000000 -0.37677570
Neuron 10 3 0.50000000 9 3.50642365 0.00000000 0.00000000 0.15088365
Neuron 12 3 0.75000000 11 2.02297733 0.00000000 0.00000000 0.55431269
Neuron 15 3 0.25000000 11 3.64692814 0.00000000 0.00000000 0.31059592
Neuron 18 3 0.25000000 6 3.78957030 0.00000000 0.00000000 -0.30488088
Neuron 24 3 0.62500000 11 3.99429291 0.00000000 0.00000000 0.22638048
Link 1 9 1 0 0.03556444
Link 3 9 3 0 0.37466786
Link 4 9 4 0 0.76440682
Link 5 9 5 0 -0.07675321
Link 6 9 6 0 -0.07676643
Link 1 10 7 0 -0.02912776
Link 3 10 9 0 0.11994828
Link 4 10 10 0 -0.33650984
Link 5 10 11 0 0.28158013
Link 6 10 12 0 -0.39570637
Link 10 7 14 0 -0.50694269
Link 9 8 15 0 -0.54143086
Link 10 8 16 0 0.52046349
Link 12 7 23 0 0.05862191
Link 2 15 33 0 -0.46794697
Link 15 10 34 0 -0.81170940
Link 2 18 50 0 -0.16933039
Link 18 9 51 0 -0.20016243
Link 9 24 76 0 -0.23583829
Link 24 12 77 0 -0.24740018
GenomeEnd

