GenomeStart 2185
Neuron 1 1 0.00000000 1 0.00000000 0.00000000 0.00000000 0.00000000
Neuron 2 1 0.00000000 1 0.00000000 0.00000000 0.00000000 0.00000000
Neuron 3 1 0.00000000 1 0.00000000 0.00000000 0.00000000 0.00000000
Neuron 4 1 0.00000000 1 0.00000000 0.00000000 0.00000000 0.00000000
Neuron 5 1 0.00000000 1 0.00000000 0.00000000 0.00000000 0.00000000
Neuron 6 2 0.00000000 1 0.00000000 0.00000000 0.00000000 0.00000000
Neuron 7 4 1.00000000 2 3.47835559 0.00000000 0.00000000 0.07984594
Neuron 8 4 1.00000000 6 3.40268786 0.00000000 0.00000000 -0.72308240
Neuron 9 3 0.50000000 6 3.33210971 0.00000000 0.00000000 0.06975184
Neuron 10 3 0.50000000 6 3.68466858 0.00000000 0.00000000 0.36295488
Neuron 11 3 0.75000000 4 3.07408702 0.00000000 0.00000000 0.19208749
Link 1 9 1 0 -0.06452565
Link 2 9 2 0 0.35520991
Link 3 9 3 0 0.30015544
Link 4 9 4 0 0.87541558
Link 5 9 5 0 0.44023791
Link 6 9 6 0 -0.10960702
Link 1 10 7 0 -0.01729413
Link 2 10 8 0 -0.22430632
Link 3 10 9 0 -0.16262982
Link 5 10 11 0 0.01235994
Link 6 10 12 0 -0.13673107
Link 9 7 13 0 0.28706454
Link 10 7 14 0 -0.48052392
Link 9 8 15 0 -0.20585887
Link 10 11 18 0 1.00000000
Link 11 8 19 0 -0.19936368
GenomeEnd

