GenomeStart 1904
Neuron 1 1 0.00000000 1 0.00000000 0.00000000 0.00000000 0.00000000
Neuron 2 1 0.00000000 1 0.00000000 0.00000000 0.00000000 0.00000000
Neuron 3 1 0.00000000 1 0.00000000 0.00000000 0.00000000 0.00000000
Neuron 4 1 0.00000000 1 0.00000000 0.00000000 0.00000000 0.00000000
Neuron 5 1 0.00000000 1 0.00000000 0.00000000 0.00000000 0.00000000
Neuron 6 2 0.00000000 1 0.00000000 0.00000000 0.00000000 0.00000000
Neuron 7 4 1.00000000 2 3.63399553 0.00000000 0.00000000 -0.65757978
Neuron 8 4 1.00000000 11 3.59699321 0.00000000 0.00000000 0.22677010
Neuron 9 3 0.50000000 6 3.34327334 0.00000000 0.00000000 0.57056547
Neuron 10 3 0.50000000 6 3.22754062 0.00000000 0.00000000 0.05736015
Link 1 9 1 0 -0.08795555
Link 2 9 2 0 -0.16341551
Link 3 9 3 0 -0.26137066
Link 4 9 4 0 -0.53078130
Link 5 9 5 0 -0.03260858
Link 6 9 6 0 0.73524139
Link 1 10 7 0 0.12430542
Link 2 10 8 0 0.00085003
Link 3 10 9 0 0.28112168
Link 4 10 10 0 -0.48640896
Link 5 10 11 0 -0.40181651
Link 6 10 12 0 -0.14322787
Link 9 7 13 0 0.29290530
Link 10 7 14 0 0.13540094
Link 9 8 15 0 0.01207846
Link 10 8 16 0 -0.00581326
GenomeEnd

