GenomeStart 3150
Neuron 1 1 0.00000000 1 0.00000000 0.00000000 0.00000000 0.00000000
Neuron 2 1 0.00000000 1 0.00000000 0.00000000 0.00000000 0.00000000
Neuron 3 1 0.00000000 1 0.00000000 0.00000000 0.00000000 0.00000000
Neuron 4 1 0.00000000 1 0.00000000 0.00000000 0.00000000 0.00000000
Neuron 5 1 0.00000000 1 0.00000000 0.00000000 0.00000000 0.00000000
Neuron 6 2 0.00000000 1 0.00000000 0.00000000 0.00000000 0.00000000
Neuron 7 4 1.00000000 2 3.44816803 0.00000000 0.00000000 -0.14816294
Neuron 8 4 1.00000000 9 3.27197790 0.00000000 0.00000000 -0.25454187
Neuron 9 3 0.50000000 6 3.43095250 0.00000000 0.00000000 -0.07437587
Neuron 10 3 0.50000000 6 3.57159849 0.00000000 0.00000000 -0.00158675
Link 1 9 1 0 0.30284395
Link 2 9 2 0 -0.06567389
Link 3 9 3 0 -0.71675722
Link 4 9 4 0 0.67568794
Link 5 9 5 0 0.50710802
Link 6 9 6 0 -0.91989024
Link 1 10 7 0 -0.29631572
Link 2 10 8 0 -0.24820196
Link 3 10 9 0 -0.37337042
Link 4 10 10 0 -0.28048644
Link 5 10 11 0 0.67244381
Link 6 10 12 0 0.37971854
Link 9 7 13 0 0.20249479
Link 10 7 14 0 0.29309851
Link 9 8 15 0 0.49765617
Link 10 8 16 0 -0.08550456
GenomeEnd

