GenomeStart 316
Neuron 1 1 0.00000000 1 0.00000000 0.00000000 0.00000000 0.00000000
Neuron 2 1 0.00000000 1 0.00000000 0.00000000 0.00000000 0.00000000
Neuron 3 1 0.00000000 1 0.00000000 0.00000000 0.00000000 0.00000000
Neuron 4 1 0.00000000 1 0.00000000 0.00000000 0.00000000 0.00000000
Neuron 5 1 0.00000000 1 0.00000000 0.00000000 0.00000000 0.00000000
Neuron 6 2 0.00000000 1 0.00000000 0.00000000 0.00000000 0.00000000
Neuron 7 4 1.00000000 2 3.63363179 0.00000000 0.00000000 -0.59025480
Neuron 8 4 1.00000000 11 3.47599587 0.00000000 0.00000000 0.17169340
Neuron 9 3 0.50000000 6 3.89327107 0.00000000 0.00000000 0.54729043
Neuron 10 3 0.50000000 6 3.33280326 0.00000000 0.00000000 -0.17899068
Link 1 9 1 0 0.29232880
Link 2 9 2 0 0.81783071
Link 3 9 3 0 -0.11837954
Link 4 9 4 0 0.68915924
Link 5 9 5 0 0.12265966
Link 6 9 6 0 0.55882800
Link 1 10 7 0 0.10760027
Link 2 10 8 0 0.36505391
Link 3 10 9 0 0.51491545
Link 4 10 10 0 0.81909986
Link 5 10 11 0 0.08274381
Link 6 10 12 0 -0.79923184
Link 9 7 13 0 0.56743169
Link 10 7 14 0 -0.61288823
Link 9 8 15 0 -0.88312985
Link 10 8 16 0 -0.70328330
GenomeEnd

