GenomeStart 3097
Neuron 1 1 0.00000000 1 0.00000000 0.00000000 0.00000000 0.00000000
Neuron 2 1 0.00000000 1 0.00000000 0.00000000 0.00000000 0.00000000
Neuron 3 1 0.00000000 1 0.00000000 0.00000000 0.00000000 0.00000000
Neuron 4 1 0.00000000 1 0.00000000 0.00000000 0.00000000 0.00000000
Neuron 5 1 0.00000000 1 0.00000000 0.00000000 0.00000000 0.00000000
Neuron 6 2 0.00000000 1 0.00000000 0.00000000 0.00000000 0.00000000
Neuron 7 4 1.00000000 2 3.65784633 0.00000000 0.00000000 0.17591892
Neuron 8 4 1.00000000 11 3.67288319 0.00000000 0.00000000 -0.44831270
Neuron 9 3 0.50000000 6 3.36767821 0.00000000 0.00000000 -0.13070581
Neuron 10 3 0.50000000 6 3.78258623 0.00000000 0.00000000 -0.15796406
Link 1 9 1 0 0.17876887
Link 2 9 2 0 -0.42969208
Link 3 9 3 0 0.11309916
Link 4 9 4 0 0.58987888
Link 5 9 5 0 -0.68584926
Link 6 9 6 0 0.35712997
Link 1 10 7 0 -0.03575372
Link 2 10 8 0 -0.43993744
Link 3 10 9 0 -0.28552906
Link 4 10 10 0 0.22807851
Link 5 10 11 0 0.75273557
Link 6 10 12 0 0.43341185
Link 9 7 13 0 0.20875825
Link 10 7 14 0 0.39536005
Link 9 8 15 0 0.19447937
Link 10 8 16 0 0.67775367
GenomeEnd

