GenomeStart 535
Neuron 1 1 0.00000000 1 0.00000000 0.00000000 0.00000000 0.00000000
Neuron 2 1 0.00000000 1 0.00000000 0.00000000 0.00000000 0.00000000
Neuron 3 1 0.00000000 1 0.00000000 0.00000000 0.00000000 0.00000000
Neuron 4 1 0.00000000 1 0.00000000 0.00000000 0.00000000 0.00000000
Neuron 5 1 0.00000000 1 0.00000000 0.00000000 0.00000000 0.00000000
Neuron 6 2 0.00000000 1 0.00000000 0.00000000 0.00000000 0.00000000
Neuron 7 4 1.00000000 9 3.61468208 0.00000000 0.00000000 -0.58546417
Neuron 8 4 1.00000000 2 3.22944199 0.00000000 0.00000000 0.06401719
Neuron 9 3 0.50000000 6 3.76063903 0.00000000 0.00000000 -0.43797651
Neuron 10 3 0.50000000 6 3.32407333 0.00000000 0.00000000 -0.05734034
Link 1 9 1 0 0.31116682
Link 2 9 2 0 0.00638425
Link 3 9 3 0 -0.00270409
Link 4 9 4 0 -0.02507027
Link 5 9 5 0 -0.09290824
Link 6 9 6 0 -0.34032599
Link 1 10 7 0 -0.02431943
Link 2 10 8 0 -0.31336611
Link 3 10 9 0 -0.11192111
Link 4 10 10 0 -0.46178096
Link 5 10 11 0 -0.81318291
Link 6 10 12 0 0.54940141
Link 9 7 13 0 -0.65738631
Link 10 7 14 0 0.13641466
Link 9 8 15 0 0.48063150
Link 10 8 16 0 0.24493277
GenomeEnd

