GenomeStart 3500
Neuron 1 1 0.00000000 1 0.00000000 0.00000000 0.00000000 0.00000000
Neuron 2 1 0.00000000 1 0.00000000 0.00000000 0.00000000 0.00000000
Neuron 3 1 0.00000000 1 0.00000000 0.00000000 0.00000000 0.00000000
Neuron 4 1 0.00000000 1 0.00000000 0.00000000 0.00000000 0.00000000
Neuron 5 1 0.00000000 1 0.00000000 0.00000000 0.00000000 0.00000000
Neuron 6 2 0.00000000 1 0.00000000 0.00000000 0.00000000 0.00000000
Neuron 7 4 1.00000000 2 3.75233596 0.00000000 0.00000000 -0.50930632
Neuron 8 4 1.00000000 2 3.26018120 0.00000000 0.00000000 -0.35446570
Neuron 9 3 0.50000000 9 3.55639634 0.00000000 0.00000000 0.33697131
Neuron 10 3 0.50000000 11 3.54486663 0.00000000 0.00000000 0.38945341
Link 1 9 1 0 -0.01765115
Link 2 9 2 0 -0.35951826
Link 3 9 3 0 0.64557185
Link 4 9 4 0 -0.44598190
Link 5 9 5 0 -0.14643744
Link 6 9 6 0 0.37231186
Link 1 10 7 0 -0.02340785
Link 2 10 8 0 -0.17623034
Link 3 10 9 0 -0.62827387
Link 4 10 10 0 -0.53638883
Link 5 10 11 0 -0.10465604
Link 6 10 12 0 -0.05280492
Link 9 7 13 0 -0.22028861
Link 10 7 14 0 0.22654485
Link 9 8 15 0 0.47929130
Link 10 8 16 0 0.42271960
Link 1 8 20 0 0.41688270
GenomeEnd

