GenomeStart 3153
Neuron 1 1 0.00000000 1 0.00000000 0.00000000 0.00000000 0.00000000
Neuron 2 1 0.00000000 1 0.00000000 0.00000000 0.00000000 0.00000000
Neuron 3 1 0.00000000 1 0.00000000 0.00000000 0.00000000 0.00000000
Neuron 4 1 0.00000000 1 0.00000000 0.00000000 0.00000000 0.00000000
Neuron 5 1 0.00000000 1 0.00000000 0.00000000 0.00000000 0.00000000
Neuron 6 2 0.00000000 1 0.00000000 0.00000000 0.00000000 0.00000000
Neuron 7 4 1.00000000 2 3.38173602 0.00000000 0.00000000 -0.41380102
Neuron 8 4 1.00000000 2 3.76091880 0.00000000 0.00000000 0.51861991
Neuron 9 3 0.50000000 6 3.71109629 0.00000000 0.00000000 0.59210179
Neuron 10 3 0.50000000 11 3.76359280 0.00000000 0.00000000 -0.02231374
Link 1 9 1 0 0.08070416
Link 2 9 2 0 0.52799456
Link 3 9 3 0 0.19369174
Link 4 9 4 0 -0.41341345
Link 5 9 5 0 0.17314528
Link 6 9 6 0 -0.20468557
Link 1 10 7 0 -0.05926748
Link 2 10 8 0 0.06024733
Link 3 10 9 0 -0.80891951
Link 4 10 10 0 0.12102219
Link 5 10 11 0 -0.20376010
Link 6 10 12 0 -0.02268869
Link 9 7 13 0 -0.29279715
Link 10 7 14 0 0.38770590
Link 9 8 15 0 0.18357144
Link 10 8 16 0 -0.10073814
GenomeEnd

