GenomeStart 2168
Neuron 1 1 0.00000000 1 0.00000000 0.00000000 0.00000000 0.00000000
Neuron 2 1 0.00000000 1 0.00000000 0.00000000 0.00000000 0.00000000
Neuron 3 1 0.00000000 1 0.00000000 0.00000000 0.00000000 0.00000000
Neuron 4 1 0.00000000 1 0.00000000 0.00000000 0.00000000 0.00000000
Neuron 5 1 0.00000000 1 0.00000000 0.00000000 0.00000000 0.00000000
Neuron 6 2 0.00000000 1 0.00000000 0.00000000 0.00000000 0.00000000
Neuron 7 4 1.00000000 2 3.64008525 0.00000000 0.00000000 0.18187035
Neuron 8 4 1.00000000 6 3.37554897 0.00000000 0.00000000 -0.13543128
Neuron 9 3 0.50000000 6 3.06480538 0.00000000 0.00000000 0.46520944
Neuron 10 3 0.50000000 11 3.13321535 0.00000000 0.00000000 -0.04551319
Neuron 12 3 0.25000000 6 0.75104364 0.00000000 0.00000000 -0.04281647
Link 2 9 2 0 0.11377409
Link 3 9 3 0 -0.57753673
Link 4 9 4 0 0.50139529
Link 5 9 5 0 -0.05361081
Link 6 9 6 0 -0.33004664
Link 1 10 7 0 0.05492555
Link 2 10 8 0 0.35767105
Link 3 10 9 0 0.08811143
Link 4 10 10 0 -0.38535171
Link 5 10 11 0 -0.06492855
Link 6 10 12 0 -0.61336665
Link 9 7 13 0 0.30170934
Link 10 7 14 0 -0.25324102
Link 9 8 15 0 -0.41483432
Link 10 8 16 0 0.02253132
Link 1 12 23 0 1.00000000
Link 12 9 24 0 -0.08883329
GenomeEnd

