GenomeStart 2111
Neuron 1 1 0.00000000 1 0.00000000 0.00000000 0.00000000 0.00000000
Neuron 2 1 0.00000000 1 0.00000000 0.00000000 0.00000000 0.00000000
Neuron 3 1 0.00000000 1 0.00000000 0.00000000 0.00000000 0.00000000
Neuron 4 1 0.00000000 1 0.00000000 0.00000000 0.00000000 0.00000000
Neuron 5 1 0.00000000 1 0.00000000 0.00000000 0.00000000 0.00000000
Neuron 6 2 0.00000000 1 0.00000000 0.00000000 0.00000000 0.00000000
Neuron 7 4 1.00000000 2 3.55041908 0.00000000 0.00000000 0.34679983
Neuron 8 4 1.00000000 6 3.37289007 0.00000000 0.00000000 -0.18376665
Neuron 9 3 0.50000000 6 3.70926967 0.00000000 0.00000000 -0.23126564
Neuron 10 3 0.50000000 9 3.90199169 0.00000000 0.00000000 -0.40264947
Link 1 9 1 0 -0.32189512
Link 2 9 2 0 -0.32192110
Link 3 9 3 0 -0.71769950
Link 4 9 4 0 -0.35883985
Link 5 9 5 0 0.04466395
Link 6 9 6 0 -0.11742665
Link 1 10 7 0 -0.01224251
Link 2 10 8 0 0.15019651
Link 3 10 9 0 0.43646878
Link 4 10 10 0 0.37470579
Link 5 10 11 0 0.08493541
Link 6 10 12 0 -0.28107013
Link 9 7 13 0 -0.25416289
Link 10 7 14 0 0.86451639
Link 9 8 15 0 -0.19687141
Link 10 8 16 0 0.20353558
GenomeEnd

