GenomeStart 1485
Neuron 1 1 0.00000000 1 0.00000000 0.00000000 0.00000000 0.00000000
Neuron 2 1 0.00000000 1 0.00000000 0.00000000 0.00000000 0.00000000
Neuron 3 1 0.00000000 1 0.00000000 0.00000000 0.00000000 0.00000000
Neuron 4 1 0.00000000 1 0.00000000 0.00000000 0.00000000 0.00000000
Neuron 5 1 0.00000000 1 0.00000000 0.00000000 0.00000000 0.00000000
Neuron 6 2 0.00000000 1 0.00000000 0.00000000 0.00000000 0.00000000
Neuron 7 4 1.00000000 2 3.70077804 0.00000000 0.00000000 -0.14278426
Neuron 8 4 1.00000000 2 3.58927614 0.00000000 0.00000000 0.53938543
Neuron 9 3 0.50000000 6 3.49060933 0.00000000 0.00000000 0.00434010
Neuron 10 3 0.50000000 9 3.68373302 0.00000000 0.00000000 0.39149016
Link 1 9 1 0 0.03066944
Link 2 9 2 0 0.07485262
Link 3 9 3 0 0.25536976
Link 4 9 4 0 -0.90905404
Link 5 9 5 0 0.21700018
Link 6 9 6 0 -0.29308323
Link 1 10 7 0 0.18799580
Link 2 10 8 0 0.70289580
Link 3 10 9 0 0.00588262
Link 4 10 10 0 -0.15430487
Link 5 10 11 0 0.31734686
Link 6 10 12 0 -0.17077601
Link 9 7 13 0 -0.17433721
Link 10 7 14 0 0.10253744
Link 9 8 15 0 -0.21261713
Link 10 8 16 0 -0.34111743
GenomeEnd

