GenomeStart 4212
Neuron 1 1 0.00000000 1 0.00000000 0.00000000 0.00000000 0.00000000
Neuron 2 1 0.00000000 1 0.00000000 0.00000000 0.00000000 0.00000000
Neuron 3 1 0.00000000 1 0.00000000 0.00000000 0.00000000 0.00000000
Neuron 4 1 0.00000000 1 0.00000000 0.00000000 0.00000000 0.00000000
Neuron 5 1 0.00000000 1 0.00000000 0.00000000 0.00000000 0.00000000
Neuron 6 2 0.00000000 1 0.00000000 0.00000000 0.00000000 0.00000000
Neuron 7 4 1.00000000 9 3.38236276 0.00000000 0.00000000 -0.09116461
Neuron 8 4 1.00000000 6 3.26569876 0.00000000 0.00000000 0.30601009
Neuron 9 3 0.50000000 6 3.41221987 0.00000000 0.00000000 -0.10434592
Neuron 10 3 0.50000000 6 3.46633938 0.00000000 0.00000000 0.31379045
Link 1 9 1 0 -0.22107179
Link 2 9 2 0 -0.19676007
Link 3 9 3 0 -0.39055280
Link 4 9 4 0 -0.63083862
Link 5 9 5 0 -0.79781127
Link 6 9 6 0 -0.70452447
Link 1 10 7 0 -0.05632341
Link 2 10 8 0 -0.78878374
Link 3 10 9 0 -0.12456631
Link 4 10 10 0 0.18473905
Link 5 10 11 0 0.03973222
Link 6 10 12 0 -0.36677470
Link 9 7 13 0 0.74501096
Link 10 7 14 0 -0.53006083
Link 9 8 15 0 0.70354972
Link 10 8 16 0 0.17297029
GenomeEnd

