GenomeStart 1577
Neuron 1 1 0.00000000 1 0.00000000 0.00000000 0.00000000 0.00000000
Neuron 2 1 0.00000000 1 0.00000000 0.00000000 0.00000000 0.00000000
Neuron 3 1 0.00000000 1 0.00000000 0.00000000 0.00000000 0.00000000
Neuron 4 1 0.00000000 1 0.00000000 0.00000000 0.00000000 0.00000000
Neuron 5 1 0.00000000 1 0.00000000 0.00000000 0.00000000 0.00000000
Neuron 6 2 0.00000000 1 0.00000000 0.00000000 0.00000000 0.00000000
Neuron 7 4 1.00000000 2 3.19280423 0.00000000 0.00000000 0.14396746
Neuron 8 4 1.00000000 4 3.37704219 0.00000000 0.00000000 0.09275645
Neuron 9 3 0.50000000 9 3.54808368 0.00000000 0.00000000 -0.03610118
Neuron 10 3 0.50000000 6 3.71879371 0.00000000 0.00000000 0.11251087
Link 1 9 1 0 -0.03935429
Link 2 9 2 0 -0.05837541
Link 3 9 3 0 0.05615879
Link 4 9 4 0 0.37306191
Link 5 9 5 0 -0.22745082
Link 6 9 6 0 0.18703853
Link 1 10 7 0 0.04654063
Link 2 10 8 0 0.84612975
Link 3 10 9 0 0.19341684
Link 4 10 10 0 0.65508098
Link 5 10 11 0 0.04619365
Link 6 10 12 0 0.66436007
Link 9 7 13 0 0.72099188
Link 10 7 14 0 -0.11414326
Link 9 8 15 0 0.08696924
Link 10 8 16 0 0.42641579
GenomeEnd

