GenomeStart 3059
Neuron 1 1 0.00000000 1 0.00000000 0.00000000 0.00000000 0.00000000
Neuron 2 1 0.00000000 1 0.00000000 0.00000000 0.00000000 0.00000000
Neuron 3 1 0.00000000 1 0.00000000 0.00000000 0.00000000 0.00000000
Neuron 4 1 0.00000000 1 0.00000000 0.00000000 0.00000000 0.00000000
Neuron 5 1 0.00000000 1 0.00000000 0.00000000 0.00000000 0.00000000
Neuron 6 2 0.00000000 1 0.00000000 0.00000000 0.00000000 0.00000000
Neuron 7 4 1.00000000 2 3.69928934 0.00000000 0.00000000 0.24711702
Neuron 8 4 1.00000000 2 3.86338512 0.00000000 0.00000000 -0.45547339
Neuron 9 3 0.50000000 6 3.34154311 0.00000000 0.00000000 -0.13720508
Neuron 10 3 0.50000000 6 3.29228819 0.00000000 0.00000000 0.46486400
Link 1 9 1 0 0.16349214
Link 2 9 2 0 0.21861327
Link 3 9 3 0 -0.26867541
Link 4 9 4 0 -0.07133721
Link 5 9 5 0 -0.02882457
Link 6 9 6 0 -0.45429489
Link 1 10 7 0 0.04698826
Link 2 10 8 0 -0.44536913
Link 3 10 9 0 -0.24344604
Link 4 10 10 0 -0.20819293
Link 5 10 11 0 -0.13829929
Link 6 10 12 0 -0.86476498
Link 9 7 13 0 0.07411494
Link 10 7 14 0 0.24119119
Link 9 8 15 0 -0.22265978
Link 10 8 16 0 0.02359873
GenomeEnd

