GenomeStart 143
Neuron 1 1 0.00000000 1 0.00000000 0.00000000 0.00000000 0.00000000
Neuron 2 1 0.00000000 1 0.00000000 0.00000000 0.00000000 0.00000000
Neuron 3 1 0.00000000 1 0.00000000 0.00000000 0.00000000 0.00000000
Neuron 4 1 0.00000000 1 0.00000000 0.00000000 0.00000000 0.00000000
Neuron 5 1 0.00000000 1 0.00000000 0.00000000 0.00000000 0.00000000
Neuron 6 2 0.00000000 1 0.00000000 0.00000000 0.00000000 0.00000000
Neuron 7 4 1.00000000 2 3.39081347 0.00000000 0.00000000 0.23798469
Neuron 8 4 1.00000000 2 3.33013010 0.00000000 0.00000000 0.25380048
Neuron 9 3 0.50000000 11 3.46435351 0.00000000 0.00000000 -0.40973651
Neuron 10 3 0.50000000 6 3.18648609 0.00000000 0.00000000 0.01246366
Link 1 9 1 0 -0.26813221
Link 2 9 2 0 -0.74338145
Link 3 9 3 0 0.64013593
Link 4 9 4 0 0.12184758
Link 5 9 5 0 0.70755922
Link 6 9 6 0 0.21804929
Link 1 10 7 0 -0.14715861
Link 2 10 8 0 0.38851777
Link 3 10 9 0 -0.10442466
Link 4 10 10 0 0.37680185
Link 5 10 11 0 -0.01317525
Link 6 10 12 0 -0.42011708
Link 9 7 13 0 0.59888832
Link 10 7 14 0 0.07102720
Link 9 8 15 0 0.12073760
Link 10 8 16 0 0.25893021
GenomeEnd

