GenomeStart 1400
Neuron 1 1 0.00000000 1 0.00000000 0.00000000 0.00000000 0.00000000
Neuron 2 1 0.00000000 1 0.00000000 0.00000000 0.00000000 0.00000000
Neuron 3 1 0.00000000 1 0.00000000 0.00000000 0.00000000 0.00000000
Neuron 4 1 0.00000000 1 0.00000000 0.00000000 0.00000000 0.00000000
Neuron 5 1 0.00000000 1 0.00000000 0.00000000 0.00000000 0.00000000
Neuron 6 2 0.00000000 1 0.00000000 0.00000000 0.00000000 0.00000000
Neuron 7 4 1.00000000 2 3.07590525 0.00000000 0.00000000 -0.25274843
Neuron 8 4 1.00000000 2 3.43939639 0.00000000 0.00000000 0.40350145
Neuron 9 3 0.50000000 6 3.21090051 0.00000000 0.00000000 0.23632600
Neuron 10 3 0.50000000 6 3.91061631 0.00000000 0.00000000 -0.82961320
Link 1 9 1 0 0.31258959
Link 2 9 2 0 -0.21456464
Link 3 9 3 0 -0.30734108
Link 4 9 4 0 -0.02230883
Link 5 9 5 0 0.35098827
Link 6 9 6 0 0.07360712
Link 1 10 7 0 -0.02030707
Link 2 10 8 0 -0.20907236
Link 3 10 9 0 -0.03896962
Link 4 10 10 0 -0.37522855
Link 5 10 11 0 -0.34502668
Link 6 10 12 0 0.44407534
Link 9 7 13 0 0.06074924
Link 10 7 14 0 0.27022190
Link 9 8 15 0 -0.19124987
Link 10 8 16 0 -0.18094943
GenomeEnd

