GenomeStart 2958
Neuron 1 1 0.00000000 1 0.00000000 0.00000000 0.00000000 0.00000000
Neuron 2 1 0.00000000 1 0.00000000 0.00000000 0.00000000 0.00000000
Neuron 3 1 0.00000000 1 0.00000000 0.00000000 0.00000000 0.00000000
Neuron 4 1 0.00000000 1 0.00000000 0.00000000 0.00000000 0.00000000
Neuron 5 1 0.00000000 1 0.00000000 0.00000000 0.00000000 0.00000000
Neuron 6 2 0.00000000 1 0.00000000 0.00000000 0.00000000 0.00000000
Neuron 7 4 1.00000000 6 3.35005920 0.00000000 0.00000000 -0.70323470
Neuron 8 4 1.00000000 2 3.58394517 0.00000000 0.00000000 0.09451177
Neuron 9 3 0.50000000 6 3.46014259 0.00000000 0.00000000 0.75604558
Neuron 10 3 0.50000000 6 3.51541239 0.00000000 0.00000000 -0.07517832
Link 1 9 1 0 -0.00084494
Link 2 9 2 0 -0.69711173
Link 3 9 3 0 0.14020365
Link 4 9 4 0 -0.33737940
Link 5 9 5 0 0.32685972
Link 6 9 6 0 0.55929889
Link 1 10 7 0 -0.16473058
Link 2 10 8 0 0.18455403
Link 3 10 9 0 -0.80401062
Link 4 10 10 0 -0.28740171
Link 5 10 11 0 0.48727610
Link 6 10 12 0 0.04657456
Link 9 7 13 0 0.14359824
Link 10 7 14 0 -0.56233571
Link 9 8 15 0 0.37464006
Link 10 8 16 0 0.11812897
GenomeEnd

