GenomeStart 22435
Neuron 1 1 0.00000000 1 0.00000000 0.00000000 0.00000000 0.00000000
Neuron 2 1 0.00000000 1 0.00000000 0.00000000 0.00000000 0.00000000
Neuron 3 1 0.00000000 1 0.00000000 0.00000000 0.00000000 0.00000000
Neuron 4 1 0.00000000 1 0.00000000 0.00000000 0.00000000 0.00000000
Neuron 5 1 0.00000000 1 0.00000000 0.00000000 0.00000000 0.00000000
Neuron 6 2 0.00000000 1 0.00000000 0.00000000 0.00000000 0.00000000
Neuron 7 4 1.00000000 2 3.47831012 0.00000000 0.00000000 0.25251142
Neuron 8 4 1.00000000 2 3.38447342 0.00000000 0.00000000 -0.29721762
Neuron 9 3 0.50000000 6 3.40381867 0.00000000 0.00000000 0.36839538
Neuron 10 3 0.50000000 6 3.58215674 0.00000000 0.00000000 0.43981733
Neuron 12 3 0.75000000 11 6.89081479 0.00000000 0.00000000 0.34346695
Neuron 16 3 0.25000000 11 3.03438522 0.00000000 0.00000000 -0.23785906
Neuron 18 3 0.25000000 11 6.29605896 0.00000000 0.00000000 -0.42672842
Neuron 19 3 0.75000000 11 4.70470516 0.00000000 0.00000000 -0.13840347
Link 1 9 1 0 -0.20322683
Link 2 9 2 0 -0.50480518
Link 4 9 4 0 -0.31387385
Link 5 9 5 0 -0.23351995
Link 6 9 6 0 0.48413213
Link 1 10 7 0 -0.01616072
Link 2 10 8 0 0.37879156
Link 5 10 11 0 -0.85285226
Link 6 10 12 0 -0.27837995
Link 10 7 14 0 -0.70897518
Link 9 8 15 0 0.48486308
Link 10 12 21 0 1.00000000
Link 12 8 22 0 0.05715886
Link 6 7 23 0 0.17352915
Link 4 16 38 0 1.04922940
Link 16 10 39 0 -0.32261221
Link 3 18 45 0 1.00000000
Link 18 9 46 0 0.35019420
Link 9 19 48 0 1.00000000
Link 19 7 49 0 -0.48699498
Link 16 12 130 0 -0.41830558
GenomeEnd

