GenomeStart 1513
Neuron 1 1 0.00000000 1 0.00000000 0.00000000 0.00000000 0.00000000
Neuron 2 1 0.00000000 1 0.00000000 0.00000000 0.00000000 0.00000000
Neuron 3 1 0.00000000 1 0.00000000 0.00000000 0.00000000 0.00000000
Neuron 4 1 0.00000000 1 0.00000000 0.00000000 0.00000000 0.00000000
Neuron 5 1 0.00000000 1 0.00000000 0.00000000 0.00000000 0.00000000
Neuron 6 2 0.00000000 1 0.00000000 0.00000000 0.00000000 0.00000000
Neuron 7 4 1.00000000 2 3.91098089 0.00000000 0.00000000 0.27076961
Neuron 8 4 1.00000000 6 3.27336573 0.00000000 0.00000000 -0.33138772
Neuron 9 3 0.50000000 6 3.58040791 0.00000000 0.00000000 0.03576477
Neuron 10 3 0.50000000 6 3.50729738 0.00000000 0.00000000 -0.52630166
Link 1 9 1 0 -0.02616156
Link 2 9 2 0 -0.44352101
Link 3 9 3 0 0.15400898
Link 4 9 4 0 -0.69174768
Link 5 9 5 0 0.43855956
Link 6 9 6 0 -0.36521951
Link 1 10 7 0 -0.23043825
Link 2 10 8 0 -0.19766840
Link 3 10 9 0 0.31436254
Link 4 10 10 0 -0.15184033
Link 5 10 11 0 0.77338083
Link 6 10 12 0 -0.56063239
Link 9 7 13 0 0.34424430
Link 10 7 14 0 0.03904708
Link 9 8 15 0 -0.09549492
Link 10 8 16 0 -0.19153996
GenomeEnd

