GenomeStart 515
Neuron 1 1 0.00000000 1 0.00000000 0.00000000 0.00000000 0.00000000
Neuron 2 1 0.00000000 1 0.00000000 0.00000000 0.00000000 0.00000000
Neuron 3 1 0.00000000 1 0.00000000 0.00000000 0.00000000 0.00000000
Neuron 4 1 0.00000000 1 0.00000000 0.00000000 0.00000000 0.00000000
Neuron 5 1 0.00000000 1 0.00000000 0.00000000 0.00000000 0.00000000
Neuron 6 2 0.00000000 1 0.00000000 0.00000000 0.00000000 0.00000000
Neuron 7 4 1.00000000 2 3.66993186 0.00000000 0.00000000 -0.23798592
Neuron 8 4 1.00000000 4 3.36654401 0.00000000 0.00000000 0.27345821
Neuron 9 3 0.50000000 6 3.53283084 0.00000000 0.00000000 -0.24168626
Neuron 10 3 0.50000000 6 3.60225350 0.00000000 0.00000000 0.28085752
Link 1 9 1 0 0.08330223
Link 2 9 2 0 0.29364950
Link 3 9 3 0 0.17726513
Link 4 9 4 0 -0.34550050
Link 5 9 5 0 -0.41254854
Link 6 9 6 0 -0.09970492
Link 1 10 7 0 -0.11644756
Link 2 10 8 0 -0.21757793
Link 3 10 9 0 -0.26228958
Link 4 10 10 0 -0.04124590
Link 5 10 11 0 0.10845154
Link 6 10 12 0 0.30716477
Link 9 7 13 0 -0.34112036
Link 10 7 14 0 0.55841554
Link 9 8 15 0 0.28783688
Link 10 8 16 0 0.18377308
GenomeEnd

