GenomeStart 1436
Neuron 1 1 0.00000000 1 0.00000000 0.00000000 0.00000000 0.00000000
Neuron 2 1 0.00000000 1 0.00000000 0.00000000 0.00000000 0.00000000
Neuron 3 1 0.00000000 1 0.00000000 0.00000000 0.00000000 0.00000000
Neuron 4 1 0.00000000 1 0.00000000 0.00000000 0.00000000 0.00000000
Neuron 5 1 0.00000000 1 0.00000000 0.00000000 0.00000000 0.00000000
Neuron 6 2 0.00000000 1 0.00000000 0.00000000 0.00000000 0.00000000
Neuron 7 4 1.00000000 2 3.40979501 0.00000000 0.00000000 0.37806826
Neuron 8 4 1.00000000 2 3.61176711 0.00000000 0.00000000 -0.39552167
Neuron 9 3 0.50000000 9 3.51807359 0.00000000 0.00000000 -0.10748072
Neuron 10 3 0.50000000 11 3.52089404 0.00000000 0.00000000 0.31166112
Link 1 9 1 0 0.08197016
Link 2 9 2 0 -0.55345893
Link 3 9 3 0 0.23591051
Link 4 9 4 0 0.44130702
Link 5 9 5 0 0.12478733
Link 6 9 6 0 0.21310920
Link 1 10 7 0 -0.40871441
Link 2 10 8 0 -0.15319183
Link 3 10 9 0 -0.68114724
Link 4 10 10 0 0.75722371
Link 5 10 11 0 -0.00859094
Link 6 10 12 0 0.56206081
Link 9 7 13 0 -0.92319669
Link 10 7 14 0 -0.51898220
Link 9 8 15 0 0.37536221
Link 10 8 16 0 0.09170386
GenomeEnd

