GenomeStart 829
Neuron 1 1 0.00000000 1 0.00000000 0.00000000 0.00000000 0.00000000
Neuron 2 1 0.00000000 1 0.00000000 0.00000000 0.00000000 0.00000000
Neuron 3 1 0.00000000 1 0.00000000 0.00000000 0.00000000 0.00000000
Neuron 4 1 0.00000000 1 0.00000000 0.00000000 0.00000000 0.00000000
Neuron 5 1 0.00000000 1 0.00000000 0.00000000 0.00000000 0.00000000
Neuron 6 2 0.00000000 1 0.00000000 0.00000000 0.00000000 0.00000000
Neuron 7 4 1.00000000 2 3.62435201 0.00000000 0.00000000 0.54446891
Neuron 8 4 1.00000000 2 3.66115323 0.00000000 0.00000000 -0.16973767
Neuron 9 3 0.50000000 6 3.72171033 0.00000000 0.00000000 0.61534424
Neuron 10 3 0.50000000 6 3.24241244 0.00000000 0.00000000 0.03244894
Link 1 9 1 0 -0.01593788
Link 2 9 2 0 0.59277495
Link 3 9 3 0 0.27151643
Link 4 9 4 0 0.37096094
Link 5 9 5 0 0.30573248
Link 6 9 6 0 0.29362846
Link 1 10 7 0 -0.16510184
Link 2 10 8 0 -0.00312671
Link 3 10 9 0 -0.28935078
Link 4 10 10 0 0.39398661
Link 5 10 11 0 -0.48608638
Link 6 10 12 0 -0.29478456
Link 9 7 13 0 0.61870457
Link 10 7 14 0 -0.03199744
Link 9 8 15 0 0.02462783
Link 10 8 16 0 0.13855628
GenomeEnd

