GenomeStart 1378
Neuron 1 1 0.00000000 1 0.00000000 0.00000000 0.00000000 0.00000000
Neuron 2 1 0.00000000 1 0.00000000 0.00000000 0.00000000 0.00000000
Neuron 3 1 0.00000000 1 0.00000000 0.00000000 0.00000000 0.00000000
Neuron 4 1 0.00000000 1 0.00000000 0.00000000 0.00000000 0.00000000
Neuron 5 1 0.00000000 1 0.00000000 0.00000000 0.00000000 0.00000000
Neuron 6 2 0.00000000 1 0.00000000 0.00000000 0.00000000 0.00000000
Neuron 7 4 1.00000000 2 3.12765425 0.00000000 0.00000000 0.77704935
Neuron 8 4 1.00000000 2 3.40048402 0.00000000 0.00000000 -0.46622708
Neuron 9 3 0.50000000 6 3.37895779 0.00000000 0.00000000 -0.22529036
Neuron 10 3 0.50000000 6 3.76130160 0.00000000 0.00000000 -0.46691603
Link 1 9 1 0 -0.12842181
Link 2 9 2 0 0.38727252
Link 3 9 3 0 0.06217398
Link 4 9 4 0 -0.05595328
Link 5 9 5 0 0.32618717
Link 6 9 6 0 -0.17127199
Link 1 10 7 0 -0.26526240
Link 2 10 8 0 -0.10074160
Link 3 10 9 0 0.03681427
Link 4 10 10 0 -0.58428016
Link 5 10 11 0 0.74008823
Link 6 10 12 0 0.53772449
Link 9 7 13 0 -0.03819191
Link 10 7 14 0 0.03739404
Link 9 8 15 0 0.02932803
Link 10 8 16 0 -0.02441622
Link 6 7 33 0 0.23654065
GenomeEnd

