GenomeStart 2234
Neuron 1 1 0.00000000 1 0.00000000 0.00000000 0.00000000 0.00000000
Neuron 2 1 0.00000000 1 0.00000000 0.00000000 0.00000000 0.00000000
Neuron 3 1 0.00000000 1 0.00000000 0.00000000 0.00000000 0.00000000
Neuron 4 1 0.00000000 1 0.00000000 0.00000000 0.00000000 0.00000000
Neuron 5 1 0.00000000 1 0.00000000 0.00000000 0.00000000 0.00000000
Neuron 6 2 0.00000000 1 0.00000000 0.00000000 0.00000000 0.00000000
Neuron 7 4 1.00000000 2 3.27527825 0.00000000 0.00000000 -0.18889920
Neuron 8 4 1.00000000 2 3.15673006 0.00000000 0.00000000 0.04467830
Neuron 9 3 0.50000000 11 3.59380603 0.00000000 0.00000000 0.42123401
Neuron 10 3 0.50000000 6 3.55925080 0.00000000 0.00000000 -0.09722379
Link 1 9 1 0 -0.15799986
Link 2 9 2 0 -0.30768914
Link 3 9 3 0 0.46704100
Link 4 9 4 0 0.23399443
Link 5 9 5 0 0.11866282
Link 6 9 6 0 0.27054724
Link 2 10 8 0 -0.11011098
Link 3 10 9 0 0.08838686
Link 4 10 10 0 -0.76177463
Link 5 10 11 0 0.90445927
Link 6 10 12 0 0.40742318
Link 9 7 13 0 0.36353975
Link 10 7 14 0 -0.41698429
Link 9 8 15 0 -0.01620516
Link 10 8 16 0 0.35160554
Link 2 7 58 0 -0.33338460
GenomeEnd

