GenomeStart 935
Neuron 1 1 0.00000000 1 0.00000000 0.00000000 0.00000000 0.00000000
Neuron 2 1 0.00000000 1 0.00000000 0.00000000 0.00000000 0.00000000
Neuron 3 1 0.00000000 1 0.00000000 0.00000000 0.00000000 0.00000000
Neuron 4 1 0.00000000 1 0.00000000 0.00000000 0.00000000 0.00000000
Neuron 5 1 0.00000000 1 0.00000000 0.00000000 0.00000000 0.00000000
Neuron 6 2 0.00000000 1 0.00000000 0.00000000 0.00000000 0.00000000
Neuron 7 4 1.00000000 2 3.39913876 0.00000000 0.00000000 0.48618364
Neuron 8 4 1.00000000 11 3.67683038 0.00000000 0.00000000 0.07596117
Neuron 9 3 0.50000000 4 3.53893605 0.00000000 0.00000000 -0.47558672
Neuron 10 3 0.50000000 6 3.18257752 0.00000000 0.00000000 -0.89901629
Link 1 9 1 0 0.37802223
Link 2 9 2 0 0.43629479
Link 3 9 3 0 -0.01990641
Link 4 9 4 0 0.40862746
Link 5 9 5 0 0.59611947
Link 6 9 6 0 -0.95397621
Link 1 10 7 0 -0.07884407
Link 2 10 8 0 0.79007852
Link 3 10 9 0 -0.13256174
Link 4 10 10 0 -0.10292595
Link 5 10 11 0 0.30477440
Link 6 10 12 0 0.31162189
Link 9 7 13 0 -0.15821435
Link 10 7 14 0 0.35861369
Link 9 8 15 0 -0.03490315
Link 10 8 16 0 0.08925264
GenomeEnd

