GenomeStart 700
Neuron 1 1 0.00000000 1 0.00000000 0.00000000 0.00000000 0.00000000
Neuron 2 1 0.00000000 1 0.00000000 0.00000000 0.00000000 0.00000000
Neuron 3 1 0.00000000 1 0.00000000 0.00000000 0.00000000 0.00000000
Neuron 4 1 0.00000000 1 0.00000000 0.00000000 0.00000000 0.00000000
Neuron 5 1 0.00000000 1 0.00000000 0.00000000 0.00000000 0.00000000
Neuron 6 2 0.00000000 1 0.00000000 0.00000000 0.00000000 0.00000000
Neuron 7 4 1.00000000 2 3.30370114 0.00000000 0.00000000 -0.36047359
Neuron 8 4 1.00000000 2 3.00934649 0.00000000 0.00000000 0.38125889
Neuron 9 3 0.50000000 6 3.48320768 0.00000000 0.00000000 -0.22320547
Neuron 10 3 0.50000000 11 3.82975708 0.00000000 0.00000000 -0.14067853
Link 1 9 1 0 -0.03668414
Link 2 9 2 0 0.51455945
Link 3 9 3 0 0.77865864
Link 4 9 4 0 0.23315328
Link 5 9 5 0 -0.15086289
Link 6 9 6 0 -0.41803739
Link 1 10 7 0 0.17695652
Link 2 10 8 0 0.39462473
Link 3 10 9 0 -0.57537368
Link 4 10 10 0 0.41010636
Link 5 10 11 0 0.11531472
Link 6 10 12 0 -0.66057114
Link 9 7 13 0 -0.11520842
Link 10 7 14 0 0.18357368
Link 9 8 15 0 0.53741608
Link 10 8 16 0 -0.37579299
GenomeEnd

