GenomeStart 1696
Neuron 1 1 0.00000000 1 0.00000000 0.00000000 0.00000000 0.00000000
Neuron 2 1 0.00000000 1 0.00000000 0.00000000 0.00000000 0.00000000
Neuron 3 1 0.00000000 1 0.00000000 0.00000000 0.00000000 0.00000000
Neuron 4 1 0.00000000 1 0.00000000 0.00000000 0.00000000 0.00000000
Neuron 5 1 0.00000000 1 0.00000000 0.00000000 0.00000000 0.00000000
Neuron 6 2 0.00000000 1 0.00000000 0.00000000 0.00000000 0.00000000
Neuron 7 4 1.00000000 2 3.46288959 0.00000000 0.00000000 0.61522963
Neuron 8 4 1.00000000 2 3.31263175 0.00000000 0.00000000 -0.77560725
Neuron 9 3 0.50000000 4 3.44877668 0.00000000 0.00000000 0.38046582
Neuron 10 3 0.50000000 6 3.35120134 0.00000000 0.00000000 0.24519758
Link 1 9 1 0 -0.05237490
Link 2 9 2 0 0.40204413
Link 3 9 3 0 0.04494577
Link 4 9 4 0 -0.18923693
Link 5 9 5 0 0.05444824
Link 6 9 6 0 -0.26359462
Link 1 10 7 0 -0.19841458
Link 2 10 8 0 -0.15895852
Link 3 10 9 0 0.22420789
Link 4 10 10 0 -0.20604989
Link 5 10 11 0 0.61198281
Link 6 10 12 0 -0.04729826
Link 9 7 13 0 0.38932628
Link 10 7 14 0 0.66819484
Link 9 8 15 0 0.16817230
Link 10 8 16 0 0.39062443
GenomeEnd

