GenomeStart 1050
Neuron 1 1 0.00000000 1 0.00000000 0.00000000 0.00000000 0.00000000
Neuron 2 1 0.00000000 1 0.00000000 0.00000000 0.00000000 0.00000000
Neuron 3 1 0.00000000 1 0.00000000 0.00000000 0.00000000 0.00000000
Neuron 4 1 0.00000000 1 0.00000000 0.00000000 0.00000000 0.00000000
Neuron 5 1 0.00000000 1 0.00000000 0.00000000 0.00000000 0.00000000
Neuron 6 2 0.00000000 1 0.00000000 0.00000000 0.00000000 0.00000000
Neuron 7 4 1.00000000 2 3.34514073 0.00000000 0.00000000 -0.18893700
Neuron 8 4 1.00000000 2 3.14813608 0.00000000 0.00000000 0.89098658
Neuron 9 3 0.50000000 6 3.62180965 0.00000000 0.00000000 0.05798891
Neuron 10 3 0.50000000 6 3.07295483 0.00000000 0.00000000 -0.20463126
Link 1 9 1 0 0.04832340
Link 2 9 2 0 -0.14495145
Link 3 9 3 0 -0.21945476
Link 4 9 4 0 0.07221426
Link 5 9 5 0 -0.04584617
Link 6 9 6 0 0.27650462
Link 1 10 7 0 0.33841480
Link 2 10 8 0 -0.37451833
Link 3 10 9 0 -0.11289265
Link 4 10 10 0 0.05647516
Link 5 10 11 0 0.05446212
Link 6 10 12 0 0.43794170
Link 9 7 13 0 -0.69417212
Link 10 7 14 0 -0.16630819
Link 9 8 15 0 -0.45822276
Link 10 8 16 0 -0.01939918
GenomeEnd

