GenomeStart 1415
Neuron 1 1 0.00000000 1 0.00000000 0.00000000 0.00000000 0.00000000
Neuron 2 1 0.00000000 1 0.00000000 0.00000000 0.00000000 0.00000000
Neuron 3 1 0.00000000 1 0.00000000 0.00000000 0.00000000 0.00000000
Neuron 4 1 0.00000000 1 0.00000000 0.00000000 0.00000000 0.00000000
Neuron 5 1 0.00000000 1 0.00000000 0.00000000 0.00000000 0.00000000
Neuron 6 2 0.00000000 1 0.00000000 0.00000000 0.00000000 0.00000000
Neuron 7 4 1.00000000 11 3.39459911 0.00000000 0.00000000 0.31136233
Neuron 8 4 1.00000000 2 3.44881421 0.00000000 0.00000000 0.42336053
Neuron 9 3 0.50000000 6 3.26221078 0.00000000 0.00000000 0.16091243
Neuron 10 3 0.50000000 6 3.48941966 0.00000000 0.00000000 0.15692366
Link 1 9 1 0 0.04380265
Link 2 9 2 0 0.04379736
Link 3 9 3 0 0.26335284
Link 4 9 4 0 0.90281091
Link 5 9 5 0 0.11290797
Link 6 9 6 0 -0.62734594
Link 1 10 7 0 0.25566313
Link 2 10 8 0 -0.77449646
Link 3 10 9 0 -0.89870314
Link 4 10 10 0 -0.24992116
Link 5 10 11 0 -0.18149830
Link 6 10 12 0 0.51046530
Link 9 7 13 0 -0.75644684
Link 10 7 14 0 -0.47312901
Link 9 8 15 0 0.75519089
Link 10 8 16 0 0.40910870
GenomeEnd

