GenomeStart 604
Neuron 1 1 0.00000000 1 0.00000000 0.00000000 0.00000000 0.00000000
Neuron 2 1 0.00000000 1 0.00000000 0.00000000 0.00000000 0.00000000
Neuron 3 1 0.00000000 1 0.00000000 0.00000000 0.00000000 0.00000000
Neuron 4 1 0.00000000 1 0.00000000 0.00000000 0.00000000 0.00000000
Neuron 5 1 0.00000000 1 0.00000000 0.00000000 0.00000000 0.00000000
Neuron 6 2 0.00000000 1 0.00000000 0.00000000 0.00000000 0.00000000
Neuron 7 4 1.00000000 2 3.46776589 0.00000000 0.00000000 -0.44928748
Neuron 8 4 1.00000000 2 3.38214712 0.00000000 0.00000000 -0.06725154
Neuron 9 3 0.50000000 4 3.73829207 0.00000000 0.00000000 0.00297842
Neuron 10 3 0.50000000 9 3.33603983 0.00000000 0.00000000 -0.48109786
Link 1 9 1 0 0.03511437
Link 2 9 2 0 0.23698015
Link 3 9 3 0 -0.19771580
Link 4 9 4 0 0.28245461
Link 5 9 5 0 0.56674343
Link 6 9 6 0 -0.16490027
Link 1 10 7 0 0.28708677
Link 2 10 8 0 0.56560320
Link 3 10 9 0 0.12067355
Link 4 10 10 0 -0.97284786
Link 5 10 11 0 0.51693115
Link 6 10 12 0 -0.10765974
Link 9 7 13 0 0.27243727
Link 10 7 14 0 0.48126665
Link 9 8 15 0 -0.40955182
Link 10 8 16 0 -0.13439526
GenomeEnd

