GenomeStart 1881
Neuron 1 1 0.00000000 1 0.00000000 0.00000000 0.00000000 0.00000000
Neuron 2 1 0.00000000 1 0.00000000 0.00000000 0.00000000 0.00000000
Neuron 3 1 0.00000000 1 0.00000000 0.00000000 0.00000000 0.00000000
Neuron 4 1 0.00000000 1 0.00000000 0.00000000 0.00000000 0.00000000
Neuron 5 1 0.00000000 1 0.00000000 0.00000000 0.00000000 0.00000000
Neuron 6 2 0.00000000 1 0.00000000 0.00000000 0.00000000 0.00000000
Neuron 7 4 1.00000000 9 3.36952976 0.00000000 0.00000000 -0.32200860
Neuron 8 4 1.00000000 2 3.64749296 0.00000000 0.00000000 0.26977700
Neuron 9 3 0.50000000 6 3.22369501 0.00000000 0.00000000 0.28007361
Neuron 10 3 0.50000000 6 3.26049613 0.00000000 0.00000000 -0.35661380
Link 1 9 1 0 -0.04680778
Link 2 9 2 0 0.20997139
Link 3 9 3 0 -0.00807910
Link 4 9 4 0 -0.84639971
Link 5 9 5 0 0.30030990
Link 6 9 6 0 -0.45068242
Link 1 10 7 0 -0.06535259
Link 2 10 8 0 -0.07849600
Link 3 10 9 0 -0.53268688
Link 4 10 10 0 0.33613546
Link 5 10 11 0 0.13705916
Link 6 10 12 0 -0.03753115
Link 9 7 13 0 -0.62225992
Link 10 7 14 0 -0.53848290
Link 9 8 15 0 0.34867145
Link 10 8 16 0 -0.55420626
GenomeEnd

