GenomeStart 3562
Neuron 1 1 0.00000000 1 0.00000000 0.00000000 0.00000000 0.00000000
Neuron 2 1 0.00000000 1 0.00000000 0.00000000 0.00000000 0.00000000
Neuron 3 1 0.00000000 1 0.00000000 0.00000000 0.00000000 0.00000000
Neuron 4 1 0.00000000 1 0.00000000 0.00000000 0.00000000 0.00000000
Neuron 5 1 0.00000000 1 0.00000000 0.00000000 0.00000000 0.00000000
Neuron 6 2 0.00000000 1 0.00000000 0.00000000 0.00000000 0.00000000
Neuron 7 4 1.00000000 2 3.20332515 0.00000000 0.00000000 0.74982670
Neuron 8 4 1.00000000 11 3.79323691 0.00000000 0.00000000 -0.35718536
Neuron 9 3 0.50000000 6 3.57488472 0.00000000 0.00000000 0.00497164
Neuron 10 3 0.50000000 11 3.45799292 0.00000000 0.00000000 0.01533726
Link 1 9 1 0 -0.21406037
Link 2 9 2 0 -0.14408193
Link 3 9 3 0 0.60136978
Link 4 9 4 0 0.02969293
Link 5 9 5 0 0.22640275
Link 6 9 6 0 -0.46443112
Link 1 10 7 0 0.04189986
Link 2 10 8 0 -0.28106800
Link 3 10 9 0 -0.02523732
Link 4 10 10 0 -0.83693102
Link 5 10 11 0 -0.95742969
Link 6 10 12 0 0.53460833
Link 9 7 13 0 0.18910005
Link 10 7 14 0 0.50381411
Link 9 8 15 0 0.04347758
Link 10 8 16 0 0.12720814
GenomeEnd

