GenomeStart 2348
Neuron 1 1 0.00000000 1 0.00000000 0.00000000 0.00000000 0.00000000
Neuron 2 1 0.00000000 1 0.00000000 0.00000000 0.00000000 0.00000000
Neuron 3 1 0.00000000 1 0.00000000 0.00000000 0.00000000 0.00000000
Neuron 4 1 0.00000000 1 0.00000000 0.00000000 0.00000000 0.00000000
Neuron 5 1 0.00000000 1 0.00000000 0.00000000 0.00000000 0.00000000
Neuron 6 2 0.00000000 1 0.00000000 0.00000000 0.00000000 0.00000000
Neuron 7 4 1.00000000 2 3.51101360 0.00000000 0.00000000 -0.69965579
Neuron 8 4 1.00000000 2 3.32140242 0.00000000 0.00000000 -0.06122299
Neuron 9 3 0.50000000 11 3.59565379 0.00000000 0.00000000 -0.23140126
Neuron 10 3 0.50000000 6 3.46765053 0.00000000 0.00000000 0.21146073
Link 1 9 1 0 -0.10891474
Link 2 9 2 0 -0.42246753
Link 3 9 3 0 -0.25622767
Link 4 9 4 0 0.51031564
Link 5 9 5 0 0.87584110
Link 6 9 6 0 -0.43451053
Link 1 10 7 0 -0.35928809
Link 2 10 8 0 0.38563598
Link 3 10 9 0 -0.11161651
Link 4 10 10 0 -0.11909873
Link 5 10 11 0 0.17752754
Link 6 10 12 0 0.29204246
Link 9 7 13 0 -0.57732063
Link 10 7 14 0 0.43918573
Link 9 8 15 0 0.19035832
Link 10 8 16 0 -0.93067244
GenomeEnd

