GenomeStart 1385
Neuron 1 1 0.00000000 1 0.00000000 0.00000000 0.00000000 0.00000000
Neuron 2 1 0.00000000 1 0.00000000 0.00000000 0.00000000 0.00000000
Neuron 3 1 0.00000000 1 0.00000000 0.00000000 0.00000000 0.00000000
Neuron 4 1 0.00000000 1 0.00000000 0.00000000 0.00000000 0.00000000
Neuron 5 1 0.00000000 1 0.00000000 0.00000000 0.00000000 0.00000000
Neuron 6 2 0.00000000 1 0.00000000 0.00000000 0.00000000 0.00000000
Neuron 7 4 1.00000000 2 3.48062492 0.00000000 0.00000000 0.28768641
Neuron 8 4 1.00000000 2 3.50554891 0.00000000 0.00000000 0.51651877
Neuron 9 3 0.50000000 6 3.63777340 0.00000000 0.00000000 -0.35916599
Neuron 10 3 0.50000000 9 3.62918901 0.00000000 0.00000000 -0.63884408
Link 1 9 1 0 0.00756455
Link 2 9 2 0 -0.32127699
Link 3 9 3 0 -0.44393287
Link 4 9 4 0 0.53490554
Link 5 9 5 0 0.06940873
Link 6 9 6 0 -0.20992364
Link 1 10 7 0 -0.37018827
Link 2 10 8 0 0.29401245
Link 3 10 9 0 0.19451173
Link 4 10 10 0 -0.08585254
Link 5 10 11 0 0.11228183
Link 6 10 12 0 0.20053334
Link 9 7 13 0 0.62283500
Link 10 7 14 0 0.15979649
Link 9 8 15 0 -0.40852925
Link 10 8 16 0 0.33658538
GenomeEnd

