GenomeStart 146
Neuron 1 1 0.00000000 1 0.00000000 0.00000000 0.00000000 0.00000000
Neuron 2 1 0.00000000 1 0.00000000 0.00000000 0.00000000 0.00000000
Neuron 3 1 0.00000000 1 0.00000000 0.00000000 0.00000000 0.00000000
Neuron 4 1 0.00000000 1 0.00000000 0.00000000 0.00000000 0.00000000
Neuron 5 1 0.00000000 1 0.00000000 0.00000000 0.00000000 0.00000000
Neuron 6 2 0.00000000 1 0.00000000 0.00000000 0.00000000 0.00000000
Neuron 7 4 1.00000000 2 3.38542695 0.00000000 0.00000000 -0.19534767
Neuron 8 4 1.00000000 4 3.37638128 0.00000000 0.00000000 -0.57309885
Neuron 9 3 0.50000000 6 3.44990229 0.00000000 0.00000000 0.00057299
Neuron 10 3 0.50000000 6 3.83077014 0.00000000 0.00000000 -0.31353447
Link 1 9 1 0 0.39742866
Link 2 9 2 0 0.11053086
Link 3 9 3 0 0.35910181
Link 4 9 4 0 -0.44160539
Link 5 9 5 0 0.72904082
Link 6 9 6 0 0.21937816
Link 1 10 7 0 -0.10404761
Link 2 10 8 0 -0.56822720
Link 3 10 9 0 0.37650206
Link 4 10 10 0 0.42665250
Link 5 10 11 0 0.16117086
Link 6 10 12 0 0.46573524
Link 9 7 13 0 -0.25868692
Link 10 7 14 0 0.65966044
Link 9 8 15 0 -0.20099774
Link 10 8 16 0 0.38564117
GenomeEnd

