GenomeStart 2382
Neuron 1 1 0.00000000 1 0.00000000 0.00000000 0.00000000 0.00000000
Neuron 2 1 0.00000000 1 0.00000000 0.00000000 0.00000000 0.00000000
Neuron 3 1 0.00000000 1 0.00000000 0.00000000 0.00000000 0.00000000
Neuron 4 1 0.00000000 1 0.00000000 0.00000000 0.00000000 0.00000000
Neuron 5 1 0.00000000 1 0.00000000 0.00000000 0.00000000 0.00000000
Neuron 6 2 0.00000000 1 0.00000000 0.00000000 0.00000000 0.00000000
Neuron 7 4 1.00000000 2 3.29136617 0.00000000 0.00000000 0.03428054
Neuron 8 4 1.00000000 2 3.66561031 0.00000000 0.00000000 0.25059739
Neuron 9 3 0.50000000 6 3.29415912 0.00000000 0.00000000 -0.65425575
Neuron 10 3 0.50000000 6 3.22403708 0.00000000 0.00000000 -0.34575708
Link 1 9 1 0 -0.28374107
Link 2 9 2 0 0.30222195
Link 3 9 3 0 -0.00535889
Link 4 9 4 0 0.48462485
Link 5 9 5 0 0.10696554
Link 6 9 6 0 -0.15286896
Link 1 10 7 0 0.15256247
Link 2 10 8 0 0.13393898
Link 3 10 9 0 0.00949583
Link 4 10 10 0 -0.21157798
Link 5 10 11 0 -0.21795100
Link 6 10 12 0 -0.57222720
Link 9 7 13 0 0.28438614
Link 10 7 14 0 -0.22865986
Link 9 8 15 0 -0.42742154
Link 10 8 16 0 -0.56325013
GenomeEnd

