GenomeStart 229
Neuron 1 1 0.00000000 1 0.00000000 0.00000000 0.00000000 0.00000000
Neuron 2 1 0.00000000 1 0.00000000 0.00000000 0.00000000 0.00000000
Neuron 3 1 0.00000000 1 0.00000000 0.00000000 0.00000000 0.00000000
Neuron 4 1 0.00000000 1 0.00000000 0.00000000 0.00000000 0.00000000
Neuron 5 1 0.00000000 1 0.00000000 0.00000000 0.00000000 0.00000000
Neuron 6 2 0.00000000 1 0.00000000 0.00000000 0.00000000 0.00000000
Neuron 7 4 1.00000000 2 3.47703331 0.00000000 0.00000000 -0.48591845
Neuron 8 4 1.00000000 2 3.37439017 0.00000000 0.00000000 0.44937929
Neuron 9 3 0.50000000 6 3.18806465 0.00000000 0.00000000 0.21546084
Neuron 10 3 0.50000000 6 3.27002639 0.00000000 0.00000000 -0.00378356
Link 1 9 1 0 0.21634765
Link 2 9 2 0 0.03651481
Link 3 9 3 0 0.18953593
Link 4 9 4 0 -0.41711286
Link 5 9 5 0 -0.17583172
Link 6 9 6 0 0.58419361
Link 1 10 7 0 -0.01445653
Link 2 10 8 0 0.33214369
Link 3 10 9 0 -0.41201881
Link 4 10 10 0 0.20184021
Link 5 10 11 0 0.21272455
Link 6 10 12 0 -0.32911505
Link 9 7 13 0 0.06149983
Link 10 7 14 0 0.58149764
Link 9 8 15 0 -0.29398168
Link 10 8 16 0 0.72281004
GenomeEnd

