GenomeStart 26
Neuron 1 1 0.00000000 1 0.00000000 0.00000000 0.00000000 0.00000000
Neuron 2 1 0.00000000 1 0.00000000 0.00000000 0.00000000 0.00000000
Neuron 3 1 0.00000000 1 0.00000000 0.00000000 0.00000000 0.00000000
Neuron 4 1 0.00000000 1 0.00000000 0.00000000 0.00000000 0.00000000
Neuron 5 1 0.00000000 1 0.00000000 0.00000000 0.00000000 0.00000000
Neuron 6 2 0.00000000 1 0.00000000 0.00000000 0.00000000 0.00000000
Neuron 7 4 1.00000000 2 3.44933037 0.00000000 0.00000000 -0.73501972
Neuron 8 4 1.00000000 9 3.08161517 0.00000000 0.00000000 0.64746128
Neuron 9 3 0.50000000 6 3.81906374 0.00000000 0.00000000 0.58578753
Neuron 10 3 0.50000000 6 3.67628756 0.00000000 0.00000000 -0.37365282
Link 1 9 1 0 -0.13214267
Link 2 9 2 0 -0.34978893
Link 3 9 3 0 0.11167154
Link 4 9 4 0 -0.52825816
Link 5 9 5 0 -0.23631716
Link 6 9 6 0 0.20702804
Link 1 10 7 0 0.32807599
Link 2 10 8 0 -0.71206209
Link 3 10 9 0 0.09219323
Link 4 10 10 0 -0.20872798
Link 5 10 11 0 0.30868499
Link 6 10 12 0 -0.68413071
Link 9 7 13 0 -0.89057890
Link 10 7 14 0 0.66822813
Link 9 8 15 0 0.68909582
Link 10 8 16 0 -0.64442209
GenomeEnd

