GenomeStart 935
Neuron 1 1 0.00000000 1 0.00000000 0.00000000 0.00000000 0.00000000
Neuron 2 1 0.00000000 1 0.00000000 0.00000000 0.00000000 0.00000000
Neuron 3 1 0.00000000 1 0.00000000 0.00000000 0.00000000 0.00000000
Neuron 4 1 0.00000000 1 0.00000000 0.00000000 0.00000000 0.00000000
Neuron 5 1 0.00000000 1 0.00000000 0.00000000 0.00000000 0.00000000
Neuron 6 2 0.00000000 1 0.00000000 0.00000000 0.00000000 0.00000000
Neuron 7 4 1.00000000 2 3.37573496 0.00000000 0.00000000 0.02604821
Neuron 8 4 1.00000000 11 3.37307026 0.00000000 0.00000000 0.58836831
Neuron 9 3 0.50000000 6 3.55180312 0.00000000 0.00000000 0.30832170
Neuron 10 3 0.50000000 6 3.23244797 0.00000000 0.00000000 0.79371689
Link 1 9 1 0 -0.12010808
Link 2 9 2 0 0.13795238
Link 3 9 3 0 -0.31957316
Link 4 9 4 0 -0.57978570
Link 5 9 5 0 0.97105929
Link 6 9 6 0 0.83151622
Link 1 10 7 0 -0.25153813
Link 2 10 8 0 0.19940755
Link 3 10 9 0 -0.39180028
Link 4 10 10 0 -0.41376346
Link 5 10 11 0 -0.21916923
Link 6 10 12 0 -0.12778430
Link 9 7 13 0 -0.73907151
Link 10 7 14 0 -0.78754575
Link 9 8 15 0 0.03200877
Link 10 8 16 0 -0.27810007
GenomeEnd

