GenomeStart 2437
Neuron 1 1 0.00000000 1 0.00000000 0.00000000 0.00000000 0.00000000
Neuron 2 1 0.00000000 1 0.00000000 0.00000000 0.00000000 0.00000000
Neuron 3 1 0.00000000 1 0.00000000 0.00000000 0.00000000 0.00000000
Neuron 4 1 0.00000000 1 0.00000000 0.00000000 0.00000000 0.00000000
Neuron 5 1 0.00000000 1 0.00000000 0.00000000 0.00000000 0.00000000
Neuron 6 2 0.00000000 1 0.00000000 0.00000000 0.00000000 0.00000000
Neuron 7 4 1.00000000 2 3.82259449 0.00000000 0.00000000 -0.56635638
Neuron 8 4 1.00000000 2 3.52730789 0.00000000 0.00000000 0.34634884
Neuron 9 3 0.50000000 6 3.39107897 0.00000000 0.00000000 -0.45565746
Neuron 10 3 0.50000000 6 3.30104855 0.00000000 0.00000000 -0.06336411
Link 1 9 1 0 0.05976393
Link 2 9 2 0 0.22012591
Link 3 9 3 0 -0.26799331
Link 4 9 4 0 -0.59445941
Link 5 9 5 0 0.05226251
Link 6 9 6 0 -0.40366770
Link 1 10 7 0 0.09729932
Link 2 10 8 0 -0.54320860
Link 3 10 9 0 -0.39203222
Link 4 10 10 0 0.03942623
Link 5 10 11 0 0.72472142
Link 6 10 12 0 0.80296390
Link 9 7 13 0 0.31605387
Link 10 7 14 0 -0.41372739
Link 9 8 15 0 0.78340144
Link 10 8 16 0 -0.15595333
GenomeEnd

