GenomeStart 32
Neuron 1 1 0.00000000 1 0.00000000 0.00000000 0.00000000 0.00000000
Neuron 2 1 0.00000000 1 0.00000000 0.00000000 0.00000000 0.00000000
Neuron 3 1 0.00000000 1 0.00000000 0.00000000 0.00000000 0.00000000
Neuron 4 1 0.00000000 1 0.00000000 0.00000000 0.00000000 0.00000000
Neuron 5 1 0.00000000 1 0.00000000 0.00000000 0.00000000 0.00000000
Neuron 6 2 0.00000000 1 0.00000000 0.00000000 0.00000000 0.00000000
Neuron 7 4 1.00000000 2 3.77706897 0.00000000 0.00000000 -0.41649519
Neuron 8 4 1.00000000 2 3.42533658 0.00000000 0.00000000 -0.58846790
Neuron 9 3 0.50000000 11 3.15271707 0.00000000 0.00000000 -0.43520852
Neuron 10 3 0.50000000 6 3.90848460 0.00000000 0.00000000 0.14659104
Link 1 9 1 0 0.09653183
Link 2 9 2 0 0.13677931
Link 3 9 3 0 -0.26575561
Link 4 9 4 0 -0.17750565
Link 5 9 5 0 -0.35126802
Link 6 9 6 0 -0.29421431
Link 1 10 7 0 -0.04770375
Link 2 10 8 0 -0.78980527
Link 3 10 9 0 -0.22453978
Link 4 10 10 0 0.12477462
Link 5 10 11 0 0.24531233
Link 6 10 12 0 -0.78585925
Link 9 7 13 0 -0.07559662
Link 10 7 14 0 0.63499417
Link 9 8 15 0 -0.34738379
Link 10 8 16 0 -0.28684653
GenomeEnd

