GenomeStart 2333
Neuron 1 1 0.00000000 1 0.00000000 0.00000000 0.00000000 0.00000000
Neuron 2 1 0.00000000 1 0.00000000 0.00000000 0.00000000 0.00000000
Neuron 3 1 0.00000000 1 0.00000000 0.00000000 0.00000000 0.00000000
Neuron 4 1 0.00000000 1 0.00000000 0.00000000 0.00000000 0.00000000
Neuron 5 1 0.00000000 1 0.00000000 0.00000000 0.00000000 0.00000000
Neuron 6 2 0.00000000 1 0.00000000 0.00000000 0.00000000 0.00000000
Neuron 7 4 1.00000000 2 3.33253755 0.00000000 0.00000000 -0.11755304
Neuron 8 4 1.00000000 2 3.60777205 0.00000000 0.00000000 -0.27588799
Neuron 9 3 0.50000000 6 3.49894327 0.00000000 0.00000000 -0.04272433
Neuron 10 3 0.50000000 6 3.51695258 0.00000000 0.00000000 0.06406585
Link 1 9 1 0 0.00575254
Link 2 9 2 0 -0.37470056
Link 3 9 3 0 0.27104819
Link 4 9 4 0 -0.25884795
Link 5 9 5 0 0.07034926
Link 6 9 6 0 0.57462635
Link 1 10 7 0 0.07973498
Link 2 10 8 0 -0.77456740
Link 3 10 9 0 0.07113903
Link 4 10 10 0 -0.05440714
Link 5 10 11 0 0.02524475
Link 6 10 12 0 0.30729326
Link 9 7 13 0 -0.98863548
Link 10 7 14 0 -0.33006886
Link 9 8 15 0 0.03957855
Link 10 8 16 0 -0.43061275
GenomeEnd

