GenomeStart 4200
Neuron 1 1 0.00000000 1 0.00000000 0.00000000 0.00000000 0.00000000
Neuron 2 1 0.00000000 1 0.00000000 0.00000000 0.00000000 0.00000000
Neuron 3 1 0.00000000 1 0.00000000 0.00000000 0.00000000 0.00000000
Neuron 4 1 0.00000000 1 0.00000000 0.00000000 0.00000000 0.00000000
Neuron 5 1 0.00000000 1 0.00000000 0.00000000 0.00000000 0.00000000
Neuron 6 2 0.00000000 1 0.00000000 0.00000000 0.00000000 0.00000000
Neuron 7 4 1.00000000 2 3.68255307 0.00000000 0.00000000 -0.07238359
Neuron 8 4 1.00000000 2 3.13137711 0.00000000 0.00000000 -0.64365781
Neuron 9 3 0.50000000 6 3.43635920 0.00000000 0.00000000 -0.62650346
Neuron 10 3 0.50000000 6 3.61266570 0.00000000 0.00000000 0.16476985
Link 1 9 1 0 0.24269965
Link 2 9 2 0 -0.14955420
Link 3 9 3 0 -0.49995212
Link 4 9 4 0 0.36744262
Link 5 9 5 0 -0.28860275
Link 6 9 6 0 -0.39479704
Link 1 10 7 0 -0.05277954
Link 2 10 8 0 0.38148019
Link 3 10 9 0 0.95836693
Link 4 10 10 0 0.55527121
Link 5 10 11 0 0.09198338
Link 6 10 12 0 0.37509899
Link 9 7 13 0 0.00866383
Link 10 7 14 0 0.96083950
Link 9 8 15 0 -0.65467447
Link 10 8 16 0 0.36484891
Link 5 8 35 0 -0.17359767
GenomeEnd

