GenomeStart 902
Neuron 1 1 0.00000000 1 0.00000000 0.00000000 0.00000000 0.00000000
Neuron 2 1 0.00000000 1 0.00000000 0.00000000 0.00000000 0.00000000
Neuron 3 1 0.00000000 1 0.00000000 0.00000000 0.00000000 0.00000000
Neuron 4 1 0.00000000 1 0.00000000 0.00000000 0.00000000 0.00000000
Neuron 5 1 0.00000000 1 0.00000000 0.00000000 0.00000000 0.00000000
Neuron 6 2 0.00000000 1 0.00000000 0.00000000 0.00000000 0.00000000
Neuron 7 4 1.00000000 2 3.05777173 0.00000000 0.00000000 -0.11843918
Neuron 8 4 1.00000000 2 3.29167437 0.00000000 0.00000000 -0.49796425
Neuron 9 3 0.50000000 6 3.63507168 0.00000000 0.00000000 0.11274089
Neuron 10 3 0.50000000 4 3.81464561 0.00000000 0.00000000 -0.13938210
Link 1 9 1 0 0.27915438
Link 2 9 2 0 0.16997055
Link 3 9 3 0 -0.93088435
Link 4 9 4 0 -0.64680366
Link 5 9 5 0 -0.03796591
Link 6 9 6 0 0.19094463
Link 1 10 7 0 0.11040499
Link 2 10 8 0 0.30502105
Link 3 10 9 0 -0.05493071
Link 4 10 10 0 -0.31808208
Link 5 10 11 0 -0.11711091
Link 6 10 12 0 -0.40988485
Link 9 7 13 0 0.30963605
Link 10 7 14 0 -0.25569303
Link 9 8 15 0 -0.29829790
Link 10 8 16 0 -0.44140109
GenomeEnd

