GenomeStart 1342
Neuron 1 1 0.00000000 1 0.00000000 0.00000000 0.00000000 0.00000000
Neuron 2 1 0.00000000 1 0.00000000 0.00000000 0.00000000 0.00000000
Neuron 3 1 0.00000000 1 0.00000000 0.00000000 0.00000000 0.00000000
Neuron 4 1 0.00000000 1 0.00000000 0.00000000 0.00000000 0.00000000
Neuron 5 1 0.00000000 1 0.00000000 0.00000000 0.00000000 0.00000000
Neuron 6 2 0.00000000 1 0.00000000 0.00000000 0.00000000 0.00000000
Neuron 7 4 1.00000000 9 3.53852786 0.00000000 0.00000000 0.48522714
Neuron 8 4 1.00000000 2 3.61685303 0.00000000 0.00000000 -0.09202528
Neuron 9 3 0.50000000 11 3.64457846 0.00000000 0.00000000 0.15931571
Neuron 10 3 0.50000000 6 3.31183541 0.00000000 0.00000000 0.42378784
Link 1 9 1 0 -0.44048572
Link 2 9 2 0 -0.64725631
Link 3 9 3 0 -0.21740126
Link 4 9 4 0 -0.13669528
Link 5 9 5 0 0.25603264
Link 6 9 6 0 -0.45665188
Link 1 10 7 0 -0.20358468
Link 2 10 8 0 0.45797999
Link 3 10 9 0 -0.04018619
Link 4 10 10 0 0.45540973
Link 5 10 11 0 0.14236537
Link 6 10 12 0 -0.23230549
Link 9 7 13 0 0.17187486
Link 10 7 14 0 0.36113750
Link 9 8 15 0 0.69865036
Link 10 8 16 0 0.53585050
GenomeEnd

