GenomeStart 350
Neuron 1 1 0.00000000 1 0.00000000 0.00000000 0.00000000 0.00000000
Neuron 2 1 0.00000000 1 0.00000000 0.00000000 0.00000000 0.00000000
Neuron 3 1 0.00000000 1 0.00000000 0.00000000 0.00000000 0.00000000
Neuron 4 1 0.00000000 1 0.00000000 0.00000000 0.00000000 0.00000000
Neuron 5 1 0.00000000 1 0.00000000 0.00000000 0.00000000 0.00000000
Neuron 6 2 0.00000000 1 0.00000000 0.00000000 0.00000000 0.00000000
Neuron 7 4 1.00000000 2 3.08281538 0.00000000 0.00000000 0.66442586
Neuron 8 4 1.00000000 4 3.55931190 0.00000000 0.00000000 -0.71386164
Neuron 9 3 0.50000000 6 3.43013928 0.00000000 0.00000000 0.62124172
Neuron 10 3 0.50000000 6 3.68079538 0.00000000 0.00000000 0.21542107
Link 1 9 1 0 0.31288525
Link 2 9 2 0 0.96931511
Link 3 9 3 0 0.07791859
Link 4 9 4 0 0.59002877
Link 5 9 5 0 -0.06139990
Link 6 9 6 0 -0.31340957
Link 1 10 7 0 0.04045963
Link 2 10 8 0 -0.88543561
Link 3 10 9 0 0.26503503
Link 4 10 10 0 0.23516535
Link 5 10 11 0 -0.03739744
Link 6 10 12 0 0.52515683
Link 9 7 13 0 0.44221345
Link 10 7 14 0 0.52424691
Link 9 8 15 0 0.20617284
Link 10 8 16 0 0.29084005
GenomeEnd

