GenomeStart 1209
Neuron 1 1 0.00000000 1 0.00000000 0.00000000 0.00000000 0.00000000
Neuron 2 1 0.00000000 1 0.00000000 0.00000000 0.00000000 0.00000000
Neuron 3 1 0.00000000 1 0.00000000 0.00000000 0.00000000 0.00000000
Neuron 4 1 0.00000000 1 0.00000000 0.00000000 0.00000000 0.00000000
Neuron 5 1 0.00000000 1 0.00000000 0.00000000 0.00000000 0.00000000
Neuron 6 2 0.00000000 1 0.00000000 0.00000000 0.00000000 0.00000000
Neuron 7 4 1.00000000 2 3.48792548 0.00000000 0.00000000 0.49650754
Neuron 8 4 1.00000000 2 3.65324050 0.00000000 0.00000000 -0.18673478
Neuron 9 3 0.50000000 11 3.36795940 0.00000000 0.00000000 -0.36177630
Neuron 10 3 0.50000000 6 3.32620909 0.00000000 0.00000000 0.03022280
Link 1 9 1 0 0.00554603
Link 2 9 2 0 -0.54127782
Link 3 9 3 0 -0.34937497
Link 4 9 4 0 0.76938611
Link 5 9 5 0 0.81964238
Link 6 9 6 0 -0.08318196
Link 1 10 7 0 0.88845924
Link 2 10 8 0 0.14003659
Link 3 10 9 0 -0.02752467
Link 4 10 10 0 0.20784545
Link 5 10 11 0 -0.91959877
Link 6 10 12 0 -0.34864389
Link 9 7 13 0 0.50195844
Link 10 7 14 0 -0.06963754
Link 9 8 15 0 0.37681327
Link 10 8 16 0 -0.13463121
GenomeEnd

