GenomeStart 1565
Neuron 1 1 0.00000000 1 0.00000000 0.00000000 0.00000000 0.00000000
Neuron 2 1 0.00000000 1 0.00000000 0.00000000 0.00000000 0.00000000
Neuron 3 1 0.00000000 1 0.00000000 0.00000000 0.00000000 0.00000000
Neuron 4 1 0.00000000 1 0.00000000 0.00000000 0.00000000 0.00000000
Neuron 5 1 0.00000000 1 0.00000000 0.00000000 0.00000000 0.00000000
Neuron 6 2 0.00000000 1 0.00000000 0.00000000 0.00000000 0.00000000
Neuron 7 4 1.00000000 2 3.24430754 0.00000000 0.00000000 0.97854106
Neuron 8 4 1.00000000 9 3.53824194 0.00000000 0.00000000 0.39441554
Neuron 9 3 0.50000000 6 3.46330310 0.00000000 0.00000000 -0.32064185
Neuron 10 3 0.50000000 6 3.42025255 0.00000000 0.00000000 0.09729194
Link 1 9 1 0 0.05214974
Link 2 9 2 0 -0.18088806
Link 3 9 3 0 0.14853577
Link 4 9 4 0 -0.26061127
Link 5 9 5 0 0.52552407
Link 6 9 6 0 0.05679726
Link 1 10 7 0 -0.01623031
Link 2 10 8 0 -0.07566479
Link 3 10 9 0 -0.27691801
Link 4 10 10 0 -0.61461517
Link 5 10 11 0 -0.08716764
Link 6 10 12 0 -0.80900209
Link 9 7 13 0 -0.55712401
Link 10 7 14 0 0.41231023
Link 9 8 15 0 0.01258817
Link 10 8 16 0 -0.16347686
GenomeEnd

