GenomeStart 4200
Neuron 1 1 0.00000000 1 0.00000000 0.00000000 0.00000000 0.00000000
Neuron 2 1 0.00000000 1 0.00000000 0.00000000 0.00000000 0.00000000
Neuron 3 1 0.00000000 1 0.00000000 0.00000000 0.00000000 0.00000000
Neuron 4 1 0.00000000 1 0.00000000 0.00000000 0.00000000 0.00000000
Neuron 5 1 0.00000000 1 0.00000000 0.00000000 0.00000000 0.00000000
Neuron 6 2 0.00000000 1 0.00000000 0.00000000 0.00000000 0.00000000
Neuron 7 4 1.00000000 2 3.42030257 0.00000000 0.00000000 0.06824384
Neuron 8 4 1.00000000 2 3.35763559 0.00000000 0.00000000 -0.14716560
Neuron 9 3 0.50000000 6 3.52909235 0.00000000 0.00000000 0.37451273
Neuron 10 3 0.50000000 6 3.43471000 0.00000000 0.00000000 -0.19924639
Neuron 18 3 0.25000000 4 6.43217691 0.00000000 0.00000000 0.10902410
Link 2 9 2 0 0.77261453
Link 3 9 3 0 -0.82809088
Link 4 9 4 0 0.33270220
Link 5 9 5 0 0.38359000
Link 6 9 6 0 0.21360141
Link 1 10 7 0 -0.07081648
Link 2 10 8 0 0.37707443
Link 3 10 9 0 -0.37633752
Link 4 10 10 0 0.47341091
Link 5 10 11 0 -0.14540284
Link 6 10 12 0 0.40283268
Link 9 7 13 0 0.25836299
Link 10 7 14 0 0.93039598
Link 9 8 15 0 -0.07236310
Link 10 8 16 0 -0.54058382
Link 1 18 50 0 1.00000000
Link 18 9 51 0 0.06375989
GenomeEnd

