GenomeStart 3147
Neuron 1 1 0.00000000 1 0.00000000 0.00000000 0.00000000 0.00000000
Neuron 2 1 0.00000000 1 0.00000000 0.00000000 0.00000000 0.00000000
Neuron 3 1 0.00000000 1 0.00000000 0.00000000 0.00000000 0.00000000
Neuron 4 1 0.00000000 1 0.00000000 0.00000000 0.00000000 0.00000000
Neuron 5 1 0.00000000 1 0.00000000 0.00000000 0.00000000 0.00000000
Neuron 6 2 0.00000000 1 0.00000000 0.00000000 0.00000000 0.00000000
Neuron 7 4 1.00000000 2 3.79231249 0.00000000 0.00000000 0.26957723
Neuron 8 4 1.00000000 2 3.20501100 0.00000000 0.00000000 -0.07744569
Neuron 9 3 0.50000000 6 3.55010591 0.00000000 0.00000000 -0.04133091
Neuron 10 3 0.50000000 6 3.64976137 0.00000000 0.00000000 0.69457597
Neuron 12 3 0.25000000 9 2.72064438 0.00000000 0.00000000 0.03276514
Link 1 9 1 0 0.12551633
Link 2 9 2 0 -0.32406445
Link 3 9 3 0 -0.18211439
Link 4 9 4 0 0.14970517
Link 5 9 5 0 -0.28065489
Link 6 9 6 0 -0.81013063
Link 1 10 7 0 0.13982766
Link 2 10 8 0 0.58667381
Link 4 10 10 0 -0.03428884
Link 5 10 11 0 -0.10175452
Link 6 10 12 0 0.70029905
Link 9 7 13 0 -0.38251553
Link 10 7 14 0 0.65180612
Link 9 8 15 0 0.56909243
Link 10 8 16 0 0.32856403
Link 3 12 23 0 1.00000000
Link 12 10 24 0 0.56901071
GenomeEnd

