GenomeStart 350
Neuron 1 1 0.00000000 1 0.00000000 0.00000000 0.00000000 0.00000000
Neuron 2 1 0.00000000 1 0.00000000 0.00000000 0.00000000 0.00000000
Neuron 3 1 0.00000000 1 0.00000000 0.00000000 0.00000000 0.00000000
Neuron 4 1 0.00000000 1 0.00000000 0.00000000 0.00000000 0.00000000
Neuron 5 1 0.00000000 1 0.00000000 0.00000000 0.00000000 0.00000000
Neuron 6 2 0.00000000 1 0.00000000 0.00000000 0.00000000 0.00000000
Neuron 7 4 1.00000000 2 3.44510336 0.00000000 0.00000000 0.33545225
Neuron 8 4 1.00000000 2 3.15645153 0.00000000 0.00000000 0.67986564
Neuron 9 3 0.50000000 6 3.19285079 0.00000000 0.00000000 0.11964546
Neuron 10 3 0.50000000 6 3.66694776 0.00000000 0.00000000 -0.06823394
Link 1 9 1 0 -0.06943286
Link 2 9 2 0 -0.60432878
Link 3 9 3 0 -0.22148207
Link 4 9 4 0 -0.25517674
Link 5 9 5 0 -0.56079689
Link 6 9 6 0 0.08583443
Link 1 10 7 0 0.67095776
Link 2 10 8 0 0.13672422
Link 3 10 9 0 -0.63177938
Link 4 10 10 0 -0.14203531
Link 5 10 11 0 0.05686854
Link 6 10 12 0 -0.30884798
Link 9 7 13 0 0.42257110
Link 10 7 14 0 0.95502578
Link 9 8 15 0 0.68509111
Link 10 8 16 0 0.10032130
GenomeEnd

