GenomeStart 66857
Neuron 1 1 0.00000000 1 0.00000000 0.00000000 0.00000000 0.00000000
Neuron 2 1 0.00000000 1 0.00000000 0.00000000 0.00000000 0.00000000
Neuron 3 1 0.00000000 1 0.00000000 0.00000000 0.00000000 0.00000000
Neuron 4 1 0.00000000 1 0.00000000 0.00000000 0.00000000 0.00000000
Neuron 5 1 0.00000000 1 0.00000000 0.00000000 0.00000000 0.00000000
Neuron 6 2 0.00000000 1 0.00000000 0.00000000 0.00000000 0.00000000
Neuron 7 4 1.00000000 11 3.52028005 0.00000000 0.00000000 -0.01165162
Neuron 8 4 1.00000000 4 3.52204267 0.00000000 0.00000000 -0.03966969
Neuron 9 3 0.50000000 6 3.57688016 0.00000000 0.00000000 -0.82905032
Neuron 10 3 0.50000000 6 3.89045185 0.00000000 0.00000000 -0.35894596
Neuron 15 3 0.25000000 6 1.60698026 0.00000000 0.00000000 -0.19714792
Neuron 16 3 0.75000000 4 2.71474662 0.00000000 0.00000000 0.05599634
Neuron 18 3 0.25000000 11 6.62003553 0.00000000 0.00000000 0.06945045
Neuron 41 3 0.62500000 11 3.97289754 0.00000000 0.00000000 0.15902758
Link 1 9 1 0 -0.46711468
Link 3 9 3 0 0.01185568
Link 1 10 7 0 -0.25041074
Link 3 10 9 0 -0.08262883
Link 4 10 10 0 0.33146310
Link 6 10 12 0 -0.82242588
Link 10 7 14 0 0.40013004
Link 2 15 37 0 0.99750506
Link 9 16 40 0 -0.21631082
Link 16 8 41 0 -0.23372995
Link 5 18 50 0 0.60244290
Link 18 10 51 0 0.57418526
Link 5 8 71 0 -0.35423494
Link 15 41 175 0 0.11331449
Link 41 7 176 0 0.70417157
GenomeEnd

