GenomeStart 700
Neuron 1 1 0.00000000 1 0.00000000 0.00000000 0.00000000 0.00000000
Neuron 2 1 0.00000000 1 0.00000000 0.00000000 0.00000000 0.00000000
Neuron 3 1 0.00000000 1 0.00000000 0.00000000 0.00000000 0.00000000
Neuron 4 1 0.00000000 1 0.00000000 0.00000000 0.00000000 0.00000000
Neuron 5 1 0.00000000 1 0.00000000 0.00000000 0.00000000 0.00000000
Neuron 6 2 0.00000000 1 0.00000000 0.00000000 0.00000000 0.00000000
Neuron 7 4 1.00000000 9 3.39207264 0.00000000 0.00000000 0.17819918
Neuron 8 4 1.00000000 11 3.85507418 0.00000000 0.00000000 -0.27204754
Neuron 9 3 0.50000000 6 3.29713873 0.00000000 0.00000000 -0.13416857
Neuron 10 3 0.50000000 6 3.35023583 0.00000000 0.00000000 0.68558511
Link 1 9 1 0 -0.07104388
Link 2 9 2 0 0.32322299
Link 3 9 3 0 0.33904973
Link 4 9 4 0 0.20688305
Link 5 9 5 0 0.01502244
Link 6 9 6 0 0.22532067
Link 1 10 7 0 -0.19237386
Link 2 10 8 0 -0.14916709
Link 3 10 9 0 -0.29543887
Link 4 10 10 0 0.63751514
Link 5 10 11 0 -0.77801366
Link 6 10 12 0 -0.88226224
Link 9 7 13 0 -0.02709287
Link 10 7 14 0 0.92334711
Link 9 8 15 0 0.60718985
Link 10 8 16 0 0.09208147
GenomeEnd

