GenomeStart 791
Neuron 1 1 0.00000000 1 0.00000000 0.00000000 0.00000000 0.00000000
Neuron 2 1 0.00000000 1 0.00000000 0.00000000 0.00000000 0.00000000
Neuron 3 1 0.00000000 1 0.00000000 0.00000000 0.00000000 0.00000000
Neuron 4 1 0.00000000 1 0.00000000 0.00000000 0.00000000 0.00000000
Neuron 5 1 0.00000000 1 0.00000000 0.00000000 0.00000000 0.00000000
Neuron 6 2 0.00000000 1 0.00000000 0.00000000 0.00000000 0.00000000
Neuron 7 4 1.00000000 2 3.79010036 0.00000000 0.00000000 -0.01811077
Neuron 8 4 1.00000000 2 3.38489329 0.00000000 0.00000000 -0.54230633
Neuron 9 3 0.50000000 6 3.53816803 0.00000000 0.00000000 -0.28850625
Neuron 10 3 0.50000000 11 3.53704306 0.00000000 0.00000000 -0.45251452
Link 1 9 1 0 0.23148517
Link 2 9 2 0 -0.07856422
Link 3 9 3 0 0.05109550
Link 4 9 4 0 0.07364720
Link 5 9 5 0 -0.16697509
Link 6 9 6 0 0.16111048
Link 1 10 7 0 0.03633122
Link 2 10 8 0 0.08557553
Link 3 10 9 0 0.04425528
Link 4 10 10 0 -0.31298378
Link 5 10 11 0 -0.04519552
Link 6 10 12 0 0.49104086
Link 9 7 13 0 -0.01246607
Link 10 7 14 0 -0.53341046
Link 9 8 15 0 0.19529676
Link 10 8 16 0 0.16611292
GenomeEnd

