GenomeStart 1400
Neuron 1 1 0.00000000 1 0.00000000 0.00000000 0.00000000 0.00000000
Neuron 2 1 0.00000000 1 0.00000000 0.00000000 0.00000000 0.00000000
Neuron 3 1 0.00000000 1 0.00000000 0.00000000 0.00000000 0.00000000
Neuron 4 1 0.00000000 1 0.00000000 0.00000000 0.00000000 0.00000000
Neuron 5 1 0.00000000 1 0.00000000 0.00000000 0.00000000 0.00000000
Neuron 6 2 0.00000000 1 0.00000000 0.00000000 0.00000000 0.00000000
Neuron 7 4 1.00000000 2 3.22599262 0.00000000 0.00000000 0.90909243
Neuron 8 4 1.00000000 2 3.52376622 0.00000000 0.00000000 0.16463766
Neuron 9 3 0.50000000 6 3.71371571 0.00000000 0.00000000 -0.06661750
Neuron 10 3 0.50000000 9 3.93355848 0.00000000 0.00000000 0.21830976
Link 1 9 1 0 0.04839677
Link 2 9 2 0 0.00002112
Link 3 9 3 0 -0.01067212
Link 4 9 4 0 0.28974033
Link 5 9 5 0 -0.38668566
Link 6 9 6 0 -0.44422280
Link 1 10 7 0 -0.04778466
Link 2 10 8 0 -0.47795416
Link 3 10 9 0 0.10187080
Link 4 10 10 0 -0.50481402
Link 5 10 11 0 -0.00721260
Link 6 10 12 0 -0.23363098
Link 9 7 13 0 0.07507555
Link 10 7 14 0 -0.66871391
Link 9 8 15 0 -0.17707880
Link 10 8 16 0 -0.30339509
GenomeEnd

