GenomeStart 2287
Neuron 1 1 0.00000000 1 0.00000000 0.00000000 0.00000000 0.00000000
Neuron 2 1 0.00000000 1 0.00000000 0.00000000 0.00000000 0.00000000
Neuron 3 1 0.00000000 1 0.00000000 0.00000000 0.00000000 0.00000000
Neuron 4 1 0.00000000 1 0.00000000 0.00000000 0.00000000 0.00000000
Neuron 5 1 0.00000000 1 0.00000000 0.00000000 0.00000000 0.00000000
Neuron 6 2 0.00000000 1 0.00000000 0.00000000 0.00000000 0.00000000
Neuron 7 4 1.00000000 9 3.86283780 0.00000000 0.00000000 0.25496631
Neuron 8 4 1.00000000 2 3.25342394 0.00000000 0.00000000 0.05846593
Neuron 9 3 0.50000000 6 3.84656525 0.00000000 0.00000000 0.51508354
Neuron 10 3 0.50000000 9 3.59734564 0.00000000 0.00000000 -0.27105468
Link 1 9 1 0 0.06679477
Link 2 9 2 0 -0.15997711
Link 3 9 3 0 -0.31675558
Link 4 9 4 0 -0.10990956
Link 5 9 5 0 0.49076745
Link 6 9 6 0 0.05947223
Link 1 10 7 0 -0.12114365
Link 2 10 8 0 0.26174255
Link 3 10 9 0 0.24135274
Link 4 10 10 0 -0.83030668
Link 5 10 11 0 -0.43706426
Link 6 10 12 0 0.21881984
Link 9 7 13 0 -0.37637123
Link 10 7 14 0 0.25649744
Link 9 8 15 0 0.21885123
Link 10 8 16 0 -0.08180468
GenomeEnd

