GenomeStart 437
Neuron 1 1 0.00000000 1 0.00000000 0.00000000 0.00000000 0.00000000
Neuron 2 1 0.00000000 1 0.00000000 0.00000000 0.00000000 0.00000000
Neuron 3 1 0.00000000 1 0.00000000 0.00000000 0.00000000 0.00000000
Neuron 4 1 0.00000000 1 0.00000000 0.00000000 0.00000000 0.00000000
Neuron 5 1 0.00000000 1 0.00000000 0.00000000 0.00000000 0.00000000
Neuron 6 2 0.00000000 1 0.00000000 0.00000000 0.00000000 0.00000000
Neuron 7 4 1.00000000 2 3.69406365 0.00000000 0.00000000 -0.40565550
Neuron 8 4 1.00000000 2 3.35876990 0.00000000 0.00000000 0.51624777
Neuron 9 3 0.50000000 6 3.49446234 0.00000000 0.00000000 -0.29134769
Neuron 10 3 0.50000000 6 3.46083159 0.00000000 0.00000000 -0.23178849
Link 1 9 1 0 0.47967311
Link 2 9 2 0 0.17543639
Link 3 9 3 0 -0.10789843
Link 4 9 4 0 -0.08124593
Link 5 9 5 0 0.22288883
Link 6 9 6 0 -0.11651522
Link 1 10 7 0 -0.00562866
Link 2 10 8 0 0.43735880
Link 3 10 9 0 0.75168646
Link 4 10 10 0 0.37114226
Link 5 10 11 0 0.44935003
Link 6 10 12 0 0.00651475
Link 9 7 13 0 0.05245232
Link 10 7 14 0 0.13205280
Link 9 8 15 0 -0.37831310
Link 10 8 16 0 -0.47760921
GenomeEnd

