GenomeStart 1909
Neuron 1 1 0.00000000 1 0.00000000 0.00000000 0.00000000 0.00000000
Neuron 2 1 0.00000000 1 0.00000000 0.00000000 0.00000000 0.00000000
Neuron 3 1 0.00000000 1 0.00000000 0.00000000 0.00000000 0.00000000
Neuron 4 1 0.00000000 1 0.00000000 0.00000000 0.00000000 0.00000000
Neuron 5 1 0.00000000 1 0.00000000 0.00000000 0.00000000 0.00000000
Neuron 6 2 0.00000000 1 0.00000000 0.00000000 0.00000000 0.00000000
Neuron 7 4 1.00000000 2 3.49315254 0.00000000 0.00000000 0.48704577
Neuron 8 4 1.00000000 2 3.26439587 0.00000000 0.00000000 -0.06607428
Neuron 9 3 0.50000000 6 3.49393299 0.00000000 0.00000000 -0.00720206
Neuron 10 3 0.50000000 6 3.47699295 0.00000000 0.00000000 0.13294106
Link 1 9 1 0 -0.15442709
Link 2 9 2 0 0.27807651
Link 3 9 3 0 -0.59051219
Link 4 9 4 0 0.47756387
Link 5 9 5 0 -0.31405413
Link 6 9 6 0 0.25874272
Link 1 10 7 0 -0.17527809
Link 2 10 8 0 -0.22703432
Link 3 10 9 0 -0.33234064
Link 4 10 10 0 0.27735356
Link 5 10 11 0 0.27511932
Link 6 10 12 0 -0.50468532
Link 9 7 13 0 -0.43684749
Link 10 7 14 0 -0.42929422
Link 9 8 15 0 -0.27552208
Link 10 8 16 0 -0.03004524
GenomeEnd

