GenomeStart 4547
Neuron 1 1 0.00000000 1 0.00000000 0.00000000 0.00000000 0.00000000
Neuron 2 1 0.00000000 1 0.00000000 0.00000000 0.00000000 0.00000000
Neuron 3 1 0.00000000 1 0.00000000 0.00000000 0.00000000 0.00000000
Neuron 4 1 0.00000000 1 0.00000000 0.00000000 0.00000000 0.00000000
Neuron 5 1 0.00000000 1 0.00000000 0.00000000 0.00000000 0.00000000
Neuron 6 2 0.00000000 1 0.00000000 0.00000000 0.00000000 0.00000000
Neuron 7 4 1.00000000 2 3.21933142 0.00000000 0.00000000 -0.25823457
Neuron 8 4 1.00000000 4 3.70488545 0.00000000 0.00000000 0.88795308
Neuron 9 3 0.50000000 6 3.50719226 0.00000000 0.00000000 -0.21914176
Neuron 10 3 0.50000000 9 3.21631090 0.00000000 0.00000000 0.07608959
Neuron 22 3 0.25000000 11 2.12896002 0.00000000 0.00000000 -0.15981887
Link 1 9 1 0 -0.31744590
Link 3 9 3 0 0.51402242
Link 4 9 4 0 0.38207275
Link 5 9 5 0 -0.15729702
Link 6 9 6 0 -0.65534512
Link 1 10 7 0 0.03926046
Link 2 10 8 0 -0.06222851
Link 3 10 9 0 0.53007644
Link 4 10 10 0 0.48705940
Link 5 10 11 0 -0.08270802
Link 6 10 12 0 -0.37915341
Link 9 7 13 0 -0.68988041
Link 10 7 14 0 0.29536363
Link 9 8 15 0 0.02034672
Link 10 8 16 0 -0.06564051
Link 2 22 64 0 1.00000000
Link 22 9 65 0 -0.35618994
GenomeEnd

