GenomeStart 2453
Neuron 1 1 0.00000000 1 0.00000000 0.00000000 0.00000000 0.00000000
Neuron 2 1 0.00000000 1 0.00000000 0.00000000 0.00000000 0.00000000
Neuron 3 1 0.00000000 1 0.00000000 0.00000000 0.00000000 0.00000000
Neuron 4 1 0.00000000 1 0.00000000 0.00000000 0.00000000 0.00000000
Neuron 5 1 0.00000000 1 0.00000000 0.00000000 0.00000000 0.00000000
Neuron 6 2 0.00000000 1 0.00000000 0.00000000 0.00000000 0.00000000
Neuron 7 4 1.00000000 2 3.43960955 0.00000000 0.00000000 0.79726027
Neuron 8 4 1.00000000 2 3.31179956 0.00000000 0.00000000 -0.30889811
Neuron 9 3 0.50000000 4 3.40302746 0.00000000 0.00000000 -0.48483979
Neuron 10 3 0.50000000 6 3.19397083 0.00000000 0.00000000 -0.61097629
Link 1 9 1 0 0.25353801
Link 2 9 2 0 -0.51442611
Link 3 9 3 0 0.58468477
Link 4 9 4 0 0.47819282
Link 5 9 5 0 0.60613879
Link 6 9 6 0 -0.30400559
Link 1 10 7 0 0.03916653
Link 2 10 8 0 0.12803661
Link 3 10 9 0 0.93685677
Link 4 10 10 0 0.59770988
Link 5 10 11 0 0.06264447
Link 6 10 12 0 -0.29638534
Link 9 7 13 0 -0.00263347
Link 10 7 14 0 0.26437700
Link 9 8 15 0 -0.23037060
Link 10 8 16 0 -0.31002156
GenomeEnd

