GenomeStart 2634
Neuron 1 1 0.00000000 1 0.00000000 0.00000000 0.00000000 0.00000000
Neuron 2 1 0.00000000 1 0.00000000 0.00000000 0.00000000 0.00000000
Neuron 3 1 0.00000000 1 0.00000000 0.00000000 0.00000000 0.00000000
Neuron 4 1 0.00000000 1 0.00000000 0.00000000 0.00000000 0.00000000
Neuron 5 1 0.00000000 1 0.00000000 0.00000000 0.00000000 0.00000000
Neuron 6 2 0.00000000 1 0.00000000 0.00000000 0.00000000 0.00000000
Neuron 7 4 1.00000000 2 3.55191540 0.00000000 0.00000000 0.27675301
Neuron 8 4 1.00000000 6 3.68445678 0.00000000 0.00000000 -0.42491750
Neuron 9 3 0.50000000 6 3.48398116 0.00000000 0.00000000 0.25268342
Neuron 10 3 0.50000000 6 3.54186130 0.00000000 0.00000000 0.11768808
Link 1 9 1 0 0.08686479
Link 2 9 2 0 -0.46862533
Link 3 9 3 0 0.74325777
Link 4 9 4 0 -0.25221318
Link 5 9 5 0 0.10641245
Link 6 9 6 0 0.51993862
Link 1 10 7 0 0.39592280
Link 2 10 8 0 0.40094199
Link 3 10 9 0 0.42788289
Link 4 10 10 0 -0.43062048
Link 5 10 11 0 0.21849397
Link 6 10 12 0 -0.22230518
Link 9 7 13 0 0.15387577
Link 10 7 14 0 -0.24114742
Link 9 8 15 0 0.07818262
Link 10 8 16 0 -0.13835433
GenomeEnd

