GenomeStart 1750
Neuron 1 1 0.00000000 1 0.00000000 0.00000000 0.00000000 0.00000000
Neuron 2 1 0.00000000 1 0.00000000 0.00000000 0.00000000 0.00000000
Neuron 3 1 0.00000000 1 0.00000000 0.00000000 0.00000000 0.00000000
Neuron 4 1 0.00000000 1 0.00000000 0.00000000 0.00000000 0.00000000
Neuron 5 1 0.00000000 1 0.00000000 0.00000000 0.00000000 0.00000000
Neuron 6 2 0.00000000 1 0.00000000 0.00000000 0.00000000 0.00000000
Neuron 7 4 1.00000000 2 3.45822474 0.00000000 0.00000000 0.12464629
Neuron 8 4 1.00000000 2 3.49518997 0.00000000 0.00000000 -0.48038992
Neuron 9 3 0.50000000 6 3.52421629 0.00000000 0.00000000 0.14550931
Neuron 10 3 0.50000000 9 3.66665087 0.00000000 0.00000000 -0.13171065
Link 1 9 1 0 -0.15934752
Link 2 9 2 0 -0.30393186
Link 3 9 3 0 -0.05420483
Link 4 9 4 0 0.47597507
Link 5 9 5 0 -0.07709896
Link 6 9 6 0 -0.50387185
Link 1 10 7 0 -0.16142761
Link 2 10 8 0 0.49420335
Link 3 10 9 0 0.31181491
Link 4 10 10 0 -0.07355552
Link 5 10 11 0 0.17069389
Link 6 10 12 0 -0.75717827
Link 9 7 13 0 0.16507193
Link 10 7 14 0 -0.43562063
Link 9 8 15 0 0.20343748
Link 10 8 16 0 0.30664615
GenomeEnd

