GenomeStart 1339
Neuron 1 1 0.00000000 1 0.00000000 0.00000000 0.00000000 0.00000000
Neuron 2 1 0.00000000 1 0.00000000 0.00000000 0.00000000 0.00000000
Neuron 3 1 0.00000000 1 0.00000000 0.00000000 0.00000000 0.00000000
Neuron 4 1 0.00000000 1 0.00000000 0.00000000 0.00000000 0.00000000
Neuron 5 1 0.00000000 1 0.00000000 0.00000000 0.00000000 0.00000000
Neuron 6 2 0.00000000 1 0.00000000 0.00000000 0.00000000 0.00000000
Neuron 7 4 1.00000000 2 3.77673073 0.00000000 0.00000000 0.18261428
Neuron 8 4 1.00000000 2 3.17087657 0.00000000 0.00000000 0.14767793
Neuron 9 3 0.50000000 6 3.30568322 0.00000000 0.00000000 -0.31323537
Neuron 10 3 0.50000000 6 3.59746118 0.00000000 0.00000000 -0.03475145
Link 1 9 1 0 0.44424880
Link 2 9 2 0 0.07351837
Link 3 9 3 0 -0.06742576
Link 4 9 4 0 -0.55387039
Link 5 9 5 0 -0.00645356
Link 6 9 6 0 -0.57445187
Link 1 10 7 0 -0.02910146
Link 2 10 8 0 -0.58733982
Link 3 10 9 0 0.01063889
Link 4 10 10 0 0.24631511
Link 5 10 11 0 -0.66030862
Link 6 10 12 0 0.13690439
Link 9 7 13 0 -0.02679536
Link 10 7 14 0 0.42323480
Link 9 8 15 0 0.07438094
Link 10 8 16 0 -0.05633745
Link 8 10 33 1 0.17952012
GenomeEnd

