GenomeStart 1636
Neuron 1 1 0.00000000 1 0.00000000 0.00000000 0.00000000 0.00000000
Neuron 2 1 0.00000000 1 0.00000000 0.00000000 0.00000000 0.00000000
Neuron 3 1 0.00000000 1 0.00000000 0.00000000 0.00000000 0.00000000
Neuron 4 1 0.00000000 1 0.00000000 0.00000000 0.00000000 0.00000000
Neuron 5 1 0.00000000 1 0.00000000 0.00000000 0.00000000 0.00000000
Neuron 6 2 0.00000000 1 0.00000000 0.00000000 0.00000000 0.00000000
Neuron 7 4 1.00000000 6 3.23907116 0.00000000 0.00000000 -0.36273583
Neuron 8 4 1.00000000 2 3.53313028 0.00000000 0.00000000 0.17309662
Neuron 9 3 0.50000000 6 3.64094739 0.00000000 0.00000000 -0.29997805
Neuron 10 3 0.50000000 6 3.61119818 0.00000000 0.00000000 -0.64609997
Link 1 9 1 0 -0.30976770
Link 2 9 2 0 0.15384626
Link 3 9 3 0 0.01757262
Link 4 9 4 0 -0.14315785
Link 5 9 5 0 0.15606670
Link 6 9 6 0 -0.49089585
Link 1 10 7 0 0.28494679
Link 2 10 8 0 0.30433646
Link 3 10 9 0 -0.03624207
Link 4 10 10 0 -0.28867644
Link 5 10 11 0 0.18972759
Link 6 10 12 0 0.10478326
Link 9 7 13 0 -0.45526689
Link 10 7 14 0 0.43305959
Link 9 8 15 0 0.09418546
Link 10 8 16 0 -0.70779833
GenomeEnd

