GenomeStart 870
Neuron 1 1 0.00000000 1 0.00000000 0.00000000 0.00000000 0.00000000
Neuron 2 1 0.00000000 1 0.00000000 0.00000000 0.00000000 0.00000000
Neuron 3 1 0.00000000 1 0.00000000 0.00000000 0.00000000 0.00000000
Neuron 4 1 0.00000000 1 0.00000000 0.00000000 0.00000000 0.00000000
Neuron 5 1 0.00000000 1 0.00000000 0.00000000 0.00000000 0.00000000
Neuron 6 2 0.00000000 1 0.00000000 0.00000000 0.00000000 0.00000000
Neuron 7 4 1.00000000 2 3.85983742 0.00000000 0.00000000 0.37622110
Neuron 8 4 1.00000000 2 3.32838366 0.00000000 0.00000000 0.30980985
Neuron 9 3 0.50000000 6 3.41932974 0.00000000 0.00000000 0.66282528
Neuron 10 3 0.50000000 4 3.32404274 0.00000000 0.00000000 -0.59568817
Link 1 9 1 0 -0.15440496
Link 2 9 2 0 -0.28093220
Link 3 9 3 0 0.18648832
Link 4 9 4 0 -0.23042249
Link 5 9 5 0 -0.05090260
Link 6 9 6 0 -0.57593908
Link 1 10 7 0 -0.36259712
Link 2 10 8 0 -0.57028946
Link 3 10 9 0 -0.07368253
Link 4 10 10 0 0.42172784
Link 5 10 11 0 -0.45031124
Link 6 10 12 0 0.20067563
Link 9 7 13 0 0.29895130
Link 10 7 14 0 -0.28479522
Link 9 8 15 0 -0.19973135
Link 10 8 16 0 -0.00634651
GenomeEnd

