GenomeStart 2228
Neuron 1 1 0.00000000 1 0.00000000 0.00000000 0.00000000 0.00000000
Neuron 2 1 0.00000000 1 0.00000000 0.00000000 0.00000000 0.00000000
Neuron 3 1 0.00000000 1 0.00000000 0.00000000 0.00000000 0.00000000
Neuron 4 1 0.00000000 1 0.00000000 0.00000000 0.00000000 0.00000000
Neuron 5 1 0.00000000 1 0.00000000 0.00000000 0.00000000 0.00000000
Neuron 6 2 0.00000000 1 0.00000000 0.00000000 0.00000000 0.00000000
Neuron 7 4 1.00000000 9 3.73872243 0.00000000 0.00000000 0.04340547
Neuron 8 4 1.00000000 2 3.69674724 0.00000000 0.00000000 0.11186042
Neuron 9 3 0.50000000 6 3.51000483 0.00000000 0.00000000 0.25938865
Neuron 10 3 0.50000000 6 3.66697542 0.00000000 0.00000000 -0.54268876
Link 1 9 1 0 0.28414324
Link 2 9 2 0 -0.03978215
Link 3 9 3 0 0.29156006
Link 4 9 4 0 0.23297134
Link 5 9 5 0 0.31695098
Link 6 9 6 0 0.40325529
Link 1 10 7 0 0.15975365
Link 2 10 8 0 -0.13055640
Link 3 10 9 0 -0.21672467
Link 4 10 10 0 0.13789788
Link 5 10 11 0 0.53868559
Link 6 10 12 0 0.65988695
Link 9 7 13 0 0.16626806
Link 10 7 14 0 0.61889811
Link 9 8 15 0 0.15483666
Link 10 8 16 0 -0.11056475
GenomeEnd

