GenomeStart 2065
Neuron 1 1 0.00000000 1 0.00000000 0.00000000 0.00000000 0.00000000
Neuron 2 1 0.00000000 1 0.00000000 0.00000000 0.00000000 0.00000000
Neuron 3 1 0.00000000 1 0.00000000 0.00000000 0.00000000 0.00000000
Neuron 4 1 0.00000000 1 0.00000000 0.00000000 0.00000000 0.00000000
Neuron 5 1 0.00000000 1 0.00000000 0.00000000 0.00000000 0.00000000
Neuron 6 2 0.00000000 1 0.00000000 0.00000000 0.00000000 0.00000000
Neuron 7 4 1.00000000 2 3.19441556 0.00000000 0.00000000 0.02518114
Neuron 8 4 1.00000000 6 3.88351015 0.00000000 0.00000000 0.39396529
Neuron 9 3 0.50000000 6 3.26760490 0.00000000 0.00000000 0.39350502
Neuron 10 3 0.50000000 11 3.00627615 0.00000000 0.00000000 -0.58703970
Link 1 9 1 0 -0.07145701
Link 2 9 2 0 0.14565955
Link 3 9 3 0 0.24450640
Link 4 9 4 0 -0.41552893
Link 5 9 5 0 -0.27028648
Link 6 9 6 0 -0.64077026
Link 1 10 7 0 0.60012277
Link 2 10 8 0 -0.51752542
Link 3 10 9 0 -0.16709848
Link 4 10 10 0 0.83446963
Link 5 10 11 0 0.50537597
Link 6 10 12 0 -0.84140080
Link 9 7 13 0 -0.27833187
Link 10 7 14 0 -0.27660734
Link 9 8 15 0 0.62908406
Link 10 8 16 0 -0.64469483
GenomeEnd

