GenomeStart 53199
Neuron 1 1 0.00000000 1 0.00000000 0.00000000 0.00000000 0.00000000
Neuron 2 1 0.00000000 1 0.00000000 0.00000000 0.00000000 0.00000000
Neuron 3 1 0.00000000 1 0.00000000 0.00000000 0.00000000 0.00000000
Neuron 4 1 0.00000000 1 0.00000000 0.00000000 0.00000000 0.00000000
Neuron 5 1 0.00000000 1 0.00000000 0.00000000 0.00000000 0.00000000
Neuron 6 2 0.00000000 1 0.00000000 0.00000000 0.00000000 0.00000000
Neuron 7 4 1.00000000 9 3.40617072 0.00000000 0.00000000 0.13558521
Neuron 8 4 1.00000000 9 3.40034578 0.00000000 0.00000000 0.08923735
Neuron 9 3 0.50000000 6 3.50271031 0.00000000 0.00000000 -0.01737138
Neuron 10 3 0.50000000 11 3.28937798 0.00000000 0.00000000 -0.03616858
Neuron 12 3 0.25000000 11 1.99193644 0.00000000 0.00000000 -0.28070896
Neuron 14 3 0.25000000 6 4.52442766 0.00000000 0.00000000 -0.58040908
Neuron 15 3 0.25000000 11 2.18542259 0.00000000 0.00000000 -0.47325622
Neuron 17 3 0.25000000 11 1.81799309 0.00000000 0.00000000 -0.48105556
Neuron 20 3 0.25000000 4 5.21062843 0.00000000 0.00000000 0.17949499
Neuron 23 3 0.75000000 4 2.27663422 0.00000000 0.00000000 0.30094959
Neuron 30 3 0.87500000 11 5.14129160 0.00000000 0.00000000 -0.38269332
Link 1 9 1 0 0.07965734
Link 2 9 2 0 -0.29596798
Link 6 9 6 0 -0.61547690
Link 1 10 7 0 0.14807640
Link 3 10 9 0 0.34773184
Link 6 10 12 0 0.61341919
Link 9 7 13 0 0.16882625
Link 10 7 14 0 0.09452168
Link 10 8 16 0 -0.21298191
Link 4 12 21 0 1.01354157
Link 12 10 22 0 0.61629999
Link 3 14 28 0 1.00000000
Link 14 9 29 0 -0.37148841
Link 2 15 31 0 1.22256968
Link 15 10 32 0 -0.74024071
Link 5 17 37 0 0.90605113
Link 17 10 38 0 0.06796969
Link 5 8 46 0 0.01493103
Link 5 20 53 0 -0.47133077
Link 20 9 54 0 0.15055314
Link 9 23 67 0 -0.02876105
Link 23 30 106 0 -0.03482682
Link 30 8 107 0 -0.13095703
GenomeEnd

