GenomeStart 708
Neuron 1 1 0.00000000 1 0.00000000 0.00000000 0.00000000 0.00000000
Neuron 2 1 0.00000000 1 0.00000000 0.00000000 0.00000000 0.00000000
Neuron 3 1 0.00000000 1 0.00000000 0.00000000 0.00000000 0.00000000
Neuron 4 1 0.00000000 1 0.00000000 0.00000000 0.00000000 0.00000000
Neuron 5 1 0.00000000 1 0.00000000 0.00000000 0.00000000 0.00000000
Neuron 6 2 0.00000000 1 0.00000000 0.00000000 0.00000000 0.00000000
Neuron 7 4 1.00000000 9 3.83010669 0.00000000 0.00000000 0.03258199
Neuron 8 4 1.00000000 2 3.72432248 0.00000000 0.00000000 -0.24663219
Neuron 9 3 0.50000000 6 3.33965271 0.00000000 0.00000000 -0.46733241
Neuron 10 3 0.50000000 6 3.23028855 0.00000000 0.00000000 -0.73725847
Link 1 9 1 0 -0.32185041
Link 2 9 2 0 -0.05052234
Link 3 9 3 0 -0.44095310
Link 4 9 4 0 -0.64101835
Link 5 9 5 0 -0.07169383
Link 6 9 6 0 -0.74983895
Link 1 10 7 0 -0.08883999
Link 2 10 8 0 0.49032748
Link 3 10 9 0 0.31311370
Link 4 10 10 0 0.32058052
Link 5 10 11 0 -0.64720017
Link 6 10 12 0 0.43917500
Link 9 7 13 0 -0.15769427
Link 10 7 14 0 -0.45434053
Link 9 8 15 0 0.42366297
Link 10 8 16 0 -0.01806588
GenomeEnd

