GenomeStart 3056
Neuron 1 1 0.00000000 1 0.00000000 0.00000000 0.00000000 0.00000000
Neuron 2 1 0.00000000 1 0.00000000 0.00000000 0.00000000 0.00000000
Neuron 3 1 0.00000000 1 0.00000000 0.00000000 0.00000000 0.00000000
Neuron 4 1 0.00000000 1 0.00000000 0.00000000 0.00000000 0.00000000
Neuron 5 1 0.00000000 1 0.00000000 0.00000000 0.00000000 0.00000000
Neuron 6 2 0.00000000 1 0.00000000 0.00000000 0.00000000 0.00000000
Neuron 7 4 1.00000000 2 3.07778745 0.00000000 0.00000000 0.12693518
Neuron 8 4 1.00000000 6 3.41839708 0.00000000 0.00000000 0.13168927
Neuron 9 3 0.50000000 6 3.27542534 0.00000000 0.00000000 0.39300108
Neuron 10 3 0.50000000 6 3.33797781 0.00000000 0.00000000 0.19249462
Link 1 9 1 0 -0.02355011
Link 2 9 2 0 0.32053955
Link 3 9 3 0 0.07002495
Link 4 9 4 0 -0.00585372
Link 5 9 5 0 -0.01468621
Link 6 9 6 0 -0.31075369
Link 1 10 7 0 0.02789581
Link 2 10 8 0 0.17568322
Link 3 10 9 0 -0.38720991
Link 4 10 10 0 -0.24329413
Link 5 10 11 0 0.08469506
Link 6 10 12 0 -0.41514645
Link 9 7 13 0 -0.29767043
Link 10 7 14 0 -0.30261727
Link 9 8 15 0 0.07494970
Link 10 8 16 0 0.26765595
GenomeEnd

