GenomeStart 1848
Neuron 1 1 0.00000000 1 0.00000000 0.00000000 0.00000000 0.00000000
Neuron 2 1 0.00000000 1 0.00000000 0.00000000 0.00000000 0.00000000
Neuron 3 1 0.00000000 1 0.00000000 0.00000000 0.00000000 0.00000000
Neuron 4 1 0.00000000 1 0.00000000 0.00000000 0.00000000 0.00000000
Neuron 5 1 0.00000000 1 0.00000000 0.00000000 0.00000000 0.00000000
Neuron 6 2 0.00000000 1 0.00000000 0.00000000 0.00000000 0.00000000
Neuron 7 4 1.00000000 2 3.85487506 0.00000000 0.00000000 0.03067889
Neuron 8 4 1.00000000 9 3.31635637 0.00000000 0.00000000 0.78204881
Neuron 9 3 0.50000000 6 3.44974320 0.00000000 0.00000000 -0.49297209
Neuron 10 3 0.50000000 9 3.23641221 0.00000000 0.00000000 0.16298403
Link 1 9 1 0 -0.02036246
Link 2 9 2 0 -0.35311884
Link 3 9 3 0 -0.17771772
Link 4 9 4 0 -0.36444544
Link 5 9 5 0 -0.44388321
Link 6 9 6 0 -0.50484148
Link 1 10 7 0 0.00176821
Link 2 10 8 0 -0.19791351
Link 3 10 9 0 -0.03633209
Link 4 10 10 0 0.54931312
Link 5 10 11 0 0.28799385
Link 6 10 12 0 -0.32559139
Link 9 7 13 0 -0.89222102
Link 10 7 14 0 -0.23410775
Link 9 8 15 0 0.39782279
Link 10 8 16 0 -0.47986868
GenomeEnd

