GenomeStart 1205
Neuron 1 1 0.00000000 1 0.00000000 0.00000000 0.00000000 0.00000000
Neuron 2 1 0.00000000 1 0.00000000 0.00000000 0.00000000 0.00000000
Neuron 3 1 0.00000000 1 0.00000000 0.00000000 0.00000000 0.00000000
Neuron 4 1 0.00000000 1 0.00000000 0.00000000 0.00000000 0.00000000
Neuron 5 1 0.00000000 1 0.00000000 0.00000000 0.00000000 0.00000000
Neuron 6 2 0.00000000 1 0.00000000 0.00000000 0.00000000 0.00000000
Neuron 7 4 1.00000000 2 3.43887112 0.00000000 0.00000000 0.10630919
Neuron 8 4 1.00000000 2 3.27915749 0.00000000 0.00000000 0.07668627
Neuron 9 3 0.50000000 6 3.59445878 0.00000000 0.00000000 -0.05853975
Neuron 10 3 0.50000000 9 3.31049659 0.00000000 0.00000000 -0.00008785
Link 1 9 1 0 -0.05817063
Link 2 9 2 0 0.10168700
Link 3 9 3 0 -0.34422974
Link 4 9 4 0 0.14130716
Link 5 9 5 0 0.13154511
Link 6 9 6 0 -0.49936481
Link 1 10 7 0 -0.33854296
Link 2 10 8 0 0.53086171
Link 3 10 9 0 -0.30949361
Link 4 10 10 0 0.41268774
Link 5 10 11 0 -0.24856465
Link 6 10 12 0 0.12996153
Link 9 7 13 0 0.42009386
Link 10 7 14 0 0.07235243
Link 9 8 15 0 0.68632909
Link 10 8 16 0 0.13084591
GenomeEnd

