GenomeStart 42751
Neuron 1 1 0.00000000 1 0.00000000 0.00000000 0.00000000 0.00000000
Neuron 2 1 0.00000000 1 0.00000000 0.00000000 0.00000000 0.00000000
Neuron 3 1 0.00000000 1 0.00000000 0.00000000 0.00000000 0.00000000
Neuron 4 1 0.00000000 1 0.00000000 0.00000000 0.00000000 0.00000000
Neuron 5 1 0.00000000 1 0.00000000 0.00000000 0.00000000 0.00000000
Neuron 6 2 0.00000000 1 0.00000000 0.00000000 0.00000000 0.00000000
Neuron 7 4 1.00000000 2 3.90455220 0.00000000 0.00000000 -0.20464964
Neuron 8 4 1.00000000 11 3.39002488 0.00000000 0.00000000 0.42470493
Neuron 9 3 0.50000000 4 3.43310105 0.00000000 0.00000000 -0.06220704
Neuron 10 3 0.50000000 6 3.54732915 0.00000000 0.00000000 -0.35989944
Neuron 12 3 0.75000000 11 6.84288725 0.00000000 0.00000000 0.33477174
Neuron 16 3 0.25000000 9 2.35321726 0.00000000 0.00000000 0.40433134
Link 1 9 1 0 -0.16935206
Link 2 9 2 0 0.16642270
Link 3 9 3 0 0.37634055
Link 4 9 4 0 0.16012443
Link 6 9 6 0 -0.61389860
Link 1 10 7 0 -0.07123323
Link 2 10 8 0 0.05585900
Link 3 10 9 0 -0.35726666
Link 5 10 11 0 -0.39822366
Link 6 10 12 0 0.50013079
Link 9 7 13 0 -0.48799562
Link 10 7 14 0 -0.52264651
Link 10 8 16 0 -0.79180777
Link 9 12 25 0 -0.11096324
Link 12 8 26 0 0.59259602
Link 4 16 42 0 -0.17658970
Link 16 10 43 0 -0.33796888
Link 1 8 62 0 0.44359768
Link 2 8 69 0 -0.03816312
Link 7 16 91 1 0.43994600
GenomeEnd

