GenomeStart 1050
Neuron 1 1 0.00000000 1 0.00000000 0.00000000 0.00000000 0.00000000
Neuron 2 1 0.00000000 1 0.00000000 0.00000000 0.00000000 0.00000000
Neuron 3 1 0.00000000 1 0.00000000 0.00000000 0.00000000 0.00000000
Neuron 4 1 0.00000000 1 0.00000000 0.00000000 0.00000000 0.00000000
Neuron 5 1 0.00000000 1 0.00000000 0.00000000 0.00000000 0.00000000
Neuron 6 2 0.00000000 1 0.00000000 0.00000000 0.00000000 0.00000000
Neuron 7 4 1.00000000 9 3.10985804 0.00000000 0.00000000 0.32727878
Neuron 8 4 1.00000000 2 3.49031557 0.00000000 0.00000000 -0.45460549
Neuron 9 3 0.50000000 9 3.49955072 0.00000000 0.00000000 -0.01352729
Neuron 10 3 0.50000000 6 3.47651080 0.00000000 0.00000000 -0.28896248
Link 1 9 1 0 0.39687601
Link 2 9 2 0 0.10844412
Link 3 9 3 0 -0.37771152
Link 4 9 4 0 0.62124447
Link 5 9 5 0 0.11254604
Link 6 9 6 0 -0.24283562
Link 1 10 7 0 -0.50271369
Link 2 10 8 0 0.28050634
Link 3 10 9 0 -0.00650984
Link 4 10 10 0 0.33431784
Link 5 10 11 0 0.64735515
Link 6 10 12 0 0.25546749
Link 9 7 13 0 -0.37460575
Link 10 7 14 0 0.33808912
Link 9 8 15 0 -0.27298835
Link 10 8 16 0 0.11220089
GenomeEnd

