GenomeStart 3049
Neuron 1 1 0.00000000 1 0.00000000 0.00000000 0.00000000 0.00000000
Neuron 2 1 0.00000000 1 0.00000000 0.00000000 0.00000000 0.00000000
Neuron 3 1 0.00000000 1 0.00000000 0.00000000 0.00000000 0.00000000
Neuron 4 1 0.00000000 1 0.00000000 0.00000000 0.00000000 0.00000000
Neuron 5 1 0.00000000 1 0.00000000 0.00000000 0.00000000 0.00000000
Neuron 6 2 0.00000000 1 0.00000000 0.00000000 0.00000000 0.00000000
Neuron 7 4 1.00000000 2 3.54560541 0.00000000 0.00000000 -0.59832214
Neuron 8 4 1.00000000 9 3.01094728 0.00000000 0.00000000 -0.38024086
Neuron 9 3 0.50000000 6 3.89661537 0.00000000 0.00000000 -0.78092295
Neuron 10 3 0.50000000 9 3.45756546 0.00000000 0.00000000 -0.21598860
Link 1 9 1 0 0.03312156
Link 2 9 2 0 0.43633723
Link 3 9 3 0 0.06871127
Link 4 9 4 0 0.48511858
Link 5 9 5 0 0.27306851
Link 6 9 6 0 -0.12641100
Link 1 10 7 0 -0.12025151
Link 2 10 8 0 -0.15689026
Link 3 10 9 0 -0.52947401
Link 4 10 10 0 -0.39348879
Link 5 10 11 0 -0.28978068
Link 6 10 12 0 0.18640908
Link 9 7 13 0 0.54507799
Link 10 7 14 0 0.06141539
Link 9 8 15 0 -0.19189639
Link 10 8 16 0 -0.07767868
Link 3 7 28 0 0.79640022
GenomeEnd

