GenomeStart 644
Neuron 1 1 0.00000000 1 0.00000000 0.00000000 0.00000000 0.00000000
Neuron 2 1 0.00000000 1 0.00000000 0.00000000 0.00000000 0.00000000
Neuron 3 1 0.00000000 1 0.00000000 0.00000000 0.00000000 0.00000000
Neuron 4 1 0.00000000 1 0.00000000 0.00000000 0.00000000 0.00000000
Neuron 5 1 0.00000000 1 0.00000000 0.00000000 0.00000000 0.00000000
Neuron 6 2 0.00000000 1 0.00000000 0.00000000 0.00000000 0.00000000
Neuron 7 4 1.00000000 2 3.73961464 0.00000000 0.00000000 -0.08434639
Neuron 8 4 1.00000000 2 3.81932384 0.00000000 0.00000000 0.00703277
Neuron 9 3 0.50000000 6 3.19299765 0.00000000 0.00000000 -0.04007671
Neuron 10 3 0.50000000 6 3.36418037 0.00000000 0.00000000 0.17392550
Link 1 9 1 0 -0.12138438
Link 2 9 2 0 -0.10907095
Link 3 9 3 0 -0.35936213
Link 4 9 4 0 0.86859275
Link 5 9 5 0 0.28504142
Link 6 9 6 0 -0.37565295
Link 1 10 7 0 -0.51306262
Link 2 10 8 0 0.70791871
Link 3 10 9 0 0.16220110
Link 4 10 10 0 -0.07242984
Link 5 10 11 0 0.16421043
Link 6 10 12 0 -0.12258037
Link 9 7 13 0 0.55233972
Link 10 7 14 0 -0.43814253
Link 9 8 15 0 -0.38398046
Link 10 8 16 0 0.45123782
GenomeEnd

