GenomeStart 1050
Neuron 1 1 0.00000000 1 0.00000000 0.00000000 0.00000000 0.00000000
Neuron 2 1 0.00000000 1 0.00000000 0.00000000 0.00000000 0.00000000
Neuron 3 1 0.00000000 1 0.00000000 0.00000000 0.00000000 0.00000000
Neuron 4 1 0.00000000 1 0.00000000 0.00000000 0.00000000 0.00000000
Neuron 5 1 0.00000000 1 0.00000000 0.00000000 0.00000000 0.00000000
Neuron 6 2 0.00000000 1 0.00000000 0.00000000 0.00000000 0.00000000
Neuron 7 4 1.00000000 2 3.16510005 0.00000000 0.00000000 0.37854931
Neuron 8 4 1.00000000 9 3.55489527 0.00000000 0.00000000 -0.32850445
Neuron 9 3 0.50000000 6 3.39513779 0.00000000 0.00000000 0.42478438
Neuron 10 3 0.50000000 9 3.25689393 0.00000000 0.00000000 0.24175967
Link 1 9 1 0 -0.44499850
Link 2 9 2 0 0.30525354
Link 3 9 3 0 -0.17090127
Link 4 9 4 0 -0.26682879
Link 5 9 5 0 0.46275190
Link 6 9 6 0 0.44032429
Link 1 10 7 0 -0.11604905
Link 2 10 8 0 -0.29262206
Link 3 10 9 0 0.35921807
Link 4 10 10 0 0.27364315
Link 5 10 11 0 -0.52186202
Link 6 10 12 0 0.39933282
Link 9 7 13 0 -0.26869998
Link 10 7 14 0 -0.62528669
Link 9 8 15 0 -0.18525509
Link 10 8 16 0 0.38766325
GenomeEnd

