GenomeStart 14
Neuron 1 1 0.00000000 1 0.00000000 0.00000000 0.00000000 0.00000000
Neuron 2 1 0.00000000 1 0.00000000 0.00000000 0.00000000 0.00000000
Neuron 3 1 0.00000000 1 0.00000000 0.00000000 0.00000000 0.00000000
Neuron 4 1 0.00000000 1 0.00000000 0.00000000 0.00000000 0.00000000
Neuron 5 1 0.00000000 1 0.00000000 0.00000000 0.00000000 0.00000000
Neuron 6 2 0.00000000 1 0.00000000 0.00000000 0.00000000 0.00000000
Neuron 7 4 1.00000000 9 3.40124675 0.00000000 0.00000000 0.59856996
Neuron 8 4 1.00000000 2 3.19125384 0.00000000 0.00000000 -0.38676336
Neuron 9 3 0.50000000 6 3.64320401 0.00000000 0.00000000 0.63668852
Neuron 10 3 0.50000000 6 3.33693458 0.00000000 0.00000000 -0.26702353
Link 1 9 1 0 -0.24973223
Link 2 9 2 0 0.11933196
Link 3 9 3 0 -0.82001542
Link 4 9 4 0 -0.22355924
Link 5 9 5 0 0.41605639
Link 6 9 6 0 0.26009397
Link 1 10 7 0 -0.08865774
Link 2 10 8 0 -0.44408342
Link 3 10 9 0 -0.10022390
Link 4 10 10 0 0.89039933
Link 5 10 11 0 0.39654616
Link 6 10 12 0 0.09996203
Link 9 7 13 0 -0.07126759
Link 10 7 14 0 0.62977232
Link 9 8 15 0 0.23065511
Link 10 8 16 0 -0.49246273
GenomeEnd

