GenomeStart 2100
Neuron 1 1 0.00000000 1 0.00000000 0.00000000 0.00000000 0.00000000
Neuron 2 1 0.00000000 1 0.00000000 0.00000000 0.00000000 0.00000000
Neuron 3 1 0.00000000 1 0.00000000 0.00000000 0.00000000 0.00000000
Neuron 4 1 0.00000000 1 0.00000000 0.00000000 0.00000000 0.00000000
Neuron 5 1 0.00000000 1 0.00000000 0.00000000 0.00000000 0.00000000
Neuron 6 2 0.00000000 1 0.00000000 0.00000000 0.00000000 0.00000000
Neuron 7 4 1.00000000 2 3.19589306 0.00000000 0.00000000 0.23399114
Neuron 8 4 1.00000000 2 3.77844900 0.00000000 0.00000000 -0.07426012
Neuron 9 3 0.50000000 4 3.04903213 0.00000000 0.00000000 0.53456186
Neuron 10 3 0.50000000 6 3.37701057 0.00000000 0.00000000 -0.30448032
Link 1 9 1 0 -0.13119010
Link 2 9 2 0 0.21118843
Link 3 9 3 0 -0.09675415
Link 4 9 4 0 0.06999545
Link 5 9 5 0 0.75089105
Link 6 9 6 0 0.14895669
Link 1 10 7 0 -0.03317402
Link 2 10 8 0 0.55411844
Link 3 10 9 0 -0.05554718
Link 4 10 10 0 0.72256329
Link 5 10 11 0 0.21562435
Link 6 10 12 0 -0.18172496
Link 9 7 13 0 -0.16015277
Link 10 7 14 0 -0.64135251
Link 9 8 15 0 -0.40044081
Link 10 8 16 0 -0.41281867
GenomeEnd

