GenomeStart 1092
Neuron 1 1 0.00000000 1 0.00000000 0.00000000 0.00000000 0.00000000
Neuron 2 1 0.00000000 1 0.00000000 0.00000000 0.00000000 0.00000000
Neuron 3 1 0.00000000 1 0.00000000 0.00000000 0.00000000 0.00000000
Neuron 4 1 0.00000000 1 0.00000000 0.00000000 0.00000000 0.00000000
Neuron 5 1 0.00000000 1 0.00000000 0.00000000 0.00000000 0.00000000
Neuron 6 2 0.00000000 1 0.00000000 0.00000000 0.00000000 0.00000000
Neuron 7 4 1.00000000 2 3.34273635 0.00000000 0.00000000 0.18269747
Neuron 8 4 1.00000000 2 3.54886498 0.00000000 0.00000000 0.66703618
Neuron 9 3 0.50000000 6 3.61952225 0.00000000 0.00000000 0.06290730
Neuron 10 3 0.50000000 4 3.55685545 0.00000000 0.00000000 0.01130303
Link 1 9 1 0 -0.08129373
Link 2 9 2 0 0.31226539
Link 3 9 3 0 0.11972795
Link 4 9 4 0 0.34757636
Link 5 9 5 0 -0.56075370
Link 6 9 6 0 -0.22730348
Link 1 10 7 0 -0.17607664
Link 2 10 8 0 -0.19866552
Link 3 10 9 0 0.04288106
Link 4 10 10 0 0.58296145
Link 5 10 11 0 -0.58179693
Link 6 10 12 0 -0.34352218
Link 9 7 13 0 -0.43133836
Link 10 7 14 0 0.38278468
Link 9 8 15 0 0.66553750
Link 10 8 16 0 0.01674416
GenomeEnd

