GenomeStart 5265
Neuron 1 1 0.00000000 1 0.00000000 0.00000000 0.00000000 0.00000000
Neuron 2 1 0.00000000 1 0.00000000 0.00000000 0.00000000 0.00000000
Neuron 3 1 0.00000000 1 0.00000000 0.00000000 0.00000000 0.00000000
Neuron 4 1 0.00000000 1 0.00000000 0.00000000 0.00000000 0.00000000
Neuron 5 1 0.00000000 1 0.00000000 0.00000000 0.00000000 0.00000000
Neuron 6 2 0.00000000 1 0.00000000 0.00000000 0.00000000 0.00000000
Neuron 7 4 1.00000000 2 3.08736447 0.00000000 0.00000000 0.52643363
Neuron 8 4 1.00000000 6 3.33772666 0.00000000 0.00000000 -0.46820067
Neuron 9 3 0.50000000 6 3.66111439 0.00000000 0.00000000 0.23519217
Neuron 10 3 0.50000000 6 3.53614121 0.00000000 0.00000000 0.08920477
Link 2 9 2 0 -0.10733717
Link 3 9 3 0 0.51977439
Link 4 9 4 0 0.44264379
Link 5 9 5 0 -0.33401976
Link 6 9 6 0 0.59178133
Link 1 10 7 0 0.07038993
Link 2 10 8 0 -0.50489290
Link 3 10 9 0 -0.29449092
Link 4 10 10 0 0.13019264
Link 5 10 11 0 -0.62120090
Link 6 10 12 0 -0.52956562
Link 9 7 13 0 0.25867309
Link 10 7 14 0 0.33562890
Link 9 8 15 0 0.46741821
Link 10 8 16 0 0.56244853
GenomeEnd

