GenomeStart 178
Neuron 1 1 0.00000000 1 0.00000000 0.00000000 0.00000000 0.00000000
Neuron 2 1 0.00000000 1 0.00000000 0.00000000 0.00000000 0.00000000
Neuron 3 1 0.00000000 1 0.00000000 0.00000000 0.00000000 0.00000000
Neuron 4 1 0.00000000 1 0.00000000 0.00000000 0.00000000 0.00000000
Neuron 5 1 0.00000000 1 0.00000000 0.00000000 0.00000000 0.00000000
Neuron 6 2 0.00000000 1 0.00000000 0.00000000 0.00000000 0.00000000
Neuron 7 4 1.00000000 11 3.56203522 0.00000000 0.00000000 0.64602564
Neuron 8 4 1.00000000 2 3.67517644 0.00000000 0.00000000 0.33650708
Neuron 9 3 0.50000000 6 3.66898885 0.00000000 0.00000000 -0.15573255
Neuron 10 3 0.50000000 6 3.54980537 0.00000000 0.00000000 0.70817867
Link 1 9 1 0 0.25734017
Link 2 9 2 0 0.27567193
Link 3 9 3 0 0.49750638
Link 4 9 4 0 -0.34802316
Link 5 9 5 0 -0.28983557
Link 6 9 6 0 -0.55874639
Link 1 10 7 0 0.14793295
Link 2 10 8 0 -0.20590523
Link 3 10 9 0 0.16609732
Link 4 10 10 0 -0.31580103
Link 5 10 11 0 0.44062322
Link 6 10 12 0 0.33641342
Link 9 7 13 0 0.77084002
Link 10 7 14 0 0.08139236
Link 9 8 15 0 -0.26722717
Link 10 8 16 0 -0.60675945
GenomeEnd

