GenomeStart 4553
Neuron 1 1 0.00000000 1 0.00000000 0.00000000 0.00000000 0.00000000
Neuron 2 1 0.00000000 1 0.00000000 0.00000000 0.00000000 0.00000000
Neuron 3 1 0.00000000 1 0.00000000 0.00000000 0.00000000 0.00000000
Neuron 4 1 0.00000000 1 0.00000000 0.00000000 0.00000000 0.00000000
Neuron 5 1 0.00000000 1 0.00000000 0.00000000 0.00000000 0.00000000
Neuron 6 2 0.00000000 1 0.00000000 0.00000000 0.00000000 0.00000000
Neuron 7 4 1.00000000 2 3.40726889 0.00000000 0.00000000 0.42847041
Neuron 8 4 1.00000000 2 3.63599256 0.00000000 0.00000000 -0.62074590
Neuron 9 3 0.50000000 6 3.90135419 0.00000000 0.00000000 -0.19563647
Neuron 10 3 0.50000000 9 3.25930099 0.00000000 0.00000000 0.78636678
Neuron 17 3 0.75000000 4 1.49996796 0.00000000 0.00000000 -0.64733481
Link 1 9 1 0 0.12647842
Link 2 9 2 0 0.30732965
Link 3 9 3 0 -0.05537516
Link 4 9 4 0 -0.41403002
Link 5 9 5 0 -0.03259727
Link 6 9 6 0 -0.33024437
Link 1 10 7 0 -0.18271950
Link 2 10 8 0 -0.21288843
Link 3 10 9 0 -0.26569993
Link 4 10 10 0 -0.17860084
Link 5 10 11 0 -0.25367063
Link 6 10 12 0 0.07809611
Link 9 7 13 0 0.30032196
Link 10 7 14 0 -0.17326026
Link 9 8 15 0 0.13271235
Link 10 17 43 0 1.00000000
Link 17 8 44 0 -0.58947725
Link 6 8 50 0 -0.38605594
GenomeEnd

