GenomeStart 3869
Neuron 1 1 0.00000000 1 0.00000000 0.00000000 0.00000000 0.00000000
Neuron 2 1 0.00000000 1 0.00000000 0.00000000 0.00000000 0.00000000
Neuron 3 1 0.00000000 1 0.00000000 0.00000000 0.00000000 0.00000000
Neuron 4 1 0.00000000 1 0.00000000 0.00000000 0.00000000 0.00000000
Neuron 5 1 0.00000000 1 0.00000000 0.00000000 0.00000000 0.00000000
Neuron 6 2 0.00000000 1 0.00000000 0.00000000 0.00000000 0.00000000
Neuron 7 4 1.00000000 2 3.21467287 0.00000000 0.00000000 0.55617654
Neuron 8 4 1.00000000 4 3.41862683 0.00000000 0.00000000 0.71143870
Neuron 9 3 0.50000000 6 3.82784511 0.00000000 0.00000000 0.71940413
Neuron 10 3 0.50000000 6 3.57940139 0.00000000 0.00000000 -0.62384083
Link 1 9 1 0 -0.00962439
Link 2 9 2 0 -0.07105516
Link 3 9 3 0 -0.18719638
Link 4 9 4 0 -0.88434219
Link 5 9 5 0 0.33744262
Link 6 9 6 0 -0.37893393
Link 1 10 7 0 0.03917390
Link 2 10 8 0 -0.33541909
Link 3 10 9 0 -0.08992732
Link 4 10 10 0 0.30679384
Link 5 10 11 0 0.00713277
Link 6 10 12 0 -0.67702913
Link 9 7 13 0 0.11788433
Link 10 7 14 0 0.53446818
Link 9 8 15 0 -0.36264573
Link 10 8 16 0 -0.45451923
GenomeEnd

