GenomeStart 722
Neuron 1 1 0.00000000 1 0.00000000 0.00000000 0.00000000 0.00000000
Neuron 2 1 0.00000000 1 0.00000000 0.00000000 0.00000000 0.00000000
Neuron 3 1 0.00000000 1 0.00000000 0.00000000 0.00000000 0.00000000
Neuron 4 1 0.00000000 1 0.00000000 0.00000000 0.00000000 0.00000000
Neuron 5 1 0.00000000 1 0.00000000 0.00000000 0.00000000 0.00000000
Neuron 6 2 0.00000000 1 0.00000000 0.00000000 0.00000000 0.00000000
Neuron 7 4 1.00000000 9 3.85671859 0.00000000 0.00000000 0.50922437
Neuron 8 4 1.00000000 2 3.48135528 0.00000000 0.00000000 0.09075776
Neuron 9 3 0.50000000 6 3.44169246 0.00000000 0.00000000 0.68836031
Neuron 10 3 0.50000000 6 3.36730694 0.00000000 0.00000000 -0.57240417
Link 1 9 1 0 0.43514827
Link 2 9 2 0 0.02472659
Link 3 9 3 0 -0.26141777
Link 4 9 4 0 -0.10712719
Link 5 9 5 0 0.19228979
Link 6 9 6 0 -0.43125179
Link 1 10 7 0 -0.02885526
Link 2 10 8 0 0.55271893
Link 3 10 9 0 -0.12713063
Link 4 10 10 0 -0.24173442
Link 5 10 11 0 -0.24327598
Link 6 10 12 0 -0.20298362
Link 9 7 13 0 -0.27018479
Link 10 7 14 0 0.30004562
Link 9 8 15 0 -0.28436206
Link 10 8 16 0 0.03438492
GenomeEnd

