GenomeStart 753
Neuron 1 1 0.00000000 1 0.00000000 0.00000000 0.00000000 0.00000000
Neuron 2 1 0.00000000 1 0.00000000 0.00000000 0.00000000 0.00000000
Neuron 3 1 0.00000000 1 0.00000000 0.00000000 0.00000000 0.00000000
Neuron 4 1 0.00000000 1 0.00000000 0.00000000 0.00000000 0.00000000
Neuron 5 1 0.00000000 1 0.00000000 0.00000000 0.00000000 0.00000000
Neuron 6 2 0.00000000 1 0.00000000 0.00000000 0.00000000 0.00000000
Neuron 7 4 1.00000000 2 3.58293897 0.00000000 0.00000000 0.32767837
Neuron 8 4 1.00000000 2 3.26734714 0.00000000 0.00000000 0.05059933
Neuron 9 3 0.50000000 6 3.47604942 0.00000000 0.00000000 -0.70761903
Neuron 10 3 0.50000000 6 3.82754890 0.00000000 0.00000000 -0.15821497
Link 1 9 1 0 0.03470312
Link 2 9 2 0 0.37613070
Link 3 9 3 0 -0.14915053
Link 4 9 4 0 0.32640824
Link 5 9 5 0 0.49101042
Link 6 9 6 0 0.02953545
Link 1 10 7 0 -0.14238576
Link 2 10 8 0 -0.29635449
Link 3 10 9 0 0.10315393
Link 4 10 10 0 0.64489833
Link 5 10 11 0 0.18700590
Link 6 10 12 0 -0.47020079
Link 9 7 13 0 0.42665608
Link 10 7 14 0 -0.40972845
Link 9 8 15 0 0.66435354
Link 10 8 16 0 0.11792874
GenomeEnd

