GenomeStart 1738
Neuron 1 1 0.00000000 1 0.00000000 0.00000000 0.00000000 0.00000000
Neuron 2 1 0.00000000 1 0.00000000 0.00000000 0.00000000 0.00000000
Neuron 3 1 0.00000000 1 0.00000000 0.00000000 0.00000000 0.00000000
Neuron 4 1 0.00000000 1 0.00000000 0.00000000 0.00000000 0.00000000
Neuron 5 1 0.00000000 1 0.00000000 0.00000000 0.00000000 0.00000000
Neuron 6 2 0.00000000 1 0.00000000 0.00000000 0.00000000 0.00000000
Neuron 7 4 1.00000000 2 3.65187365 0.00000000 0.00000000 -0.33694776
Neuron 8 4 1.00000000 6 3.52217075 0.00000000 0.00000000 0.17704550
Neuron 9 3 0.50000000 6 3.69371856 0.00000000 0.00000000 0.15175320
Neuron 10 3 0.50000000 9 3.43002871 0.00000000 0.00000000 -0.68801446
Link 1 9 1 0 0.19413549
Link 2 9 2 0 0.09833278
Link 3 9 3 0 -0.04580135
Link 4 9 4 0 0.43642517
Link 5 9 5 0 -0.27408308
Link 6 9 6 0 0.11192352
Link 1 10 7 0 0.17633856
Link 2 10 8 0 -0.67587775
Link 3 10 9 0 0.55783408
Link 4 10 10 0 0.32755658
Link 5 10 11 0 -0.30027120
Link 6 10 12 0 0.06224370
Link 9 7 13 0 0.24348111
Link 10 7 14 0 0.27321395
Link 9 8 15 0 -0.17344348
Link 10 8 16 0 0.11897835
GenomeEnd

