GenomeStart 2347
Neuron 1 1 0.00000000 1 0.00000000 0.00000000 0.00000000 0.00000000
Neuron 2 1 0.00000000 1 0.00000000 0.00000000 0.00000000 0.00000000
Neuron 3 1 0.00000000 1 0.00000000 0.00000000 0.00000000 0.00000000
Neuron 4 1 0.00000000 1 0.00000000 0.00000000 0.00000000 0.00000000
Neuron 5 1 0.00000000 1 0.00000000 0.00000000 0.00000000 0.00000000
Neuron 6 2 0.00000000 1 0.00000000 0.00000000 0.00000000 0.00000000
Neuron 7 4 1.00000000 2 3.15496774 0.00000000 0.00000000 0.35315595
Neuron 8 4 1.00000000 4 3.16956654 0.00000000 0.00000000 -0.20817560
Neuron 9 3 0.50000000 6 3.22154941 0.00000000 0.00000000 0.76523603
Neuron 10 3 0.50000000 6 3.51699485 0.00000000 0.00000000 0.29198382
Link 1 9 1 0 0.02616664
Link 2 9 2 0 0.79287468
Link 3 9 3 0 0.73544714
Link 4 9 4 0 -0.50394238
Link 5 9 5 0 -0.05770331
Link 6 9 6 0 0.50809654
Link 1 10 7 0 0.01415819
Link 2 10 8 0 0.69091332
Link 3 10 9 0 0.37902222
Link 4 10 10 0 -0.76962121
Link 5 10 11 0 0.33797322
Link 6 10 12 0 0.06870387
Link 9 7 13 0 -0.54197553
Link 10 7 14 0 -0.25258088
Link 9 8 15 0 -0.59446966
Link 10 8 16 0 0.34060747
GenomeEnd

