GenomeStart 135
Neuron 1 1 0.00000000 1 0.00000000 0.00000000 0.00000000 0.00000000
Neuron 2 1 0.00000000 1 0.00000000 0.00000000 0.00000000 0.00000000
Neuron 3 1 0.00000000 1 0.00000000 0.00000000 0.00000000 0.00000000
Neuron 4 1 0.00000000 1 0.00000000 0.00000000 0.00000000 0.00000000
Neuron 5 1 0.00000000 1 0.00000000 0.00000000 0.00000000 0.00000000
Neuron 6 2 0.00000000 1 0.00000000 0.00000000 0.00000000 0.00000000
Neuron 7 4 1.00000000 2 3.38746774 0.00000000 0.00000000 0.59845964
Neuron 8 4 1.00000000 2 3.10597094 0.00000000 0.00000000 -0.53403273
Neuron 9 3 0.50000000 6 3.22215224 0.00000000 0.00000000 0.32674406
Neuron 10 3 0.50000000 9 3.33731954 0.00000000 0.00000000 0.24405704
Link 1 9 1 0 0.10017862
Link 2 9 2 0 0.57778848
Link 3 9 3 0 0.60990253
Link 4 9 4 0 0.45741888
Link 5 9 5 0 -0.81806119
Link 6 9 6 0 -0.27978890
Link 1 10 7 0 -0.05049953
Link 2 10 8 0 -0.55866229
Link 3 10 9 0 0.12010309
Link 4 10 10 0 0.23598095
Link 5 10 11 0 -0.55967327
Link 6 10 12 0 0.30931158
Link 9 7 13 0 0.30026827
Link 10 7 14 0 -0.52998903
Link 9 8 15 0 -0.11308348
Link 10 8 16 0 0.53390446
GenomeEnd

