GenomeStart 3073
Neuron 1 1 0.00000000 1 0.00000000 0.00000000 0.00000000 0.00000000
Neuron 2 1 0.00000000 1 0.00000000 0.00000000 0.00000000 0.00000000
Neuron 3 1 0.00000000 1 0.00000000 0.00000000 0.00000000 0.00000000
Neuron 4 1 0.00000000 1 0.00000000 0.00000000 0.00000000 0.00000000
Neuron 5 1 0.00000000 1 0.00000000 0.00000000 0.00000000 0.00000000
Neuron 6 2 0.00000000 1 0.00000000 0.00000000 0.00000000 0.00000000
Neuron 7 4 1.00000000 2 3.39186668 0.00000000 0.00000000 0.61077046
Neuron 8 4 1.00000000 11 3.57828212 0.00000000 0.00000000 -0.27756188
Neuron 9 3 0.50000000 6 3.21515840 0.00000000 0.00000000 0.02540110
Neuron 10 3 0.50000000 6 3.21135761 0.00000000 0.00000000 -0.33905027
Link 1 9 1 0 -0.14002226
Link 2 9 2 0 -0.29292177
Link 3 9 3 0 -0.16364243
Link 4 9 4 0 -0.07540562
Link 5 9 5 0 0.28101322
Link 6 9 6 0 0.65516046
Link 1 10 7 0 -0.19282464
Link 2 10 8 0 -0.46914822
Link 4 10 10 0 -0.39630139
Link 5 10 11 0 0.51441840
Link 6 10 12 0 0.32672901
Link 9 7 13 0 -0.24532848
Link 10 7 14 0 -0.01123459
Link 9 8 15 0 0.32803126
Link 10 8 16 0 -0.11199385
GenomeEnd

