GenomeStart 6654
Neuron 1 1 0.00000000 1 0.00000000 0.00000000 0.00000000 0.00000000
Neuron 2 1 0.00000000 1 0.00000000 0.00000000 0.00000000 0.00000000
Neuron 3 1 0.00000000 1 0.00000000 0.00000000 0.00000000 0.00000000
Neuron 4 1 0.00000000 1 0.00000000 0.00000000 0.00000000 0.00000000
Neuron 5 1 0.00000000 1 0.00000000 0.00000000 0.00000000 0.00000000
Neuron 6 2 0.00000000 1 0.00000000 0.00000000 0.00000000 0.00000000
Neuron 7 4 1.00000000 2 3.66210936 0.00000000 0.00000000 -0.65360420
Neuron 8 4 1.00000000 11 3.12772904 0.00000000 0.00000000 0.30023844
Neuron 9 3 0.50000000 6 3.90541881 0.00000000 0.00000000 0.51243690
Neuron 10 3 0.50000000 9 3.90742605 0.00000000 0.00000000 -0.33183467
Neuron 17 3 0.25000000 9 5.18498096 0.00000000 0.00000000 -0.42768527
Link 1 9 1 0 -0.02064237
Link 2 9 2 0 -0.11157586
Link 3 9 3 0 -0.61589285
Link 4 9 4 0 -0.37434256
Link 5 9 5 0 -0.43898070
Link 6 9 6 0 0.14824237
Link 1 10 7 0 -0.74234811
Link 3 10 9 0 0.77343449
Link 4 10 10 0 -0.59930294
Link 5 10 11 0 0.50366648
Link 6 10 12 0 -0.07495914
Link 9 7 13 0 -0.75310528
Link 9 8 15 0 -0.05240744
Link 10 8 16 0 -0.33157331
Link 2 17 49 0 0.19383387
Link 17 10 50 0 -0.48538975
GenomeEnd

