GenomeStart 80500
Neuron 1 1 0.00000000 1 0.00000000 0.00000000 0.00000000 0.00000000
Neuron 2 1 0.00000000 1 0.00000000 0.00000000 0.00000000 0.00000000
Neuron 3 1 0.00000000 1 0.00000000 0.00000000 0.00000000 0.00000000
Neuron 4 1 0.00000000 1 0.00000000 0.00000000 0.00000000 0.00000000
Neuron 5 1 0.00000000 1 0.00000000 0.00000000 0.00000000 0.00000000
Neuron 6 2 0.00000000 1 0.00000000 0.00000000 0.00000000 0.00000000
Neuron 7 4 1.00000000 2 3.46541490 0.00000000 0.00000000 0.54512883
Neuron 8 4 1.00000000 9 3.29150612 0.00000000 0.00000000 -0.55572586
Neuron 9 3 0.50000000 9 3.48184428 0.00000000 0.00000000 -0.32288581
Neuron 10 3 0.50000000 6 3.44742130 0.00000000 0.00000000 -0.59480155
Neuron 11 3 0.25000000 4 0.12979497 0.00000000 0.00000000 -0.38429741
Neuron 14 3 0.25000000 9 1.01235772 0.00000000 0.00000000 0.04131613
Neuron 18 3 0.25000000 11 6.11649704 0.00000000 0.00000000 0.11377340
Neuron 19 3 0.25000000 11 2.65351386 0.00000000 0.00000000 -0.61953848
Neuron 20 3 0.25000000 11 2.89845295 0.00000000 0.00000000 -0.31066327
Neuron 46 3 0.12500000 11 0.86717295 0.00000000 0.00000000 0.12033057
Link 1 9 1 0 0.09502980
Link 5 9 5 0 -0.13853015
Link 6 9 6 0 0.12364824
Link 3 10 9 0 0.04055141
Link 4 10 10 0 0.15220406
Link 6 10 12 0 0.47643826
Link 9 7 13 0 0.28152924
Link 10 7 14 0 0.44146819
Link 10 8 16 0 -0.21514016
Link 2 11 19 0 1.00000000
Link 11 10 20 0 0.00140959
Link 14 10 34 0 -0.32810012
Link 2 18 49 0 -0.71098228
Link 18 9 50 0 -0.06844537
Link 1 19 53 0 -0.37280947
Link 19 10 54 0 -0.50943443
Link 4 20 59 0 0.35695024
Link 20 9 60 0 0.05142564
Link 6 8 92 0 -0.55427304
Link 5 46 214 0 0.07191653
Link 46 14 215 0 -0.53219208
GenomeEnd

