GenomeStart 1050
Neuron 1 1 0.00000000 1 0.00000000 0.00000000 0.00000000 0.00000000
Neuron 2 1 0.00000000 1 0.00000000 0.00000000 0.00000000 0.00000000
Neuron 3 1 0.00000000 1 0.00000000 0.00000000 0.00000000 0.00000000
Neuron 4 1 0.00000000 1 0.00000000 0.00000000 0.00000000 0.00000000
Neuron 5 1 0.00000000 1 0.00000000 0.00000000 0.00000000 0.00000000
Neuron 6 2 0.00000000 1 0.00000000 0.00000000 0.00000000 0.00000000
Neuron 7 4 1.00000000 2 3.39549621 0.00000000 0.00000000 -0.51321868
Neuron 8 4 1.00000000 2 3.27665608 0.00000000 0.00000000 -0.41749956
Neuron 9 3 0.50000000 6 3.30212412 0.00000000 0.00000000 0.37782215
Neuron 10 3 0.50000000 9 3.87221762 0.00000000 0.00000000 -0.30442466
Link 1 9 1 0 0.19210908
Link 2 9 2 0 -0.00694036
Link 3 9 3 0 -0.13102819
Link 4 9 4 0 0.17027206
Link 5 9 5 0 0.31374975
Link 6 9 6 0 -0.25761012
Link 1 10 7 0 -0.07694838
Link 2 10 8 0 0.33755084
Link 3 10 9 0 0.20598318
Link 4 10 10 0 0.44416627
Link 5 10 11 0 -0.04459858
Link 6 10 12 0 0.38020085
Link 9 7 13 0 0.21264080
Link 10 7 14 0 -0.45646138
Link 9 8 15 0 -0.08382143
Link 10 8 16 0 0.04097255
GenomeEnd

