GenomeStart 662
Neuron 1 1 0.00000000 1 0.00000000 0.00000000 0.00000000 0.00000000
Neuron 2 1 0.00000000 1 0.00000000 0.00000000 0.00000000 0.00000000
Neuron 3 1 0.00000000 1 0.00000000 0.00000000 0.00000000 0.00000000
Neuron 4 1 0.00000000 1 0.00000000 0.00000000 0.00000000 0.00000000
Neuron 5 1 0.00000000 1 0.00000000 0.00000000 0.00000000 0.00000000
Neuron 6 2 0.00000000 1 0.00000000 0.00000000 0.00000000 0.00000000
Neuron 7 4 1.00000000 2 3.43612151 0.00000000 0.00000000 -0.17500790
Neuron 8 4 1.00000000 2 3.54203926 0.00000000 0.00000000 -0.28966076
Neuron 9 3 0.50000000 6 3.17096978 0.00000000 0.00000000 0.64802840
Neuron 10 3 0.50000000 6 3.69398316 0.00000000 0.00000000 0.56566530
Link 1 9 1 0 0.09004481
Link 2 9 2 0 -0.19994660
Link 3 9 3 0 0.02426276
Link 4 9 4 0 0.03251285
Link 5 9 5 0 -0.50170644
Link 6 9 6 0 0.11790111
Link 1 10 7 0 0.09214964
Link 2 10 8 0 -0.48588955
Link 3 10 9 0 -0.78929250
Link 4 10 10 0 -0.12221194
Link 5 10 11 0 0.48989567
Link 6 10 12 0 -0.63035723
Link 9 7 13 0 0.28545078
Link 10 7 14 0 -0.45276406
Link 9 8 15 0 0.30827921
Link 10 8 16 0 -0.44129215
GenomeEnd

