GenomeStart 1642
Neuron 1 1 0.00000000 1 0.00000000 0.00000000 0.00000000 0.00000000
Neuron 2 1 0.00000000 1 0.00000000 0.00000000 0.00000000 0.00000000
Neuron 3 1 0.00000000 1 0.00000000 0.00000000 0.00000000 0.00000000
Neuron 4 1 0.00000000 1 0.00000000 0.00000000 0.00000000 0.00000000
Neuron 5 1 0.00000000 1 0.00000000 0.00000000 0.00000000 0.00000000
Neuron 6 2 0.00000000 1 0.00000000 0.00000000 0.00000000 0.00000000
Neuron 7 4 1.00000000 2 3.60818994 0.00000000 0.00000000 0.02705074
Neuron 8 4 1.00000000 2 3.29357979 0.00000000 0.00000000 -0.29751010
Neuron 9 3 0.50000000 6 3.65782508 0.00000000 0.00000000 -0.32303274
Neuron 10 3 0.50000000 6 3.33329805 0.00000000 0.00000000 -0.13121789
Link 1 9 1 0 0.43726291
Link 2 9 2 0 0.23199993
Link 3 9 3 0 -0.24877972
Link 4 9 4 0 0.11225994
Link 5 9 5 0 -0.40072276
Link 6 9 6 0 0.01216482
Link 1 10 7 0 -0.07369862
Link 2 10 8 0 -0.17018364
Link 3 10 9 0 -0.16257116
Link 4 10 10 0 -0.52118071
Link 5 10 11 0 -0.65292451
Link 6 10 12 0 -0.39009537
Link 9 7 13 0 -0.32010182
Link 10 7 14 0 -0.95650152
Link 9 8 15 0 -0.74050515
Link 10 8 16 0 -0.65427215
GenomeEnd

