GenomeStart 3870
Neuron 1 1 0.00000000 1 0.00000000 0.00000000 0.00000000 0.00000000
Neuron 2 1 0.00000000 1 0.00000000 0.00000000 0.00000000 0.00000000
Neuron 3 1 0.00000000 1 0.00000000 0.00000000 0.00000000 0.00000000
Neuron 4 1 0.00000000 1 0.00000000 0.00000000 0.00000000 0.00000000
Neuron 5 1 0.00000000 1 0.00000000 0.00000000 0.00000000 0.00000000
Neuron 6 2 0.00000000 1 0.00000000 0.00000000 0.00000000 0.00000000
Neuron 7 4 1.00000000 2 3.86294138 0.00000000 0.00000000 0.15984991
Neuron 8 4 1.00000000 2 3.65034133 0.00000000 0.00000000 -0.60750086
Neuron 9 3 0.50000000 9 3.41972285 0.00000000 0.00000000 0.32917256
Neuron 10 3 0.50000000 6 3.04661362 0.00000000 0.00000000 -0.27970879
Neuron 21 3 0.25000000 4 0.41439988 0.00000000 0.00000000 0.79846808
Link 1 9 1 0 -0.55709461
Link 3 9 3 0 -0.26032646
Link 4 9 4 0 0.56932222
Link 5 9 5 0 0.14998237
Link 6 9 6 0 -0.31045513
Link 2 10 8 0 0.73918797
Link 3 10 9 0 0.70730659
Link 4 10 10 0 -0.43638817
Link 5 10 11 0 0.28439288
Link 6 10 12 0 0.38670243
Link 9 7 13 0 0.20111500
Link 10 7 14 0 -0.03369440
Link 9 8 15 0 -0.16550482
Link 10 8 16 0 -0.04745642
Link 1 21 56 0 -0.40594854
Link 21 10 57 0 -0.04244615
Link 1 8 61 0 0.65449993
GenomeEnd

