GenomeStart 1887
Neuron 1 1 0.00000000 1 0.00000000 0.00000000 0.00000000 0.00000000
Neuron 2 1 0.00000000 1 0.00000000 0.00000000 0.00000000 0.00000000
Neuron 3 1 0.00000000 1 0.00000000 0.00000000 0.00000000 0.00000000
Neuron 4 1 0.00000000 1 0.00000000 0.00000000 0.00000000 0.00000000
Neuron 5 1 0.00000000 1 0.00000000 0.00000000 0.00000000 0.00000000
Neuron 6 2 0.00000000 1 0.00000000 0.00000000 0.00000000 0.00000000
Neuron 7 4 1.00000000 9 3.67343313 0.00000000 0.00000000 -0.48442247
Neuron 8 4 1.00000000 2 3.16980311 0.00000000 0.00000000 -0.18934082
Neuron 9 3 0.50000000 6 3.60577313 0.00000000 0.00000000 0.00365334
Neuron 10 3 0.50000000 6 3.08685720 0.00000000 0.00000000 -0.02461352
Link 1 9 1 0 0.08141138
Link 2 9 2 0 0.59410881
Link 3 9 3 0 -0.11171340
Link 4 9 4 0 -0.35579720
Link 5 9 5 0 0.03604825
Link 6 9 6 0 0.40270129
Link 1 10 7 0 -0.17460112
Link 2 10 8 0 -0.71196423
Link 3 10 9 0 0.39171225
Link 4 10 10 0 0.35285699
Link 5 10 11 0 -0.19081202
Link 6 10 12 0 -0.11059725
Link 9 7 13 0 0.41223188
Link 10 7 14 0 -0.24055437
Link 9 8 15 0 -0.08820766
Link 10 8 16 0 0.05301496
GenomeEnd

