GenomeStart 731
Neuron 1 1 0.00000000 1 0.00000000 0.00000000 0.00000000 0.00000000
Neuron 2 1 0.00000000 1 0.00000000 0.00000000 0.00000000 0.00000000
Neuron 3 1 0.00000000 1 0.00000000 0.00000000 0.00000000 0.00000000
Neuron 4 1 0.00000000 1 0.00000000 0.00000000 0.00000000 0.00000000
Neuron 5 1 0.00000000 1 0.00000000 0.00000000 0.00000000 0.00000000
Neuron 6 2 0.00000000 1 0.00000000 0.00000000 0.00000000 0.00000000
Neuron 7 4 1.00000000 6 3.43747475 0.00000000 0.00000000 0.13288496
Neuron 8 4 1.00000000 2 3.65611772 0.00000000 0.00000000 0.10455121
Neuron 9 3 0.50000000 6 3.90520487 0.00000000 0.00000000 0.63595450
Neuron 10 3 0.50000000 9 3.43940580 0.00000000 0.00000000 -0.32398134
Link 1 9 1 0 -0.69915857
Link 2 9 2 0 -0.66283261
Link 3 9 3 0 0.95869808
Link 4 9 4 0 -0.59957320
Link 5 9 5 0 0.28217211
Link 6 9 6 0 -0.04715970
Link 1 10 7 0 0.62314619
Link 2 10 8 0 0.61735233
Link 3 10 9 0 -0.29258975
Link 4 10 10 0 0.91539658
Link 5 10 11 0 -0.05305010
Link 6 10 12 0 -0.07847820
Link 9 7 13 0 -0.59960762
Link 10 7 14 0 0.48907011
Link 9 8 15 0 -0.64338442
Link 10 8 16 0 0.18735397
GenomeEnd

