GenomeStart 1294
Neuron 1 1 0.00000000 1 0.00000000 0.00000000 0.00000000 0.00000000
Neuron 2 1 0.00000000 1 0.00000000 0.00000000 0.00000000 0.00000000
Neuron 3 1 0.00000000 1 0.00000000 0.00000000 0.00000000 0.00000000
Neuron 4 1 0.00000000 1 0.00000000 0.00000000 0.00000000 0.00000000
Neuron 5 1 0.00000000 1 0.00000000 0.00000000 0.00000000 0.00000000
Neuron 6 2 0.00000000 1 0.00000000 0.00000000 0.00000000 0.00000000
Neuron 7 4 1.00000000 2 3.33953655 0.00000000 0.00000000 0.11865693
Neuron 8 4 1.00000000 2 3.61073918 0.00000000 0.00000000 -0.48146769
Neuron 9 3 0.50000000 6 3.83837822 0.00000000 0.00000000 0.70937172
Neuron 10 3 0.50000000 6 3.23338567 0.00000000 0.00000000 -0.52996821
Link 1 9 1 0 -0.12092994
Link 2 9 2 0 0.00785066
Link 3 9 3 0 0.31883731
Link 4 9 4 0 0.16654398
Link 5 9 5 0 -0.43337290
Link 6 9 6 0 -0.51637773
Link 1 10 7 0 -0.04053861
Link 2 10 8 0 0.14043142
Link 3 10 9 0 0.49627055
Link 4 10 10 0 0.23695477
Link 5 10 11 0 -0.41576465
Link 6 10 12 0 -0.20238062
Link 9 7 13 0 0.16147949
Link 10 7 14 0 -0.44298963
Link 9 8 15 0 0.70298321
Link 10 8 16 0 0.14450170
GenomeEnd

