GenomeStart 1479
Neuron 1 1 0.00000000 1 0.00000000 0.00000000 0.00000000 0.00000000
Neuron 2 1 0.00000000 1 0.00000000 0.00000000 0.00000000 0.00000000
Neuron 3 1 0.00000000 1 0.00000000 0.00000000 0.00000000 0.00000000
Neuron 4 1 0.00000000 1 0.00000000 0.00000000 0.00000000 0.00000000
Neuron 5 1 0.00000000 1 0.00000000 0.00000000 0.00000000 0.00000000
Neuron 6 2 0.00000000 1 0.00000000 0.00000000 0.00000000 0.00000000
Neuron 7 4 1.00000000 6 3.34042818 0.00000000 0.00000000 -0.06659012
Neuron 8 4 1.00000000 2 3.55168455 0.00000000 0.00000000 0.32234511
Neuron 9 3 0.50000000 6 3.51494081 0.00000000 0.00000000 0.01612695
Neuron 10 3 0.50000000 4 3.36113428 0.00000000 0.00000000 0.44078410
Link 1 9 1 0 -0.02234546
Link 2 9 2 0 -0.20189538
Link 3 9 3 0 0.64502665
Link 4 9 4 0 0.02117189
Link 5 9 5 0 0.38344438
Link 6 9 6 0 -0.04836534
Link 1 10 7 0 0.61601822
Link 2 10 8 0 0.34051042
Link 3 10 9 0 0.33803496
Link 4 10 10 0 -0.85163262
Link 5 10 11 0 -0.21127172
Link 6 10 12 0 0.25554243
Link 9 7 13 0 0.22189800
Link 10 7 14 0 0.47144021
Link 9 8 15 0 0.24849351
Link 10 8 16 0 0.85333862
GenomeEnd

