GenomeStart 363
Neuron 1 1 0.00000000 1 0.00000000 0.00000000 0.00000000 0.00000000
Neuron 2 1 0.00000000 1 0.00000000 0.00000000 0.00000000 0.00000000
Neuron 3 1 0.00000000 1 0.00000000 0.00000000 0.00000000 0.00000000
Neuron 4 1 0.00000000 1 0.00000000 0.00000000 0.00000000 0.00000000
Neuron 5 1 0.00000000 1 0.00000000 0.00000000 0.00000000 0.00000000
Neuron 6 2 0.00000000 1 0.00000000 0.00000000 0.00000000 0.00000000
Neuron 7 4 1.00000000 2 3.30264056 0.00000000 0.00000000 -0.12083018
Neuron 8 4 1.00000000 2 3.41188368 0.00000000 0.00000000 0.82138534
Neuron 9 3 0.50000000 6 3.37975233 0.00000000 0.00000000 -0.60129491
Neuron 10 3 0.50000000 6 3.77788658 0.00000000 0.00000000 -0.47028786
Link 1 9 1 0 0.05531162
Link 2 9 2 0 0.05532772
Link 3 9 3 0 0.04130178
Link 4 9 4 0 -0.11846344
Link 5 9 5 0 -0.45516449
Link 6 9 6 0 0.07632696
Link 1 10 7 0 0.00467605
Link 2 10 8 0 0.53630173
Link 3 10 9 0 -0.43167458
Link 4 10 10 0 -0.48201450
Link 5 10 11 0 -0.09302487
Link 6 10 12 0 0.35451349
Link 9 7 13 0 0.14039128
Link 10 7 14 0 0.53572436
Link 9 8 15 0 0.32836007
Link 10 8 16 0 -0.75184795
GenomeEnd

