GenomeStart 644
Neuron 1 1 0.00000000 1 0.00000000 0.00000000 0.00000000 0.00000000
Neuron 2 1 0.00000000 1 0.00000000 0.00000000 0.00000000 0.00000000
Neuron 3 1 0.00000000 1 0.00000000 0.00000000 0.00000000 0.00000000
Neuron 4 1 0.00000000 1 0.00000000 0.00000000 0.00000000 0.00000000
Neuron 5 1 0.00000000 1 0.00000000 0.00000000 0.00000000 0.00000000
Neuron 6 2 0.00000000 1 0.00000000 0.00000000 0.00000000 0.00000000
Neuron 7 4 1.00000000 2 3.75161965 0.00000000 0.00000000 0.69295661
Neuron 8 4 1.00000000 2 3.58165919 0.00000000 0.00000000 -0.81219771
Neuron 9 3 0.50000000 11 3.47141063 0.00000000 0.00000000 0.18847272
Neuron 10 3 0.50000000 6 3.18717359 0.00000000 0.00000000 -0.67768216
Link 1 9 1 0 0.10125037
Link 2 9 2 0 -0.53471853
Link 3 9 3 0 -0.11631204
Link 4 9 4 0 -0.28999615
Link 5 9 5 0 0.08998307
Link 6 9 6 0 -0.09463655
Link 1 10 7 0 0.23770617
Link 2 10 8 0 0.35232562
Link 3 10 9 0 0.75374172
Link 4 10 10 0 -0.26391216
Link 5 10 11 0 -0.11211943
Link 6 10 12 0 -0.03201633
Link 9 7 13 0 0.23586368
Link 10 7 14 0 -0.23627151
Link 9 8 15 0 0.05523665
Link 10 8 16 0 -0.85889750
GenomeEnd

