GenomeStart 701
Neuron 1 1 0.00000000 1 0.00000000 0.00000000 0.00000000 0.00000000
Neuron 2 1 0.00000000 1 0.00000000 0.00000000 0.00000000 0.00000000
Neuron 3 1 0.00000000 1 0.00000000 0.00000000 0.00000000 0.00000000
Neuron 4 1 0.00000000 1 0.00000000 0.00000000 0.00000000 0.00000000
Neuron 5 1 0.00000000 1 0.00000000 0.00000000 0.00000000 0.00000000
Neuron 6 2 0.00000000 1 0.00000000 0.00000000 0.00000000 0.00000000
Neuron 7 4 1.00000000 6 3.66258252 0.00000000 0.00000000 -0.46706027
Neuron 8 4 1.00000000 2 3.22187405 0.00000000 0.00000000 0.52750981
Neuron 9 3 0.50000000 6 3.41155411 0.00000000 0.00000000 -0.06409722
Neuron 10 3 0.50000000 6 3.31090914 0.00000000 0.00000000 -0.25082668
Link 1 9 1 0 0.36303222
Link 2 9 2 0 -0.63289365
Link 3 9 3 0 -0.46708984
Link 4 9 4 0 0.29846717
Link 5 9 5 0 0.54461008
Link 6 9 6 0 -0.24101214
Link 1 10 7 0 -0.18071650
Link 2 10 8 0 0.01844165
Link 3 10 9 0 0.74041920
Link 4 10 10 0 0.25685737
Link 5 10 11 0 -0.03707871
Link 6 10 12 0 -0.00430806
Link 9 7 13 0 0.55238822
Link 10 7 14 0 0.74655193
Link 9 8 15 0 0.74486633
Link 10 8 16 0 -0.57543639
GenomeEnd

