GenomeStart 5952
Neuron 1 1 0.00000000 1 0.00000000 0.00000000 0.00000000 0.00000000
Neuron 2 1 0.00000000 1 0.00000000 0.00000000 0.00000000 0.00000000
Neuron 3 1 0.00000000 1 0.00000000 0.00000000 0.00000000 0.00000000
Neuron 4 1 0.00000000 1 0.00000000 0.00000000 0.00000000 0.00000000
Neuron 5 1 0.00000000 1 0.00000000 0.00000000 0.00000000 0.00000000
Neuron 6 2 0.00000000 1 0.00000000 0.00000000 0.00000000 0.00000000
Neuron 7 4 1.00000000 2 3.89281568 0.00000000 0.00000000 0.04583147
Neuron 8 4 1.00000000 2 3.33452547 0.00000000 0.00000000 0.04993308
Neuron 9 3 0.50000000 9 3.72384549 0.00000000 0.00000000 0.03602807
Neuron 10 3 0.50000000 6 3.62277385 0.00000000 0.00000000 -0.51665394
Neuron 11 3 0.75000000 9 0.73691941 0.00000000 0.00000000 -0.26696350
Neuron 15 3 0.25000000 11 3.43164486 0.00000000 0.00000000 -0.35942175
Link 1 9 1 0 0.64882859
Link 2 9 2 0 -0.56014612
Link 3 9 3 0 -0.51240510
Link 5 9 5 0 0.36183876
Link 6 9 6 0 0.02800588
Link 1 10 7 0 0.14385753
Link 2 10 8 0 -0.12197822
Link 3 10 9 0 0.37495213
Link 4 10 10 0 -0.73653205
Link 5 10 11 0 -0.09980365
Link 6 10 12 0 0.00931483
Link 9 7 13 0 0.39437170
Link 9 8 15 0 -0.59731441
Link 10 8 16 0 -0.00116964
Link 10 11 20 0 1.00000000
Link 11 7 21 0 -0.22128904
Link 4 15 33 0 1.00000000
Link 15 9 34 0 -0.07082948
GenomeEnd

