GenomeStart 106
Neuron 1 1 0.00000000 1 0.00000000 0.00000000 0.00000000 0.00000000
Neuron 2 1 0.00000000 1 0.00000000 0.00000000 0.00000000 0.00000000
Neuron 3 1 0.00000000 1 0.00000000 0.00000000 0.00000000 0.00000000
Neuron 4 1 0.00000000 1 0.00000000 0.00000000 0.00000000 0.00000000
Neuron 5 1 0.00000000 1 0.00000000 0.00000000 0.00000000 0.00000000
Neuron 6 2 0.00000000 1 0.00000000 0.00000000 0.00000000 0.00000000
Neuron 7 4 1.00000000 2 3.04561379 0.00000000 0.00000000 0.06323181
Neuron 8 4 1.00000000 2 3.57084366 0.00000000 0.00000000 0.01792204
Neuron 9 3 0.50000000 6 3.34424301 0.00000000 0.00000000 -0.18962748
Neuron 10 3 0.50000000 11 3.65759205 0.00000000 0.00000000 0.36018842
Link 1 9 1 0 -0.19868520
Link 2 9 2 0 0.08030098
Link 3 9 3 0 -0.16149336
Link 4 9 4 0 -0.34263643
Link 5 9 5 0 -0.73619469
Link 6 9 6 0 -0.16054027
Link 1 10 7 0 -0.05917557
Link 2 10 8 0 -0.26298720
Link 3 10 9 0 0.49522148
Link 4 10 10 0 0.61482889
Link 5 10 11 0 0.53363164
Link 6 10 12 0 -0.27821766
Link 9 7 13 0 -0.42163343
Link 10 7 14 0 0.01734179
Link 9 8 15 0 0.24185377
Link 10 8 16 0 0.10832782
GenomeEnd

