GenomeStart 566
Neuron 1 1 0.00000000 1 0.00000000 0.00000000 0.00000000 0.00000000
Neuron 2 1 0.00000000 1 0.00000000 0.00000000 0.00000000 0.00000000
Neuron 3 1 0.00000000 1 0.00000000 0.00000000 0.00000000 0.00000000
Neuron 4 1 0.00000000 1 0.00000000 0.00000000 0.00000000 0.00000000
Neuron 5 1 0.00000000 1 0.00000000 0.00000000 0.00000000 0.00000000
Neuron 6 2 0.00000000 1 0.00000000 0.00000000 0.00000000 0.00000000
Neuron 7 4 1.00000000 2 3.54347436 0.00000000 0.00000000 0.61768893
Neuron 8 4 1.00000000 11 3.25833851 0.00000000 0.00000000 0.29709655
Neuron 9 3 0.50000000 6 3.43500584 0.00000000 0.00000000 0.30088372
Neuron 10 3 0.50000000 6 3.22358830 0.00000000 0.00000000 0.18731914
Link 1 9 1 0 0.47743744
Link 2 9 2 0 -0.22477533
Link 3 9 3 0 0.13798653
Link 4 9 4 0 -0.32491291
Link 5 9 5 0 -0.31479590
Link 6 9 6 0 0.05119339
Link 1 10 7 0 -0.53280128
Link 2 10 8 0 0.09980741
Link 3 10 9 0 0.28783524
Link 4 10 10 0 -0.18967710
Link 5 10 11 0 0.27433705
Link 6 10 12 0 -0.12378370
Link 9 7 13 0 -0.37800927
Link 10 7 14 0 0.27647311
Link 9 8 15 0 0.14264375
Link 10 8 16 0 0.40644609
GenomeEnd

