GenomeStart 731
Neuron 1 1 0.00000000 1 0.00000000 0.00000000 0.00000000 0.00000000
Neuron 2 1 0.00000000 1 0.00000000 0.00000000 0.00000000 0.00000000
Neuron 3 1 0.00000000 1 0.00000000 0.00000000 0.00000000 0.00000000
Neuron 4 1 0.00000000 1 0.00000000 0.00000000 0.00000000 0.00000000
Neuron 5 1 0.00000000 1 0.00000000 0.00000000 0.00000000 0.00000000
Neuron 6 2 0.00000000 1 0.00000000 0.00000000 0.00000000 0.00000000
Neuron 7 4 1.00000000 4 3.18724563 0.00000000 0.00000000 -0.57898925
Neuron 8 4 1.00000000 2 3.26178784 0.00000000 0.00000000 -0.19704607
Neuron 9 3 0.50000000 6 3.12285092 0.00000000 0.00000000 -0.88644380
Neuron 10 3 0.50000000 11 3.49179395 0.00000000 0.00000000 0.31375499
Link 1 9 1 0 -0.08055502
Link 2 9 2 0 -0.38068133
Link 3 9 3 0 0.76905071
Link 4 9 4 0 -0.43116386
Link 5 9 5 0 0.44710335
Link 6 9 6 0 0.60040693
Link 1 10 7 0 0.07317288
Link 2 10 8 0 0.04664522
Link 3 10 9 0 0.20215600
Link 4 10 10 0 -0.00234003
Link 5 10 11 0 -0.53038353
Link 6 10 12 0 0.33063769
Link 9 7 13 0 0.36959814
Link 10 7 14 0 0.28253055
Link 9 8 15 0 0.18383612
Link 10 8 16 0 0.14270115
GenomeEnd

