GenomeStart 2380
Neuron 1 1 0.00000000 1 0.00000000 0.00000000 0.00000000 0.00000000
Neuron 2 1 0.00000000 1 0.00000000 0.00000000 0.00000000 0.00000000
Neuron 3 1 0.00000000 1 0.00000000 0.00000000 0.00000000 0.00000000
Neuron 4 1 0.00000000 1 0.00000000 0.00000000 0.00000000 0.00000000
Neuron 5 1 0.00000000 1 0.00000000 0.00000000 0.00000000 0.00000000
Neuron 6 2 0.00000000 1 0.00000000 0.00000000 0.00000000 0.00000000
Neuron 7 4 1.00000000 2 3.13928939 0.00000000 0.00000000 -0.81716324
Neuron 8 4 1.00000000 2 3.51649398 0.00000000 0.00000000 0.42610345
Neuron 9 3 0.50000000 6 3.50029006 0.00000000 0.00000000 -0.49037850
Neuron 10 3 0.50000000 6 3.47761477 0.00000000 0.00000000 -0.45974081
Link 1 9 1 0 -0.16910146
Link 2 9 2 0 0.10425220
Link 3 9 3 0 -0.23824893
Link 4 9 4 0 -0.36506988
Link 5 9 5 0 -0.11840509
Link 6 9 6 0 0.26556104
Link 1 10 7 0 -0.11906808
Link 2 10 8 0 0.21757086
Link 3 10 9 0 -0.06585393
Link 4 10 10 0 0.25241390
Link 5 10 11 0 0.08705470
Link 6 10 12 0 0.34744235
Link 9 7 13 0 -0.16668065
Link 10 7 14 0 -0.19715026
Link 9 8 15 0 0.35066774
Link 10 8 16 0 -0.07964307
GenomeEnd

