GenomeStart 35369
Neuron 1 1 0.00000000 1 0.00000000 0.00000000 0.00000000 0.00000000
Neuron 2 1 0.00000000 1 0.00000000 0.00000000 0.00000000 0.00000000
Neuron 3 1 0.00000000 1 0.00000000 0.00000000 0.00000000 0.00000000
Neuron 4 1 0.00000000 1 0.00000000 0.00000000 0.00000000 0.00000000
Neuron 5 1 0.00000000 1 0.00000000 0.00000000 0.00000000 0.00000000
Neuron 6 2 0.00000000 1 0.00000000 0.00000000 0.00000000 0.00000000
Neuron 7 4 1.00000000 2 3.63086735 0.00000000 0.00000000 0.68125377
Neuron 8 4 1.00000000 9 3.61060487 0.00000000 0.00000000 -0.45266492
Neuron 9 3 0.50000000 6 3.49870812 0.00000000 0.00000000 -0.03652291
Neuron 10 3 0.50000000 4 3.39195616 0.00000000 0.00000000 -0.42195949
Neuron 16 3 0.25000000 6 2.35457475 0.00000000 0.00000000 -0.14330310
Neuron 22 3 0.25000000 4 6.00893859 0.00000000 0.00000000 -0.24701202
Neuron 29 3 0.50000000 11 0.91927308 0.00000000 0.00000000 0.02514075
Neuron 31 3 0.37500000 11 1.17982335 0.00000000 0.00000000 -0.01067971
Neuron 46 3 0.12500000 11 2.67046094 0.00000000 0.00000000 -0.51512199
Link 1 9 1 0 0.24492226
Link 5 9 5 0 0.04072149
Link 3 10 9 0 -0.20655738
Link 4 10 10 0 -0.01084670
Link 6 10 12 0 0.44936551
Link 9 7 13 0 -0.14025828
Link 10 7 14 0 -0.21760482
Link 10 8 16 0 0.72923302
Link 5 16 37 0 -0.05547070
Link 22 9 66 0 -0.40398083
Link 9 29 98 0 -0.55809334
Link 29 10 99 0 -0.22589346
Link 16 31 110 0 -0.04783255
Link 31 10 111 0 -0.55302059
Link 2 22 206 0 -0.08257324
Link 3 46 218 0 1.00000000
Link 46 22 219 0 0.00253565
GenomeEnd

