GenomeStart 1092
Neuron 1 1 0.00000000 1 0.00000000 0.00000000 0.00000000 0.00000000
Neuron 2 1 0.00000000 1 0.00000000 0.00000000 0.00000000 0.00000000
Neuron 3 1 0.00000000 1 0.00000000 0.00000000 0.00000000 0.00000000
Neuron 4 1 0.00000000 1 0.00000000 0.00000000 0.00000000 0.00000000
Neuron 5 1 0.00000000 1 0.00000000 0.00000000 0.00000000 0.00000000
Neuron 6 2 0.00000000 1 0.00000000 0.00000000 0.00000000 0.00000000
Neuron 7 4 1.00000000 2 3.37003607 0.00000000 0.00000000 0.66688454
Neuron 8 4 1.00000000 2 3.66274676 0.00000000 0.00000000 -0.39551549
Neuron 9 3 0.50000000 6 3.25197843 0.00000000 0.00000000 -0.06367407
Neuron 10 3 0.50000000 6 3.55811481 0.00000000 0.00000000 -0.55850780
Link 1 9 1 0 -0.06974536
Link 2 9 2 0 -0.49444020
Link 3 9 3 0 0.21890045
Link 4 9 4 0 -0.24373159
Link 5 9 5 0 0.05089558
Link 6 9 6 0 0.12663720
Link 1 10 7 0 -0.09204578
Link 2 10 8 0 -0.21285743
Link 3 10 9 0 -0.97900147
Link 4 10 10 0 -0.52205080
Link 5 10 11 0 -0.80901068
Link 6 10 12 0 -0.73505341
Link 9 7 13 0 0.26965302
Link 10 7 14 0 -0.47407004
Link 9 8 15 0 0.38847348
Link 10 8 16 0 0.05344371
GenomeEnd

