GenomeStart 1351
Neuron 1 1 0.00000000 1 0.00000000 0.00000000 0.00000000 0.00000000
Neuron 2 1 0.00000000 1 0.00000000 0.00000000 0.00000000 0.00000000
Neuron 3 1 0.00000000 1 0.00000000 0.00000000 0.00000000 0.00000000
Neuron 4 1 0.00000000 1 0.00000000 0.00000000 0.00000000 0.00000000
Neuron 5 1 0.00000000 1 0.00000000 0.00000000 0.00000000 0.00000000
Neuron 6 2 0.00000000 1 0.00000000 0.00000000 0.00000000 0.00000000
Neuron 7 4 1.00000000 2 3.59321021 0.00000000 0.00000000 0.12193106
Neuron 8 4 1.00000000 2 3.47654323 0.00000000 0.00000000 0.25841887
Neuron 9 3 0.50000000 4 3.41475771 0.00000000 0.00000000 -0.22209391
Neuron 10 3 0.50000000 6 3.45110888 0.00000000 0.00000000 0.05269641
Link 1 9 1 0 0.18321499
Link 2 9 2 0 -0.89867908
Link 3 9 3 0 0.21396799
Link 4 9 4 0 0.01946230
Link 5 9 5 0 -0.31228628
Link 6 9 6 0 -0.01624280
Link 1 10 7 0 0.44970619
Link 2 10 8 0 0.62580808
Link 3 10 9 0 0.09832053
Link 4 10 10 0 -0.59870863
Link 5 10 11 0 -0.24952989
Link 6 10 12 0 0.36662587
Link 9 7 13 0 0.39176930
Link 10 7 14 0 -0.29691345
Link 9 8 15 0 0.04892158
Link 10 8 16 0 -0.26496035
GenomeEnd

