GenomeStart 350
Neuron 1 1 0.00000000 1 0.00000000 0.00000000 0.00000000 0.00000000
Neuron 2 1 0.00000000 1 0.00000000 0.00000000 0.00000000 0.00000000
Neuron 3 1 0.00000000 1 0.00000000 0.00000000 0.00000000 0.00000000
Neuron 4 1 0.00000000 1 0.00000000 0.00000000 0.00000000 0.00000000
Neuron 5 1 0.00000000 1 0.00000000 0.00000000 0.00000000 0.00000000
Neuron 6 2 0.00000000 1 0.00000000 0.00000000 0.00000000 0.00000000
Neuron 7 4 1.00000000 2 3.43963745 0.00000000 0.00000000 0.39662734
Neuron 8 4 1.00000000 6 3.63314596 0.00000000 0.00000000 0.32089346
Neuron 9 3 0.50000000 6 3.27093476 0.00000000 0.00000000 0.11489095
Neuron 10 3 0.50000000 6 3.32050393 0.00000000 0.00000000 -0.21280023
Link 1 9 1 0 0.31143771
Link 2 9 2 0 0.12716401
Link 3 9 3 0 0.06056841
Link 4 9 4 0 0.02624389
Link 5 9 5 0 0.06273778
Link 6 9 6 0 0.91184158
Link 1 10 7 0 0.09167700
Link 2 10 8 0 -0.49212986
Link 3 10 9 0 0.16882439
Link 4 10 10 0 -0.51842118
Link 5 10 11 0 0.36190803
Link 6 10 12 0 -0.52306127
Link 9 7 13 0 -0.28866696
Link 10 7 14 0 -0.67200142
Link 9 8 15 0 -0.50892192
Link 10 8 16 0 0.63170421
GenomeEnd

