GenomeStart 1198
Neuron 1 1 0.00000000 1 0.00000000 0.00000000 0.00000000 0.00000000
Neuron 2 1 0.00000000 1 0.00000000 0.00000000 0.00000000 0.00000000
Neuron 3 1 0.00000000 1 0.00000000 0.00000000 0.00000000 0.00000000
Neuron 4 1 0.00000000 1 0.00000000 0.00000000 0.00000000 0.00000000
Neuron 5 1 0.00000000 1 0.00000000 0.00000000 0.00000000 0.00000000
Neuron 6 2 0.00000000 1 0.00000000 0.00000000 0.00000000 0.00000000
Neuron 7 4 1.00000000 2 3.59916703 0.00000000 0.00000000 0.21488870
Neuron 8 4 1.00000000 2 3.32554282 0.00000000 0.00000000 -0.08469096
Neuron 9 3 0.50000000 6 3.71891221 0.00000000 0.00000000 0.21424912
Neuron 10 3 0.50000000 4 3.81550217 0.00000000 0.00000000 -0.36012378
Link 1 9 1 0 0.05755986
Link 2 9 2 0 0.20173609
Link 3 9 3 0 0.03599380
Link 4 9 4 0 0.46673022
Link 5 9 5 0 -0.01379150
Link 6 9 6 0 0.45804980
Link 1 10 7 0 0.17260776
Link 2 10 8 0 -0.29996000
Link 3 10 9 0 -0.04966367
Link 4 10 10 0 -0.25905796
Link 5 10 11 0 0.22058311
Link 6 10 12 0 -0.32913079
Link 9 7 13 0 -0.66472058
Link 10 7 14 0 0.25464319
Link 9 8 15 0 -0.04954360
Link 10 8 16 0 -0.04818123
GenomeEnd

