GenomeStart 4564
Neuron 1 1 0.00000000 1 0.00000000 0.00000000 0.00000000 0.00000000
Neuron 2 1 0.00000000 1 0.00000000 0.00000000 0.00000000 0.00000000
Neuron 3 1 0.00000000 1 0.00000000 0.00000000 0.00000000 0.00000000
Neuron 4 1 0.00000000 1 0.00000000 0.00000000 0.00000000 0.00000000
Neuron 5 1 0.00000000 1 0.00000000 0.00000000 0.00000000 0.00000000
Neuron 6 2 0.00000000 1 0.00000000 0.00000000 0.00000000 0.00000000
Neuron 7 4 1.00000000 2 3.45959566 0.00000000 0.00000000 0.08097020
Neuron 8 4 1.00000000 4 3.53287654 0.00000000 0.00000000 -0.08757661
Neuron 9 3 0.50000000 6 3.35448785 0.00000000 0.00000000 -0.31641604
Neuron 10 3 0.50000000 6 3.30512867 0.00000000 0.00000000 -0.43087551
Link 1 9 1 0 -0.38012334
Link 2 9 2 0 -0.24518443
Link 3 9 3 0 0.58477714
Link 4 9 4 0 0.42992517
Link 5 9 5 0 -0.09533766
Link 6 9 6 0 -0.34317982
Link 1 10 7 0 0.08159466
Link 2 10 8 0 0.17953409
Link 3 10 9 0 -0.07124497
Link 4 10 10 0 0.44469056
Link 5 10 11 0 0.05622507
Link 6 10 12 0 0.77011498
Link 9 7 13 0 0.25218920
Link 10 7 14 0 -0.50195702
Link 9 8 15 0 0.27596843
Link 10 8 16 0 -0.20551012
GenomeEnd

