GenomeStart 1752
Neuron 1 1 0.00000000 1 0.00000000 0.00000000 0.00000000 0.00000000
Neuron 2 1 0.00000000 1 0.00000000 0.00000000 0.00000000 0.00000000
Neuron 3 1 0.00000000 1 0.00000000 0.00000000 0.00000000 0.00000000
Neuron 4 1 0.00000000 1 0.00000000 0.00000000 0.00000000 0.00000000
Neuron 5 1 0.00000000 1 0.00000000 0.00000000 0.00000000 0.00000000
Neuron 6 2 0.00000000 1 0.00000000 0.00000000 0.00000000 0.00000000
Neuron 7 4 1.00000000 2 3.40296715 0.00000000 0.00000000 -0.35022683
Neuron 8 4 1.00000000 6 3.56935180 0.00000000 0.00000000 0.31396175
Neuron 9 3 0.50000000 6 3.48761310 0.00000000 0.00000000 0.00420131
Neuron 10 3 0.50000000 6 3.56905189 0.00000000 0.00000000 -0.67732081
Link 1 9 1 0 -0.09934036
Link 2 9 2 0 -0.85290299
Link 3 9 3 0 -0.44456870
Link 4 9 4 0 -0.16120627
Link 5 9 5 0 0.10015345
Link 6 9 6 0 -0.03617661
Link 1 10 7 0 -0.40827616
Link 2 10 8 0 0.60838479
Link 3 10 9 0 -0.73554216
Link 4 10 10 0 0.24716652
Link 5 10 11 0 0.16415457
Link 6 10 12 0 -0.27883038
Link 9 7 13 0 0.45419211
Link 10 7 14 0 -0.08593684
Link 9 8 15 0 -0.57489238
Link 10 8 16 0 -0.23709549
GenomeEnd

