GenomeStart 1777
Neuron 1 1 0.00000000 1 0.00000000 0.00000000 0.00000000 0.00000000
Neuron 2 1 0.00000000 1 0.00000000 0.00000000 0.00000000 0.00000000
Neuron 3 1 0.00000000 1 0.00000000 0.00000000 0.00000000 0.00000000
Neuron 4 1 0.00000000 1 0.00000000 0.00000000 0.00000000 0.00000000
Neuron 5 1 0.00000000 1 0.00000000 0.00000000 0.00000000 0.00000000
Neuron 6 2 0.00000000 1 0.00000000 0.00000000 0.00000000 0.00000000
Neuron 7 4 1.00000000 2 3.58066901 0.00000000 0.00000000 0.81959475
Neuron 8 4 1.00000000 9 3.60185837 0.00000000 0.00000000 0.18516734
Neuron 9 3 0.50000000 6 3.47709263 0.00000000 0.00000000 0.80803969
Neuron 10 3 0.50000000 6 3.31448448 0.00000000 0.00000000 0.21656962
Neuron 20 3 0.25000000 9 5.06727053 0.00000000 0.00000000 -0.52632200
Link 1 9 1 0 -0.44206155
Link 2 9 2 0 0.15666895
Link 4 9 4 0 0.33870329
Link 5 9 5 0 -0.53186073
Link 6 9 6 0 0.30391036
Link 1 10 7 0 -0.03570983
Link 2 10 8 0 0.29010939
Link 3 10 9 0 -0.06569356
Link 4 10 10 0 0.65176974
Link 5 10 11 0 -0.22772625
Link 6 10 12 0 0.65125432
Link 9 7 13 0 0.14941706
Link 10 7 14 0 -0.46414619
Link 9 8 15 0 0.00857705
Link 10 8 16 0 0.01968226
Link 3 20 51 0 1.00000000
Link 20 9 52 0 0.35605348
GenomeEnd

