GenomeStart 1054
Neuron 1 1 0.00000000 1 0.00000000 0.00000000 0.00000000 0.00000000
Neuron 2 1 0.00000000 1 0.00000000 0.00000000 0.00000000 0.00000000
Neuron 3 1 0.00000000 1 0.00000000 0.00000000 0.00000000 0.00000000
Neuron 4 1 0.00000000 1 0.00000000 0.00000000 0.00000000 0.00000000
Neuron 5 1 0.00000000 1 0.00000000 0.00000000 0.00000000 0.00000000
Neuron 6 2 0.00000000 1 0.00000000 0.00000000 0.00000000 0.00000000
Neuron 7 4 1.00000000 2 3.01407880 0.00000000 0.00000000 -0.43457084
Neuron 8 4 1.00000000 2 3.55631453 0.00000000 0.00000000 -0.00591069
Neuron 9 3 0.50000000 6 3.53926798 0.00000000 0.00000000 0.31006209
Neuron 10 3 0.50000000 6 3.11683539 0.00000000 0.00000000 0.02293635
Link 1 9 1 0 0.02817302
Link 2 9 2 0 -0.72491812
Link 3 9 3 0 -0.18377769
Link 4 9 4 0 0.56052042
Link 5 9 5 0 -0.07890326
Link 6 9 6 0 -0.25194028
Link 1 10 7 0 0.08294695
Link 2 10 8 0 0.11724679
Link 3 10 9 0 0.08857721
Link 4 10 10 0 0.13339598
Link 5 10 11 0 -0.54842431
Link 6 10 12 0 0.03500553
Link 9 7 13 0 -0.19741900
Link 10 7 14 0 0.37585999
Link 9 8 15 0 -0.02034351
Link 10 8 16 0 -0.04947136
GenomeEnd

