GenomeStart 700
Neuron 1 1 0.00000000 1 0.00000000 0.00000000 0.00000000 0.00000000
Neuron 2 1 0.00000000 1 0.00000000 0.00000000 0.00000000 0.00000000
Neuron 3 1 0.00000000 1 0.00000000 0.00000000 0.00000000 0.00000000
Neuron 4 1 0.00000000 1 0.00000000 0.00000000 0.00000000 0.00000000
Neuron 5 1 0.00000000 1 0.00000000 0.00000000 0.00000000 0.00000000
Neuron 6 2 0.00000000 1 0.00000000 0.00000000 0.00000000 0.00000000
Neuron 7 4 1.00000000 2 3.44881964 0.00000000 0.00000000 0.63558484
Neuron 8 4 1.00000000 2 3.34111787 0.00000000 0.00000000 -0.41955579
Neuron 9 3 0.50000000 6 3.17684988 0.00000000 0.00000000 0.56023090
Neuron 10 3 0.50000000 6 3.34792613 0.00000000 0.00000000 -0.29181704
Link 1 9 1 0 -0.02354325
Link 2 9 2 0 0.30275568
Link 3 9 3 0 -0.12387344
Link 4 9 4 0 -0.40092648
Link 5 9 5 0 0.05904145
Link 6 9 6 0 -0.23774577
Link 1 10 7 0 0.29305778
Link 2 10 8 0 0.41341943
Link 3 10 9 0 0.50160763
Link 4 10 10 0 -0.17356104
Link 5 10 11 0 0.33217426
Link 6 10 12 0 -0.00977915
Link 9 7 13 0 0.04105159
Link 10 7 14 0 0.17697685
Link 9 8 15 0 -0.32991491
Link 10 8 16 0 0.03687122
GenomeEnd

