GenomeStart 1442
Neuron 1 1 0.00000000 1 0.00000000 0.00000000 0.00000000 0.00000000
Neuron 2 1 0.00000000 1 0.00000000 0.00000000 0.00000000 0.00000000
Neuron 3 1 0.00000000 1 0.00000000 0.00000000 0.00000000 0.00000000
Neuron 4 1 0.00000000 1 0.00000000 0.00000000 0.00000000 0.00000000
Neuron 5 1 0.00000000 1 0.00000000 0.00000000 0.00000000 0.00000000
Neuron 6 2 0.00000000 1 0.00000000 0.00000000 0.00000000 0.00000000
Neuron 7 4 1.00000000 9 3.68753368 0.00000000 0.00000000 0.49777143
Neuron 8 4 1.00000000 9 3.53770640 0.00000000 0.00000000 -0.05832148
Neuron 9 3 0.50000000 6 3.47057291 0.00000000 0.00000000 -0.07426243
Neuron 10 3 0.50000000 6 3.45600204 0.00000000 0.00000000 0.19260238
Link 1 9 1 0 0.10465087
Link 2 9 2 0 0.22100483
Link 3 9 3 0 0.38892783
Link 4 9 4 0 -0.78064873
Link 5 9 5 0 -0.34065831
Link 6 9 6 0 0.57017852
Link 1 10 7 0 -0.59298657
Link 2 10 8 0 -0.21120691
Link 3 10 9 0 0.38336348
Link 4 10 10 0 -0.25186018
Link 5 10 11 0 0.16280424
Link 6 10 12 0 0.19495880
Link 9 7 13 0 -0.89821106
Link 10 7 14 0 0.24319385
Link 9 8 15 0 -0.05239194
Link 10 8 16 0 -0.16751940
GenomeEnd

