GenomeStart 1137
Neuron 1 1 0.00000000 1 0.00000000 0.00000000 0.00000000 0.00000000
Neuron 2 1 0.00000000 1 0.00000000 0.00000000 0.00000000 0.00000000
Neuron 3 1 0.00000000 1 0.00000000 0.00000000 0.00000000 0.00000000
Neuron 4 1 0.00000000 1 0.00000000 0.00000000 0.00000000 0.00000000
Neuron 5 1 0.00000000 1 0.00000000 0.00000000 0.00000000 0.00000000
Neuron 6 2 0.00000000 1 0.00000000 0.00000000 0.00000000 0.00000000
Neuron 7 4 1.00000000 2 3.75531178 0.00000000 0.00000000 -0.75614970
Neuron 8 4 1.00000000 2 3.53712617 0.00000000 0.00000000 -0.41291750
Neuron 9 3 0.50000000 6 3.29070631 0.00000000 0.00000000 0.09449181
Neuron 10 3 0.50000000 6 3.72761856 0.00000000 0.00000000 0.32826954
Link 1 9 1 0 -0.04262608
Link 2 9 2 0 0.11987993
Link 3 9 3 0 -0.15970392
Link 4 9 4 0 0.08817648
Link 5 9 5 0 0.23591187
Link 6 9 6 0 0.67087422
Link 1 10 7 0 -0.18673807
Link 2 10 8 0 0.50136441
Link 3 10 9 0 -0.50556735
Link 4 10 10 0 0.41095368
Link 5 10 11 0 0.07700928
Link 6 10 12 0 -0.04951070
Link 9 7 13 0 -0.13729880
Link 10 7 14 0 0.29117666
Link 9 8 15 0 0.39565540
Link 10 8 16 0 -0.43223047
GenomeEnd

