GenomeStart 2100
Neuron 1 1 0.00000000 1 0.00000000 0.00000000 0.00000000 0.00000000
Neuron 2 1 0.00000000 1 0.00000000 0.00000000 0.00000000 0.00000000
Neuron 3 1 0.00000000 1 0.00000000 0.00000000 0.00000000 0.00000000
Neuron 4 1 0.00000000 1 0.00000000 0.00000000 0.00000000 0.00000000
Neuron 5 1 0.00000000 1 0.00000000 0.00000000 0.00000000 0.00000000
Neuron 6 2 0.00000000 1 0.00000000 0.00000000 0.00000000 0.00000000
Neuron 7 4 1.00000000 2 3.14303368 0.00000000 0.00000000 0.86448758
Neuron 8 4 1.00000000 2 3.57413628 0.00000000 0.00000000 0.24494461
Neuron 9 3 0.50000000 6 3.71173676 0.00000000 0.00000000 0.87320919
Neuron 10 3 0.50000000 6 3.30979760 0.00000000 0.00000000 0.38064605
Neuron 21 3 0.25000000 4 0.89427178 0.00000000 0.00000000 0.58004306
Link 1 9 1 0 -0.09218916
Link 2 9 2 0 -0.54089543
Link 3 9 3 0 -0.43049756
Link 4 9 4 0 0.76438816
Link 5 9 5 0 -0.03780636
Link 6 9 6 0 0.54550479
Link 1 10 7 0 -0.02681459
Link 2 10 8 0 0.06318053
Link 3 10 9 0 -0.02738659
Link 5 10 11 0 -0.37543707
Link 6 10 12 0 0.58778658
Link 9 7 13 0 0.45434348
Link 10 7 14 0 0.02791333
Link 9 8 15 0 0.44429885
Link 10 8 16 0 0.64234258
Link 6 8 29 0 -0.70185775
Link 4 21 54 0 1.00000000
Link 21 10 55 0 0.23657059
GenomeEnd

