GenomeStart 117
Neuron 1 1 0.00000000 1 0.00000000 0.00000000 0.00000000 0.00000000
Neuron 2 1 0.00000000 1 0.00000000 0.00000000 0.00000000 0.00000000
Neuron 3 1 0.00000000 1 0.00000000 0.00000000 0.00000000 0.00000000
Neuron 4 1 0.00000000 1 0.00000000 0.00000000 0.00000000 0.00000000
Neuron 5 1 0.00000000 1 0.00000000 0.00000000 0.00000000 0.00000000
Neuron 6 2 0.00000000 1 0.00000000 0.00000000 0.00000000 0.00000000
Neuron 7 4 1.00000000 11 3.86868559 0.00000000 0.00000000 -0.41586555
Neuron 8 4 1.00000000 2 3.52373119 0.00000000 0.00000000 -0.09510786
Neuron 9 3 0.50000000 6 3.16595582 0.00000000 0.00000000 -0.05245604
Neuron 10 3 0.50000000 6 3.57441084 0.00000000 0.00000000 0.39180501
Link 1 9 1 0 0.08197955
Link 2 9 2 0 0.58144308
Link 3 9 3 0 0.84587010
Link 4 9 4 0 0.79891626
Link 5 9 5 0 0.18205499
Link 6 9 6 0 -0.71684538
Link 1 10 7 0 0.44555874
Link 2 10 8 0 0.13163863
Link 3 10 9 0 0.23985624
Link 4 10 10 0 0.46662644
Link 5 10 11 0 -0.25052859
Link 6 10 12 0 -0.00301446
Link 9 7 13 0 -0.64999668
Link 10 7 14 0 -0.11200196
Link 9 8 15 0 -0.38957933
Link 10 8 16 0 -0.38688626
GenomeEnd

