GenomeStart 136
Neuron 1 1 0.00000000 1 0.00000000 0.00000000 0.00000000 0.00000000
Neuron 2 1 0.00000000 1 0.00000000 0.00000000 0.00000000 0.00000000
Neuron 3 1 0.00000000 1 0.00000000 0.00000000 0.00000000 0.00000000
Neuron 4 1 0.00000000 1 0.00000000 0.00000000 0.00000000 0.00000000
Neuron 5 1 0.00000000 1 0.00000000 0.00000000 0.00000000 0.00000000
Neuron 6 2 0.00000000 1 0.00000000 0.00000000 0.00000000 0.00000000
Neuron 7 4 1.00000000 2 3.27056501 0.00000000 0.00000000 0.09688408
Neuron 8 4 1.00000000 6 3.36859553 0.00000000 0.00000000 -0.85328529
Neuron 9 3 0.50000000 6 3.79341244 0.00000000 0.00000000 -0.08446438
Neuron 10 3 0.50000000 6 3.82996349 0.00000000 0.00000000 -0.40499772
Link 1 9 1 0 -0.03063841
Link 2 9 2 0 -0.64464013
Link 3 9 3 0 0.56135284
Link 4 9 4 0 -0.36978347
Link 5 9 5 0 -0.42488074
Link 6 9 6 0 -0.09457217
Link 1 10 7 0 -0.23991852
Link 2 10 8 0 0.28167248
Link 3 10 9 0 -0.38568006
Link 4 10 10 0 -0.06434415
Link 5 10 11 0 0.61569027
Link 6 10 12 0 -0.19131488
Link 9 7 13 0 -0.33552570
Link 10 7 14 0 0.46653298
Link 9 8 15 0 -0.19744447
Link 10 8 16 0 0.57137917
GenomeEnd

