GenomeStart 3460
Neuron 1 1 0.00000000 1 0.00000000 0.00000000 0.00000000 0.00000000
Neuron 2 1 0.00000000 1 0.00000000 0.00000000 0.00000000 0.00000000
Neuron 3 1 0.00000000 1 0.00000000 0.00000000 0.00000000 0.00000000
Neuron 4 1 0.00000000 1 0.00000000 0.00000000 0.00000000 0.00000000
Neuron 5 1 0.00000000 1 0.00000000 0.00000000 0.00000000 0.00000000
Neuron 6 2 0.00000000 1 0.00000000 0.00000000 0.00000000 0.00000000
Neuron 7 4 1.00000000 9 3.01154507 0.00000000 0.00000000 -0.20584673
Neuron 8 4 1.00000000 4 3.42200211 0.00000000 0.00000000 -0.57412594
Neuron 9 3 0.50000000 11 3.30127303 0.00000000 0.00000000 0.74336607
Neuron 10 3 0.50000000 11 3.23524309 0.00000000 0.00000000 0.02101219
Link 1 9 1 0 -0.22532767
Link 2 9 2 0 -0.03672287
Link 3 9 3 0 -0.01251450
Link 4 9 4 0 -0.68700208
Link 5 9 5 0 -0.02947334
Link 6 9 6 0 0.16749365
Link 1 10 7 0 0.22064829
Link 2 10 8 0 0.68378931
Link 3 10 9 0 0.12900745
Link 4 10 10 0 -0.87599636
Link 5 10 11 0 -0.58416341
Link 6 10 12 0 0.89304490
Link 9 7 13 0 -0.37013531
Link 10 7 14 0 -0.29456246
Link 9 8 15 0 -0.43990755
Link 10 8 16 0 -0.77972509
GenomeEnd

