GenomeStart 6656
Neuron 1 1 0.00000000 1 0.00000000 0.00000000 0.00000000 0.00000000
Neuron 2 1 0.00000000 1 0.00000000 0.00000000 0.00000000 0.00000000
Neuron 3 1 0.00000000 1 0.00000000 0.00000000 0.00000000 0.00000000
Neuron 4 1 0.00000000 1 0.00000000 0.00000000 0.00000000 0.00000000
Neuron 5 1 0.00000000 1 0.00000000 0.00000000 0.00000000 0.00000000
Neuron 6 2 0.00000000 1 0.00000000 0.00000000 0.00000000 0.00000000
Neuron 7 4 1.00000000 2 3.38915259 0.00000000 0.00000000 -0.08599643
Neuron 8 4 1.00000000 6 3.60039844 0.00000000 0.00000000 -0.23309848
Neuron 9 3 0.50000000 6 3.42006708 0.00000000 0.00000000 -0.24363571
Neuron 10 3 0.50000000 6 3.67431077 0.00000000 0.00000000 0.15742942
Neuron 11 3 0.75000000 9 0.82984263 0.00000000 0.00000000 -0.08351273
Neuron 23 3 0.75000000 6 2.27977066 0.00000000 0.00000000 0.20307640
Link 1 9 1 0 -0.00561233
Link 2 9 2 0 0.28424585
Link 3 9 3 0 0.55480642
Link 4 9 4 0 0.93824290
Link 5 9 5 0 -0.91827998
Link 6 9 6 0 0.09115747
Link 1 10 7 0 -0.04880437
Link 2 10 8 0 0.43831704
Link 3 10 9 0 -0.15288174
Link 4 10 10 0 -0.30865468
Link 5 10 11 0 0.60583808
Link 6 10 12 0 -0.02578933
Link 9 7 13 0 -0.34298574
Link 10 8 16 0 0.48740995
Link 9 11 18 0 0.90399779
Link 11 8 19 0 -0.55536836
Link 6 7 25 0 -0.04805714
Link 10 23 65 0 -0.34081901
Link 23 7 66 0 -0.52970117
GenomeEnd

