GenomeStart 3832
Neuron 1 1 0.00000000 1 0.00000000 0.00000000 0.00000000 0.00000000
Neuron 2 1 0.00000000 1 0.00000000 0.00000000 0.00000000 0.00000000
Neuron 3 1 0.00000000 1 0.00000000 0.00000000 0.00000000 0.00000000
Neuron 4 1 0.00000000 1 0.00000000 0.00000000 0.00000000 0.00000000
Neuron 5 1 0.00000000 1 0.00000000 0.00000000 0.00000000 0.00000000
Neuron 6 2 0.00000000 1 0.00000000 0.00000000 0.00000000 0.00000000
Neuron 7 4 1.00000000 2 3.50921401 0.00000000 0.00000000 -0.39766051
Neuron 8 4 1.00000000 4 3.39962532 0.00000000 0.00000000 0.34642471
Neuron 9 3 0.50000000 6 3.72252794 0.00000000 0.00000000 -0.59037221
Neuron 10 3 0.50000000 6 3.39994369 0.00000000 0.00000000 0.39132116
Link 1 9 1 0 -0.07910402
Link 2 9 2 0 0.40891401
Link 3 9 3 0 -0.11867118
Link 4 9 4 0 0.54915029
Link 5 9 5 0 -0.06414728
Link 6 9 6 0 0.61370046
Link 1 10 7 0 -0.01187053
Link 2 10 8 0 -0.44985620
Link 3 10 9 0 0.04409089
Link 4 10 10 0 -0.68713079
Link 5 10 11 0 0.68113766
Link 6 10 12 0 -0.56362627
Link 9 7 13 0 -0.32543909
Link 10 7 14 0 -0.15800711
Link 9 8 15 0 -0.30333814
Link 10 8 16 0 -0.66146610
Link 2 8 17 0 0.47329953
GenomeEnd

