GenomeStart 8748
Neuron 1 1 0.00000000 1 0.00000000 0.00000000 0.00000000 0.00000000
Neuron 2 1 0.00000000 1 0.00000000 0.00000000 0.00000000 0.00000000
Neuron 3 1 0.00000000 1 0.00000000 0.00000000 0.00000000 0.00000000
Neuron 4 1 0.00000000 1 0.00000000 0.00000000 0.00000000 0.00000000
Neuron 5 1 0.00000000 1 0.00000000 0.00000000 0.00000000 0.00000000
Neuron 6 2 0.00000000 1 0.00000000 0.00000000 0.00000000 0.00000000
Neuron 7 4 1.00000000 2 3.42933985 0.00000000 0.00000000 0.13599195
Neuron 8 4 1.00000000 9 3.60914990 0.00000000 0.00000000 0.70687953
Neuron 9 3 0.50000000 6 3.16421821 0.00000000 0.00000000 0.45414903
Neuron 10 3 0.50000000 6 3.27493040 0.00000000 0.00000000 0.42305361
Neuron 11 3 0.25000000 4 1.44632078 0.00000000 0.00000000 -0.52160894
Neuron 17 3 0.25000000 11 1.38636012 0.00000000 0.00000000 0.29927011
Neuron 20 3 0.25000000 9 2.80358960 0.00000000 0.00000000 -0.03507662
Link 1 9 1 0 0.11769428
Link 2 9 2 0 0.60928862
Link 4 9 4 0 0.08785958
Link 5 9 5 0 -0.27642240
Link 6 9 6 0 -0.18448170
Link 2 10 8 0 0.44596810
Link 4 10 10 0 0.59405538
Link 5 10 11 0 0.20795560
Link 6 10 12 0 -0.15646497
Link 9 7 13 0 -0.10631172
Link 10 7 14 0 -0.29905754
Link 9 8 15 0 0.06572595
Link 10 8 16 0 0.61727095
Link 3 11 20 0 1.00000000
Link 11 9 21 0 0.09433154
Link 3 17 41 0 1.00000000
Link 17 10 42 0 0.27988671
Link 1 20 51 0 1.00000000
Link 20 10 52 0 0.07355172
Link 20 20 89 1 -0.14446178
GenomeEnd

