GenomeStart 1986
Neuron 1 1 0.00000000 1 0.00000000 0.00000000 0.00000000 0.00000000
Neuron 2 1 0.00000000 1 0.00000000 0.00000000 0.00000000 0.00000000
Neuron 3 1 0.00000000 1 0.00000000 0.00000000 0.00000000 0.00000000
Neuron 4 1 0.00000000 1 0.00000000 0.00000000 0.00000000 0.00000000
Neuron 5 1 0.00000000 1 0.00000000 0.00000000 0.00000000 0.00000000
Neuron 6 2 0.00000000 1 0.00000000 0.00000000 0.00000000 0.00000000
Neuron 7 4 1.00000000 11 3.62653062 0.00000000 0.00000000 -0.27522061
Neuron 8 4 1.00000000 2 3.56778250 0.00000000 0.00000000 0.33610541
Neuron 9 3 0.50000000 6 3.50073124 0.00000000 0.00000000 0.47550948
Neuron 10 3 0.50000000 6 3.35681840 0.00000000 0.00000000 -0.57845983
Link 1 9 1 0 0.08952588
Link 2 9 2 0 0.56027239
Link 3 9 3 0 -0.30415469
Link 4 9 4 0 0.00084935
Link 5 9 5 0 -0.20290567
Link 6 9 6 0 0.39386121
Link 1 10 7 0 0.13822186
Link 2 10 8 0 0.15151578
Link 3 10 9 0 0.31248048
Link 4 10 10 0 0.24223074
Link 5 10 11 0 0.27163296
Link 6 10 12 0 -0.09979240
Link 9 7 13 0 0.51314842
Link 10 7 14 0 -0.44091623
Link 9 8 15 0 0.09436541
Link 10 8 16 0 -0.42304354
GenomeEnd

