GenomeStart 1400
Neuron 1 1 0.00000000 1 0.00000000 0.00000000 0.00000000 0.00000000
Neuron 2 1 0.00000000 1 0.00000000 0.00000000 0.00000000 0.00000000
Neuron 3 1 0.00000000 1 0.00000000 0.00000000 0.00000000 0.00000000
Neuron 4 1 0.00000000 1 0.00000000 0.00000000 0.00000000 0.00000000
Neuron 5 1 0.00000000 1 0.00000000 0.00000000 0.00000000 0.00000000
Neuron 6 2 0.00000000 1 0.00000000 0.00000000 0.00000000 0.00000000
Neuron 7 4 1.00000000 9 3.36570324 0.00000000 0.00000000 0.88634759
Neuron 8 4 1.00000000 2 3.80064957 0.00000000 0.00000000 -0.10802777
Neuron 9 3 0.50000000 6 3.40462057 0.00000000 0.00000000 -0.33587759
Neuron 10 3 0.50000000 9 3.64867272 0.00000000 0.00000000 0.29002685
Link 1 9 1 0 -0.55796326
Link 2 9 2 0 -0.24569262
Link 3 9 3 0 -0.67299329
Link 4 9 4 0 -0.42468216
Link 5 9 5 0 -0.40028013
Link 6 9 6 0 0.03987223
Link 1 10 7 0 0.08522478
Link 2 10 8 0 -0.59389659
Link 3 10 9 0 0.16107412
Link 4 10 10 0 -0.11201424
Link 5 10 11 0 -0.06553117
Link 6 10 12 0 0.45498707
Link 9 7 13 0 0.37181722
Link 10 7 14 0 0.04118042
Link 9 8 15 0 -0.09768917
Link 10 8 16 0 0.15344856
GenomeEnd

