GenomeStart 1400
Neuron 1 1 0.00000000 1 0.00000000 0.00000000 0.00000000 0.00000000
Neuron 2 1 0.00000000 1 0.00000000 0.00000000 0.00000000 0.00000000
Neuron 3 1 0.00000000 1 0.00000000 0.00000000 0.00000000 0.00000000
Neuron 4 1 0.00000000 1 0.00000000 0.00000000 0.00000000 0.00000000
Neuron 5 1 0.00000000 1 0.00000000 0.00000000 0.00000000 0.00000000
Neuron 6 2 0.00000000 1 0.00000000 0.00000000 0.00000000 0.00000000
Neuron 7 4 1.00000000 9 3.47734846 0.00000000 0.00000000 0.87892821
Neuron 8 4 1.00000000 6 3.33995985 0.00000000 0.00000000 0.24647988
Neuron 9 3 0.50000000 6 3.24053130 0.00000000 0.00000000 -0.37048244
Neuron 10 3 0.50000000 6 3.40383311 0.00000000 0.00000000 -0.36271137
Link 1 9 1 0 -0.87137261
Link 2 9 2 0 0.13847146
Link 3 9 3 0 0.44839929
Link 4 9 4 0 0.21653204
Link 5 9 5 0 0.02010114
Link 6 9 6 0 0.45237240
Link 1 10 7 0 -0.35549324
Link 2 10 8 0 0.32696480
Link 3 10 9 0 0.00706796
Link 4 10 10 0 -0.23843904
Link 5 10 11 0 0.77466670
Link 6 10 12 0 0.35585228
Link 9 7 13 0 0.10203136
Link 10 7 14 0 -0.39057261
Link 9 8 15 0 -0.37995114
Link 10 8 16 0 0.26554625
GenomeEnd

