GenomeStart 1129
Neuron 1 1 0.00000000 1 0.00000000 0.00000000 0.00000000 0.00000000
Neuron 2 1 0.00000000 1 0.00000000 0.00000000 0.00000000 0.00000000
Neuron 3 1 0.00000000 1 0.00000000 0.00000000 0.00000000 0.00000000
Neuron 4 1 0.00000000 1 0.00000000 0.00000000 0.00000000 0.00000000
Neuron 5 1 0.00000000 1 0.00000000 0.00000000 0.00000000 0.00000000
Neuron 6 2 0.00000000 1 0.00000000 0.00000000 0.00000000 0.00000000
Neuron 7 4 1.00000000 2 3.48030652 0.00000000 0.00000000 0.32482948
Neuron 8 4 1.00000000 2 3.71689178 0.00000000 0.00000000 -0.45971823
Neuron 9 3 0.50000000 4 3.44769818 0.00000000 0.00000000 0.55946508
Neuron 10 3 0.50000000 6 3.53912993 0.00000000 0.00000000 0.15723378
Link 1 9 1 0 -0.20011221
Link 2 9 2 0 0.10719746
Link 3 9 3 0 -0.21345586
Link 4 9 4 0 0.64600000
Link 5 9 5 0 0.02733070
Link 6 9 6 0 -0.32074550
Link 1 10 7 0 0.14295611
Link 2 10 8 0 -0.09522377
Link 3 10 9 0 0.44820770
Link 4 10 10 0 -0.17563941
Link 5 10 11 0 -0.32756079
Link 6 10 12 0 0.57278994
Link 9 7 13 0 -0.76387572
Link 10 7 14 0 -0.71730847
Link 9 8 15 0 -0.37723547
Link 10 8 16 0 0.18502105
GenomeEnd

