GenomeStart 528
Neuron 1 1 0.00000000 1 0.00000000 0.00000000 0.00000000 0.00000000
Neuron 2 1 0.00000000 1 0.00000000 0.00000000 0.00000000 0.00000000
Neuron 3 1 0.00000000 1 0.00000000 0.00000000 0.00000000 0.00000000
Neuron 4 1 0.00000000 1 0.00000000 0.00000000 0.00000000 0.00000000
Neuron 5 1 0.00000000 1 0.00000000 0.00000000 0.00000000 0.00000000
Neuron 6 2 0.00000000 1 0.00000000 0.00000000 0.00000000 0.00000000
Neuron 7 4 1.00000000 9 3.69787887 0.00000000 0.00000000 0.05066870
Neuron 8 4 1.00000000 2 3.72500801 0.00000000 0.00000000 -0.61859497
Neuron 9 3 0.50000000 6 3.55004453 0.00000000 0.00000000 -0.60875005
Neuron 10 3 0.50000000 6 3.46131582 0.00000000 0.00000000 0.05058837
Link 1 9 1 0 0.34573068
Link 2 9 2 0 0.05522242
Link 3 9 3 0 0.29033991
Link 4 9 4 0 0.36700627
Link 5 9 5 0 -0.29053699
Link 6 9 6 0 0.08379275
Link 1 10 7 0 0.00903055
Link 2 10 8 0 0.23670222
Link 3 10 9 0 0.41126616
Link 4 10 10 0 0.22162822
Link 5 10 11 0 0.11810414
Link 6 10 12 0 0.69119190
Link 9 7 13 0 0.01465139
Link 10 7 14 0 -0.90568578
Link 9 8 15 0 -0.41726702
Link 10 8 16 0 0.46078730
GenomeEnd

