GenomeStart 508
Neuron 1 1 0.00000000 1 0.00000000 0.00000000 0.00000000 0.00000000
Neuron 2 1 0.00000000 1 0.00000000 0.00000000 0.00000000 0.00000000
Neuron 3 1 0.00000000 1 0.00000000 0.00000000 0.00000000 0.00000000
Neuron 4 1 0.00000000 1 0.00000000 0.00000000 0.00000000 0.00000000
Neuron 5 1 0.00000000 1 0.00000000 0.00000000 0.00000000 0.00000000
Neuron 6 2 0.00000000 1 0.00000000 0.00000000 0.00000000 0.00000000
Neuron 7 4 1.00000000 2 3.51793588 0.00000000 0.00000000 -0.77196420
Neuron 8 4 1.00000000 2 3.33300027 0.00000000 0.00000000 0.80687514
Neuron 9 3 0.50000000 6 3.41028168 0.00000000 0.00000000 0.08974797
Neuron 10 3 0.50000000 6 3.54507015 0.00000000 0.00000000 0.18251126
Link 1 9 1 0 0.82783127
Link 2 9 2 0 -0.12185693
Link 3 9 3 0 0.64063877
Link 4 9 4 0 0.18783718
Link 5 9 5 0 0.43165744
Link 6 9 6 0 -0.16367132
Link 1 10 7 0 0.08695032
Link 2 10 8 0 -0.77348150
Link 3 10 9 0 0.03709703
Link 4 10 10 0 0.49039260
Link 5 10 11 0 0.18929553
Link 6 10 12 0 -0.03590231
Link 9 7 13 0 -0.07413351
Link 10 7 14 0 0.37492918
Link 9 8 15 0 0.54811579
Link 10 8 16 0 0.35085724
GenomeEnd

