GenomeStart 2527
Neuron 1 1 0.00000000 1 0.00000000 0.00000000 0.00000000 0.00000000
Neuron 2 1 0.00000000 1 0.00000000 0.00000000 0.00000000 0.00000000
Neuron 3 1 0.00000000 1 0.00000000 0.00000000 0.00000000 0.00000000
Neuron 4 1 0.00000000 1 0.00000000 0.00000000 0.00000000 0.00000000
Neuron 5 1 0.00000000 1 0.00000000 0.00000000 0.00000000 0.00000000
Neuron 6 2 0.00000000 1 0.00000000 0.00000000 0.00000000 0.00000000
Neuron 7 4 1.00000000 2 3.63209079 0.00000000 0.00000000 0.41449872
Neuron 8 4 1.00000000 2 3.72177505 0.00000000 0.00000000 -0.61044874
Neuron 9 3 0.50000000 6 3.33793091 0.00000000 0.00000000 -0.28482935
Neuron 10 3 0.50000000 6 3.42788300 0.00000000 0.00000000 0.48399047
Link 1 9 1 0 0.16246516
Link 2 9 2 0 0.61788402
Link 3 9 3 0 0.28103046
Link 4 9 4 0 0.79907054
Link 5 9 5 0 -0.00324207
Link 1 10 7 0 -0.02729366
Link 2 10 8 0 -0.38955671
Link 3 10 9 0 0.12706661
Link 4 10 10 0 -0.26454504
Link 6 10 12 0 0.68616991
Link 9 7 13 0 -0.09848476
Link 10 7 14 0 0.64128144
Link 9 8 15 0 0.26001682
Link 10 8 16 0 0.70592988
GenomeEnd

