GenomeStart 106
Neuron 1 1 0.00000000 1 0.00000000 0.00000000 0.00000000 0.00000000
Neuron 2 1 0.00000000 1 0.00000000 0.00000000 0.00000000 0.00000000
Neuron 3 1 0.00000000 1 0.00000000 0.00000000 0.00000000 0.00000000
Neuron 4 1 0.00000000 1 0.00000000 0.00000000 0.00000000 0.00000000
Neuron 5 1 0.00000000 1 0.00000000 0.00000000 0.00000000 0.00000000
Neuron 6 2 0.00000000 1 0.00000000 0.00000000 0.00000000 0.00000000
Neuron 7 4 1.00000000 2 3.59662068 0.00000000 0.00000000 0.17425168
Neuron 8 4 1.00000000 2 3.82005693 0.00000000 0.00000000 -0.53632005
Neuron 9 3 0.50000000 4 3.17884307 0.00000000 0.00000000 0.59978338
Neuron 10 3 0.50000000 6 3.28683394 0.00000000 0.00000000 -0.21408511
Link 1 9 1 0 0.25097013
Link 2 9 2 0 -0.38057032
Link 3 9 3 0 0.93758779
Link 4 9 4 0 0.31915051
Link 5 9 5 0 0.44621547
Link 6 9 6 0 -0.19678703
Link 1 10 7 0 -0.09230008
Link 2 10 8 0 -0.14793682
Link 3 10 9 0 0.43390718
Link 4 10 10 0 -0.35989402
Link 5 10 11 0 0.40326141
Link 6 10 12 0 -0.25923199
Link 9 7 13 0 0.27945532
Link 10 7 14 0 -0.46525436
Link 9 8 15 0 -0.12550670
Link 10 8 16 0 0.49611676
GenomeEnd

