GenomeStart 1904
Neuron 1 1 0.00000000 1 0.00000000 0.00000000 0.00000000 0.00000000
Neuron 2 1 0.00000000 1 0.00000000 0.00000000 0.00000000 0.00000000
Neuron 3 1 0.00000000 1 0.00000000 0.00000000 0.00000000 0.00000000
Neuron 4 1 0.00000000 1 0.00000000 0.00000000 0.00000000 0.00000000
Neuron 5 1 0.00000000 1 0.00000000 0.00000000 0.00000000 0.00000000
Neuron 6 2 0.00000000 1 0.00000000 0.00000000 0.00000000 0.00000000
Neuron 7 4 1.00000000 2 3.42463568 0.00000000 0.00000000 0.57344204
Neuron 8 4 1.00000000 2 3.75368548 0.00000000 0.00000000 0.57483180
Neuron 9 3 0.50000000 6 3.26423936 0.00000000 0.00000000 0.35299634
Neuron 10 3 0.50000000 9 3.49833683 0.00000000 0.00000000 0.12752026
Link 1 9 1 0 0.43136839
Link 2 9 2 0 0.14373779
Link 3 9 3 0 -0.40641285
Link 4 9 4 0 -0.16022158
Link 5 9 5 0 0.15460357
Link 6 9 6 0 -0.37500602
Link 1 10 7 0 -0.12013990
Link 2 10 8 0 -0.48713728
Link 3 10 9 0 0.52124855
Link 4 10 10 0 0.23985294
Link 5 10 11 0 -0.46301394
Link 6 10 12 0 0.55166098
Link 9 7 13 0 0.23856344
Link 10 7 14 0 -0.31484929
Link 9 8 15 0 -0.45660890
Link 10 8 16 0 0.01075244
GenomeEnd

