GenomeStart 1803
Neuron 1 1 0.00000000 1 0.00000000 0.00000000 0.00000000 0.00000000
Neuron 2 1 0.00000000 1 0.00000000 0.00000000 0.00000000 0.00000000
Neuron 3 1 0.00000000 1 0.00000000 0.00000000 0.00000000 0.00000000
Neuron 4 1 0.00000000 1 0.00000000 0.00000000 0.00000000 0.00000000
Neuron 5 1 0.00000000 1 0.00000000 0.00000000 0.00000000 0.00000000
Neuron 6 2 0.00000000 1 0.00000000 0.00000000 0.00000000 0.00000000
Neuron 7 4 1.00000000 11 3.20318920 0.00000000 0.00000000 -0.10261034
Neuron 8 4 1.00000000 6 3.59183045 0.00000000 0.00000000 0.57462791
Neuron 9 3 0.50000000 6 3.23732882 0.00000000 0.00000000 0.24563536
Neuron 10 3 0.50000000 9 3.69836438 0.00000000 0.00000000 -0.02677876
Link 1 9 1 0 -0.06998883
Link 2 9 2 0 0.31704966
Link 3 9 3 0 -0.32365865
Link 4 9 4 0 0.26935501
Link 5 9 5 0 0.33017278
Link 6 9 6 0 0.23038292
Link 1 10 7 0 -0.00183524
Link 2 10 8 0 -0.00391611
Link 3 10 9 0 -0.15696733
Link 4 10 10 0 0.52043582
Link 5 10 11 0 -0.02719994
Link 6 10 12 0 -0.66118655
Link 9 7 13 0 -0.82531091
Link 10 7 14 0 0.44425271
Link 9 8 15 0 -0.04831719
Link 10 8 16 0 -0.51020837
GenomeEnd

