GenomeStart 3892
Neuron 1 1 0.00000000 1 0.00000000 0.00000000 0.00000000 0.00000000
Neuron 2 1 0.00000000 1 0.00000000 0.00000000 0.00000000 0.00000000
Neuron 3 1 0.00000000 1 0.00000000 0.00000000 0.00000000 0.00000000
Neuron 4 1 0.00000000 1 0.00000000 0.00000000 0.00000000 0.00000000
Neuron 5 1 0.00000000 1 0.00000000 0.00000000 0.00000000 0.00000000
Neuron 6 2 0.00000000 1 0.00000000 0.00000000 0.00000000 0.00000000
Neuron 7 4 1.00000000 2 3.41114709 0.00000000 0.00000000 0.75747540
Neuron 8 4 1.00000000 9 3.45694335 0.00000000 0.00000000 -0.47265488
Neuron 9 3 0.50000000 6 3.58115074 0.00000000 0.00000000 0.41283056
Neuron 10 3 0.50000000 6 3.34118293 0.00000000 0.00000000 -0.18867725
Neuron 24 3 0.25000000 11 1.53853913 0.00000000 0.00000000 -0.19340693
Link 1 9 1 0 -0.16502276
Link 2 9 2 0 0.37849402
Link 4 9 4 0 -0.34905848
Link 5 9 5 0 -0.45212869
Link 6 9 6 0 0.32836564
Link 1 10 7 0 -0.05181400
Link 2 10 8 0 -0.58835793
Link 3 10 9 0 0.14986309
Link 4 10 10 0 0.51110067
Link 5 10 11 0 -0.09547422
Link 6 10 12 0 -0.34205270
Link 9 7 13 0 0.09044879
Link 10 7 14 0 -0.41308645
Link 9 8 15 0 -0.45008271
Link 10 8 16 0 -0.26850582
Link 3 24 70 0 1.00000000
Link 24 9 71 0 0.34203550
GenomeEnd

