GenomeStart 1400
Neuron 1 1 0.00000000 1 0.00000000 0.00000000 0.00000000 0.00000000
Neuron 2 1 0.00000000 1 0.00000000 0.00000000 0.00000000 0.00000000
Neuron 3 1 0.00000000 1 0.00000000 0.00000000 0.00000000 0.00000000
Neuron 4 1 0.00000000 1 0.00000000 0.00000000 0.00000000 0.00000000
Neuron 5 1 0.00000000 1 0.00000000 0.00000000 0.00000000 0.00000000
Neuron 6 2 0.00000000 1 0.00000000 0.00000000 0.00000000 0.00000000
Neuron 7 4 1.00000000 2 3.39348073 0.00000000 0.00000000 0.12462216
Neuron 8 4 1.00000000 2 3.56763086 0.00000000 0.00000000 0.34448574
Neuron 9 3 0.50000000 6 3.58804213 0.00000000 0.00000000 -0.12939496
Neuron 10 3 0.50000000 6 3.41050320 0.00000000 0.00000000 -0.00616797
Link 1 9 1 0 -0.01434255
Link 2 9 2 0 -0.01852458
Link 3 9 3 0 -0.31656064
Link 4 9 4 0 0.40458915
Link 5 9 5 0 0.54460623
Link 6 9 6 0 -0.15764490
Link 1 10 7 0 -0.04984349
Link 2 10 8 0 0.41083330
Link 3 10 9 0 -0.01562589
Link 4 10 10 0 -0.45679380
Link 5 10 11 0 0.22097329
Link 6 10 12 0 0.45818242
Link 9 7 13 0 -0.13365819
Link 10 7 14 0 -0.32448912
Link 9 8 15 0 -0.29274925
Link 10 8 16 0 0.16465924
GenomeEnd

