GenomeStart 2299
Neuron 1 1 0.00000000 1 0.00000000 0.00000000 0.00000000 0.00000000
Neuron 2 1 0.00000000 1 0.00000000 0.00000000 0.00000000 0.00000000
Neuron 3 1 0.00000000 1 0.00000000 0.00000000 0.00000000 0.00000000
Neuron 4 1 0.00000000 1 0.00000000 0.00000000 0.00000000 0.00000000
Neuron 5 1 0.00000000 1 0.00000000 0.00000000 0.00000000 0.00000000
Neuron 6 2 0.00000000 1 0.00000000 0.00000000 0.00000000 0.00000000
Neuron 7 4 1.00000000 9 3.27601256 0.00000000 0.00000000 0.15600154
Neuron 8 4 1.00000000 2 3.45561021 0.00000000 0.00000000 0.10384499
Neuron 9 3 0.50000000 4 3.21202435 0.00000000 0.00000000 -0.22342055
Neuron 10 3 0.50000000 6 3.63295866 0.00000000 0.00000000 0.08133775
Link 1 9 1 0 -0.05868589
Link 2 9 2 0 -0.29121131
Link 3 9 3 0 0.01745908
Link 4 9 4 0 0.03096851
Link 5 9 5 0 0.34167844
Link 6 9 6 0 -0.90294117
Link 1 10 7 0 -0.02058114
Link 2 10 8 0 0.18244494
Link 3 10 9 0 -0.63959619
Link 4 10 10 0 0.53652843
Link 5 10 11 0 -0.35605403
Link 6 10 12 0 0.50213378
Link 9 7 13 0 0.18926138
Link 10 7 14 0 0.50479699
Link 9 8 15 0 -0.31840877
Link 10 8 16 0 -0.57675362
GenomeEnd

