GenomeStart 26944
Neuron 1 1 0.00000000 1 0.00000000 0.00000000 0.00000000 0.00000000
Neuron 2 1 0.00000000 1 0.00000000 0.00000000 0.00000000 0.00000000
Neuron 3 1 0.00000000 1 0.00000000 0.00000000 0.00000000 0.00000000
Neuron 4 1 0.00000000 1 0.00000000 0.00000000 0.00000000 0.00000000
Neuron 5 1 0.00000000 1 0.00000000 0.00000000 0.00000000 0.00000000
Neuron 6 2 0.00000000 1 0.00000000 0.00000000 0.00000000 0.00000000
Neuron 7 4 1.00000000 11 3.48443420 0.00000000 0.00000000 0.48875368
Neuron 8 4 1.00000000 11 3.53944091 0.00000000 0.00000000 0.05048281
Neuron 9 3 0.50000000 6 3.39487823 0.00000000 0.00000000 0.43133582
Neuron 10 3 0.50000000 11 3.02780691 0.00000000 0.00000000 -0.01286222
Neuron 11 3 0.25000000 6 1.45102276 0.00000000 0.00000000 -0.35129026
Neuron 17 3 0.25000000 6 0.25002573 0.00000000 0.00000000 0.29651062
Neuron 18 3 0.25000000 4 2.95622118 0.00000000 0.00000000 -0.24833160
Neuron 19 3 0.75000000 9 2.35131835 0.00000000 0.00000000 0.09197439
Neuron 21 3 0.25000000 11 2.88019529 0.00000000 0.00000000 -0.32886483
Neuron 25 3 0.12500000 6 1.35561708 0.00000000 0.00000000 0.62909842
Neuron 35 3 0.12500000 4 3.17722777 0.00000000 0.00000000 0.20301270
Neuron 36 3 0.87500000 11 0.86440787 0.00000000 0.00000000 0.17001388
Neuron 41 3 0.18750000 6 4.09179376 0.00000000 0.00000000 -0.06747825
Link 3 9 3 0 -0.48228101
Link 6 9 6 0 -0.79965791
Link 2 10 8 0 -0.43554560
Link 3 10 9 0 0.33104840
Link 4 10 10 0 -0.03940430
Link 5 10 11 0 0.15693480
Link 6 10 12 0 0.65911581
Link 9 7 13 0 0.58944383
Link 10 7 14 0 0.25114239
Link 11 9 20 0 -0.01050881
Link 17 9 39 0 0.07127420
Link 5 18 41 0 0.16380613
Link 18 9 42 0 -0.26454223
Link 9 19 46 0 -0.73378173
Link 1 21 53 0 1.00000000
Link 21 10 54 0 -0.39503192
Link 4 25 80 0 1.04259677
Link 25 17 81 0 0.03925758
Link 1 35 147 0 0.18512854
Link 19 36 153 0 0.31407282
Link 36 8 154 0 0.21273570
Link 35 41 194 0 1.00000000
Link 41 11 195 0 0.31287371
GenomeEnd

