GenomeStart 700
Neuron 1 1 0.00000000 1 0.00000000 0.00000000 0.00000000 0.00000000
Neuron 2 1 0.00000000 1 0.00000000 0.00000000 0.00000000 0.00000000
Neuron 3 1 0.00000000 1 0.00000000 0.00000000 0.00000000 0.00000000
Neuron 4 1 0.00000000 1 0.00000000 0.00000000 0.00000000 0.00000000
Neuron 5 1 0.00000000 1 0.00000000 0.00000000 0.00000000 0.00000000
Neuron 6 2 0.00000000 1 0.00000000 0.00000000 0.00000000 0.00000000
Neuron 7 4 1.00000000 2 3.62229690 0.00000000 0.00000000 -0.09254032
Neuron 8 4 1.00000000 9 3.61665305 0.00000000 0.00000000 -0.36165246
Neuron 9 3 0.50000000 6 3.56277901 0.00000000 0.00000000 0.61035937
Neuron 10 3 0.50000000 6 3.65970844 0.00000000 0.00000000 -0.00951858
Link 1 9 1 0 -0.52751342
Link 2 9 2 0 -0.15689571
Link 3 9 3 0 0.27074053
Link 4 9 4 0 0.76054894
Link 5 9 5 0 -0.00860762
Link 6 9 6 0 -0.47815341
Link 1 10 7 0 -0.20389944
Link 2 10 8 0 0.62830002
Link 3 10 9 0 0.37171310
Link 4 10 10 0 0.57983209
Link 5 10 11 0 -0.08969061
Link 6 10 12 0 0.42446673
Link 9 7 13 0 -0.02262842
Link 10 7 14 0 -0.37365265
Link 9 8 15 0 -0.01026551
Link 10 8 16 0 0.11995872
GenomeEnd

