GenomeStart 1400
Neuron 1 1 0.00000000 1 0.00000000 0.00000000 0.00000000 0.00000000
Neuron 2 1 0.00000000 1 0.00000000 0.00000000 0.00000000 0.00000000
Neuron 3 1 0.00000000 1 0.00000000 0.00000000 0.00000000 0.00000000
Neuron 4 1 0.00000000 1 0.00000000 0.00000000 0.00000000 0.00000000
Neuron 5 1 0.00000000 1 0.00000000 0.00000000 0.00000000 0.00000000
Neuron 6 2 0.00000000 1 0.00000000 0.00000000 0.00000000 0.00000000
Neuron 7 4 1.00000000 2 3.30397366 0.00000000 0.00000000 -0.47886579
Neuron 8 4 1.00000000 4 3.19097424 0.00000000 0.00000000 0.05447228
Neuron 9 3 0.50000000 9 3.41642545 0.00000000 0.00000000 0.35632448
Neuron 10 3 0.50000000 6 3.44091214 0.00000000 0.00000000 -0.07459887
Link 1 9 1 0 0.07799475
Link 2 9 2 0 -0.38288470
Link 3 9 3 0 -0.15073201
Link 4 9 4 0 -0.27263086
Link 5 9 5 0 -0.21757680
Link 6 9 6 0 0.41024640
Link 1 10 7 0 0.42350053
Link 2 10 8 0 0.85006796
Link 3 10 9 0 0.26286447
Link 4 10 10 0 -0.60396899
Link 5 10 11 0 -0.22698551
Link 6 10 12 0 -0.37654450
Link 9 7 13 0 -0.64219250
Link 10 7 14 0 -0.03220065
Link 9 8 15 0 -0.07896734
Link 10 8 16 0 -0.22744410
GenomeEnd

