GenomeStart 406
Neuron 1 1 0.00000000 1 0.00000000 0.00000000 0.00000000 0.00000000
Neuron 2 1 0.00000000 1 0.00000000 0.00000000 0.00000000 0.00000000
Neuron 3 1 0.00000000 1 0.00000000 0.00000000 0.00000000 0.00000000
Neuron 4 1 0.00000000 1 0.00000000 0.00000000 0.00000000 0.00000000
Neuron 5 1 0.00000000 1 0.00000000 0.00000000 0.00000000 0.00000000
Neuron 6 2 0.00000000 1 0.00000000 0.00000000 0.00000000 0.00000000
Neuron 7 4 1.00000000 9 3.88601936 0.00000000 0.00000000 -0.19609470
Neuron 8 4 1.00000000 2 3.37720416 0.00000000 0.00000000 -0.14543166
Neuron 9 3 0.50000000 6 3.77908069 0.00000000 0.00000000 0.15649827
Neuron 10 3 0.50000000 6 3.57331293 0.00000000 0.00000000 0.32018257
Link 1 9 1 0 -0.07170217
Link 2 9 2 0 0.17979963
Link 3 9 3 0 -0.15746499
Link 4 9 4 0 0.67352473
Link 5 9 5 0 -0.66228055
Link 6 9 6 0 -0.44959572
Link 1 10 7 0 -0.14246362
Link 2 10 8 0 0.38635871
Link 3 10 9 0 -0.76513454
Link 4 10 10 0 0.41737707
Link 5 10 11 0 0.40123998
Link 6 10 12 0 -0.46288182
Link 9 7 13 0 0.01313030
Link 10 7 14 0 -0.50358170
Link 9 8 15 0 -0.80183572
Link 10 8 16 0 0.16823882
GenomeEnd

