GenomeStart 1400
Neuron 1 1 0.00000000 1 0.00000000 0.00000000 0.00000000 0.00000000
Neuron 2 1 0.00000000 1 0.00000000 0.00000000 0.00000000 0.00000000
Neuron 3 1 0.00000000 1 0.00000000 0.00000000 0.00000000 0.00000000
Neuron 4 1 0.00000000 1 0.00000000 0.00000000 0.00000000 0.00000000
Neuron 5 1 0.00000000 1 0.00000000 0.00000000 0.00000000 0.00000000
Neuron 6 2 0.00000000 1 0.00000000 0.00000000 0.00000000 0.00000000
Neuron 7 4 1.00000000 2 3.39811036 0.00000000 0.00000000 0.07979966
Neuron 8 4 1.00000000 2 3.40630901 0.00000000 0.00000000 -0.26352525
Neuron 9 3 0.50000000 6 3.53914510 0.00000000 0.00000000 -0.26380750
Neuron 10 3 0.50000000 9 3.76319000 0.00000000 0.00000000 -0.66609862
Link 1 9 1 0 0.33525688
Link 2 9 2 0 0.23336218
Link 3 9 3 0 -0.84588623
Link 4 9 4 0 -0.47340836
Link 5 9 5 0 0.23398577
Link 6 9 6 0 0.18790741
Link 1 10 7 0 0.41965270
Link 2 10 8 0 0.85004219
Link 3 10 9 0 0.26243509
Link 4 10 10 0 -0.39483630
Link 5 10 11 0 -0.30506321
Link 6 10 12 0 0.84350842
Link 9 7 13 0 0.38419084
Link 10 7 14 0 0.04722100
Link 9 8 15 0 -0.36996405
Link 10 8 16 0 0.18448944
GenomeEnd

