GenomeStart 4551
Neuron 1 1 0.00000000 1 0.00000000 0.00000000 0.00000000 0.00000000
Neuron 2 1 0.00000000 1 0.00000000 0.00000000 0.00000000 0.00000000
Neuron 3 1 0.00000000 1 0.00000000 0.00000000 0.00000000 0.00000000
Neuron 4 1 0.00000000 1 0.00000000 0.00000000 0.00000000 0.00000000
Neuron 5 1 0.00000000 1 0.00000000 0.00000000 0.00000000 0.00000000
Neuron 6 2 0.00000000 1 0.00000000 0.00000000 0.00000000 0.00000000
Neuron 7 4 1.00000000 2 3.51877949 0.00000000 0.00000000 0.16015726
Neuron 8 4 1.00000000 2 3.42731829 0.00000000 0.00000000 0.33174761
Neuron 9 3 0.50000000 6 3.08738842 0.00000000 0.00000000 -0.54448775
Neuron 10 3 0.50000000 6 3.21963748 0.00000000 0.00000000 -0.58410303
Neuron 19 3 0.25000000 9 6.23557997 0.00000000 0.00000000 0.09596119
Link 1 9 1 0 0.10065979
Link 2 9 2 0 0.26381225
Link 4 9 4 0 0.32215003
Link 5 9 5 0 0.01404238
Link 6 9 6 0 -0.78503464
Link 1 10 7 0 0.11623114
Link 2 10 8 0 -0.02727717
Link 3 10 9 0 0.45691515
Link 4 10 10 0 0.69466636
Link 5 10 11 0 -0.15864221
Link 6 10 12 0 0.55835810
Link 9 7 13 0 -0.43586968
Link 10 7 14 0 -0.02337536
Link 9 8 15 0 0.02691614
Link 10 8 16 0 0.42958723
Link 3 19 48 0 -0.04597542
Link 19 9 49 0 -0.18206275
GenomeEnd

