GenomeStart 2100
Neuron 1 1 0.00000000 1 0.00000000 0.00000000 0.00000000 0.00000000
Neuron 2 1 0.00000000 1 0.00000000 0.00000000 0.00000000 0.00000000
Neuron 3 1 0.00000000 1 0.00000000 0.00000000 0.00000000 0.00000000
Neuron 4 1 0.00000000 1 0.00000000 0.00000000 0.00000000 0.00000000
Neuron 5 1 0.00000000 1 0.00000000 0.00000000 0.00000000 0.00000000
Neuron 6 2 0.00000000 1 0.00000000 0.00000000 0.00000000 0.00000000
Neuron 7 4 1.00000000 2 3.50186366 0.00000000 0.00000000 0.15645818
Neuron 8 4 1.00000000 2 3.14458173 0.00000000 0.00000000 -0.07853548
Neuron 9 3 0.50000000 6 3.44239454 0.00000000 0.00000000 -0.09520489
Neuron 10 3 0.50000000 6 3.18623972 0.00000000 0.00000000 0.02593105
Link 1 9 1 0 -0.19884152
Link 2 9 2 0 0.16179452
Link 3 9 3 0 -0.47374473
Link 4 9 4 0 0.77745400
Link 5 9 5 0 -0.03980971
Link 6 9 6 0 0.66686539
Link 1 10 7 0 0.85184554
Link 2 10 8 0 0.07110543
Link 3 10 9 0 0.48404125
Link 4 10 10 0 0.69239441
Link 5 10 11 0 0.61493964
Link 6 10 12 0 -0.15523073
Link 9 7 13 0 0.38805094
Link 10 7 14 0 0.33955625
Link 9 8 15 0 -0.64054156
Link 10 8 16 0 -0.18846962
GenomeEnd

