GenomeStart 2658
Neuron 1 1 0.00000000 1 0.00000000 0.00000000 0.00000000 0.00000000
Neuron 2 1 0.00000000 1 0.00000000 0.00000000 0.00000000 0.00000000
Neuron 3 1 0.00000000 1 0.00000000 0.00000000 0.00000000 0.00000000
Neuron 4 1 0.00000000 1 0.00000000 0.00000000 0.00000000 0.00000000
Neuron 5 1 0.00000000 1 0.00000000 0.00000000 0.00000000 0.00000000
Neuron 6 2 0.00000000 1 0.00000000 0.00000000 0.00000000 0.00000000
Neuron 7 4 1.00000000 9 3.47281503 0.00000000 0.00000000 -0.45050108
Neuron 8 4 1.00000000 2 3.66529274 0.00000000 0.00000000 -0.73640368
Neuron 9 3 0.50000000 11 3.39178297 0.00000000 0.00000000 0.20384267
Neuron 10 3 0.50000000 9 3.49642733 0.00000000 0.00000000 0.28021971
Link 1 9 1 0 -0.00045543
Link 2 9 2 0 -0.04254311
Link 3 9 3 0 -0.22777536
Link 4 9 4 0 -0.09737397
Link 5 9 5 0 0.02532018
Link 6 9 6 0 0.45235908
Link 1 10 7 0 0.08797763
Link 2 10 8 0 0.39076933
Link 3 10 9 0 0.48754790
Link 4 10 10 0 0.31624979
Link 5 10 11 0 -0.33961870
Link 6 10 12 0 0.22133047
Link 9 7 13 0 -0.13422505
Link 10 7 14 0 -0.13508135
Link 9 8 15 0 -0.26437047
Link 10 8 16 0 -0.19739762
GenomeEnd

