GenomeStart 1713
Neuron 1 1 0.00000000 1 0.00000000 0.00000000 0.00000000 0.00000000
Neuron 2 1 0.00000000 1 0.00000000 0.00000000 0.00000000 0.00000000
Neuron 3 1 0.00000000 1 0.00000000 0.00000000 0.00000000 0.00000000
Neuron 4 1 0.00000000 1 0.00000000 0.00000000 0.00000000 0.00000000
Neuron 5 1 0.00000000 1 0.00000000 0.00000000 0.00000000 0.00000000
Neuron 6 2 0.00000000 1 0.00000000 0.00000000 0.00000000 0.00000000
Neuron 7 4 1.00000000 2 3.40525882 0.00000000 0.00000000 -0.52927905
Neuron 8 4 1.00000000 4 3.50295203 0.00000000 0.00000000 0.12734425
Neuron 9 3 0.50000000 6 3.41315278 0.00000000 0.00000000 -0.38011335
Neuron 10 3 0.50000000 6 3.09200839 0.00000000 0.00000000 0.00372641
Link 1 9 1 0 0.04167513
Link 2 9 2 0 0.41197820
Link 3 9 3 0 0.31227417
Link 4 9 4 0 0.08636575
Link 5 9 5 0 -0.17691802
Link 6 9 6 0 0.47627717
Link 1 10 7 0 -0.23967062
Link 2 10 8 0 -0.06282770
Link 3 10 9 0 -0.20816007
Link 4 10 10 0 -0.05683178
Link 5 10 11 0 0.59839838
Link 6 10 12 0 0.76139448
Link 9 7 13 0 -0.37291848
Link 10 7 14 0 -0.18878910
Link 9 8 15 0 0.55806665
Link 10 8 16 0 -0.06817345
GenomeEnd

