GenomeStart 3501
Neuron 1 1 0.00000000 1 0.00000000 0.00000000 0.00000000 0.00000000
Neuron 2 1 0.00000000 1 0.00000000 0.00000000 0.00000000 0.00000000
Neuron 3 1 0.00000000 1 0.00000000 0.00000000 0.00000000 0.00000000
Neuron 4 1 0.00000000 1 0.00000000 0.00000000 0.00000000 0.00000000
Neuron 5 1 0.00000000 1 0.00000000 0.00000000 0.00000000 0.00000000
Neuron 6 2 0.00000000 1 0.00000000 0.00000000 0.00000000 0.00000000
Neuron 7 4 1.00000000 2 3.18927036 0.00000000 0.00000000 0.44112014
Neuron 8 4 1.00000000 11 3.50235353 0.00000000 0.00000000 0.78442714
Neuron 9 3 0.50000000 6 3.44213681 0.00000000 0.00000000 0.36788437
Neuron 10 3 0.50000000 11 3.13521816 0.00000000 0.00000000 0.30858073
Link 1 9 1 0 0.05583124
Link 2 9 2 0 0.48532221
Link 3 9 3 0 0.05173236
Link 4 9 4 0 -0.77605867
Link 5 9 5 0 0.27214691
Link 6 9 6 0 -0.08000681
Link 1 10 7 0 0.11124523
Link 2 10 8 0 -0.22839378
Link 3 10 9 0 -0.15275507
Link 4 10 10 0 -0.66299666
Link 5 10 11 0 0.22389644
Link 6 10 12 0 -0.48448202
Link 9 7 13 0 0.24449821
Link 10 7 14 0 -0.03037794
Link 9 8 15 0 -0.11281748
Link 10 8 16 0 -0.10650693
GenomeEnd

