GenomeStart 3136
Neuron 1 1 0.00000000 1 0.00000000 0.00000000 0.00000000 0.00000000
Neuron 2 1 0.00000000 1 0.00000000 0.00000000 0.00000000 0.00000000
Neuron 3 1 0.00000000 1 0.00000000 0.00000000 0.00000000 0.00000000
Neuron 4 1 0.00000000 1 0.00000000 0.00000000 0.00000000 0.00000000
Neuron 5 1 0.00000000 1 0.00000000 0.00000000 0.00000000 0.00000000
Neuron 6 2 0.00000000 1 0.00000000 0.00000000 0.00000000 0.00000000
Neuron 7 4 1.00000000 6 3.38089258 0.00000000 0.00000000 -0.51966090
Neuron 8 4 1.00000000 2 3.71262190 0.00000000 0.00000000 0.01296443
Neuron 9 3 0.50000000 6 3.87709949 0.00000000 0.00000000 -0.09037220
Neuron 10 3 0.50000000 6 3.76633781 0.00000000 0.00000000 -0.31053560
Link 1 9 1 0 0.06835633
Link 2 9 2 0 -0.85532722
Link 3 9 3 0 0.11266399
Link 4 9 4 0 0.80171346
Link 5 9 5 0 0.00039660
Link 6 9 6 0 -0.34143552
Link 1 10 7 0 0.14586841
Link 2 10 8 0 -0.38330896
Link 3 10 9 0 0.30854543
Link 4 10 10 0 0.09778933
Link 5 10 11 0 -0.24345526
Link 6 10 12 0 0.42175860
Link 9 7 13 0 -0.81379654
Link 10 7 14 0 -0.55902834
Link 9 8 15 0 0.18136204
Link 10 8 16 0 -0.19468293
GenomeEnd

