GenomeStart 75249
Neuron 1 1 0.00000000 1 0.00000000 0.00000000 0.00000000 0.00000000
Neuron 2 1 0.00000000 1 0.00000000 0.00000000 0.00000000 0.00000000
Neuron 3 1 0.00000000 1 0.00000000 0.00000000 0.00000000 0.00000000
Neuron 4 1 0.00000000 1 0.00000000 0.00000000 0.00000000 0.00000000
Neuron 5 1 0.00000000 1 0.00000000 0.00000000 0.00000000 0.00000000
Neuron 6 2 0.00000000 1 0.00000000 0.00000000 0.00000000 0.00000000
Neuron 7 4 1.00000000 2 3.72868155 0.00000000 0.00000000 0.08601965
Neuron 8 4 1.00000000 9 3.22666495 0.00000000 0.00000000 0.58508896
Neuron 9 3 0.50000000 6 3.59934445 0.00000000 0.00000000 -0.35211550
Neuron 10 3 0.50000000 6 3.74193829 0.00000000 0.00000000 0.86486335
Neuron 13 3 0.75000000 11 3.17042279 0.00000000 0.00000000 -0.37339961
Neuron 14 3 0.25000000 9 0.17014584 0.00000000 0.00000000 -0.17743893
Neuron 17 3 0.75000000 4 5.07871044 0.00000000 0.00000000 0.30656385
Neuron 18 3 0.25000000 11 3.57713745 0.00000000 0.00000000 -0.64331289
Neuron 31 3 0.37500000 11 6.24581826 0.00000000 0.00000000 -0.36367749
Neuron 34 3 0.12500000 6 3.93951368 0.00000000 0.00000000 -0.43432384
Neuron 69 3 0.31250000 9 2.31614910 0.00000000 0.00000000 0.40161054
Link 2 9 2 0 0.37814493
Link 4 9 4 0 0.06254189
Link 5 9 5 0 -0.37091378
Link 6 9 6 0 0.25469879
Link 1 10 7 0 0.11899402
Link 2 10 8 0 -0.05682133
Link 5 10 11 0 0.49803276
Link 6 10 12 0 0.52239251
Link 9 7 13 0 0.47352120
Link 10 7 14 0 0.12049226
Link 9 13 25 0 -0.33124316
Link 13 8 26 0 0.18118248
Link 1 7 27 0 -0.51066925
Link 14 10 30 0 0.29312392
Link 10 17 40 0 -0.17859128
Link 17 8 41 0 -0.11220035
Link 1 18 44 0 -0.23945680
Link 31 9 111 0 0.30057640
Link 4 34 127 0 -0.91650764
Link 34 14 128 0 -0.35249921
Link 18 69 419 0 1.00000000
Link 69 31 420 0 0.07534084
GenomeEnd

