GenomeStart 174
Neuron 1 1 0.00000000 1 0.00000000 0.00000000 0.00000000 0.00000000
Neuron 2 1 0.00000000 1 0.00000000 0.00000000 0.00000000 0.00000000
Neuron 3 1 0.00000000 1 0.00000000 0.00000000 0.00000000 0.00000000
Neuron 4 1 0.00000000 1 0.00000000 0.00000000 0.00000000 0.00000000
Neuron 5 1 0.00000000 1 0.00000000 0.00000000 0.00000000 0.00000000
Neuron 6 2 0.00000000 1 0.00000000 0.00000000 0.00000000 0.00000000
Neuron 7 4 1.00000000 11 3.21450909 0.00000000 0.00000000 -0.07504646
Neuron 8 4 1.00000000 2 3.24288242 0.00000000 0.00000000 0.22336988
Neuron 9 3 0.50000000 6 3.36465341 0.00000000 0.00000000 0.49507344
Neuron 10 3 0.50000000 6 3.72864014 0.00000000 0.00000000 0.29844822
Link 1 9 1 0 -0.02193413
Link 2 9 2 0 -0.53363000
Link 3 9 3 0 -0.12438089
Link 4 9 4 0 -0.33597898
Link 5 9 5 0 0.23104544
Link 6 9 6 0 0.81699852
Link 1 10 7 0 0.41131854
Link 2 10 8 0 -0.57843543
Link 3 10 9 0 0.18140137
Link 4 10 10 0 -0.15656956
Link 5 10 11 0 -0.35896635
Link 6 10 12 0 -0.63972625
Link 9 7 13 0 0.63417929
Link 10 7 14 0 -0.52599211
Link 9 8 15 0 0.27589421
Link 10 8 16 0 -0.04643766
GenomeEnd

