GenomeStart 1453
Neuron 1 1 0.00000000 1 0.00000000 0.00000000 0.00000000 0.00000000
Neuron 2 1 0.00000000 1 0.00000000 0.00000000 0.00000000 0.00000000
Neuron 3 1 0.00000000 1 0.00000000 0.00000000 0.00000000 0.00000000
Neuron 4 1 0.00000000 1 0.00000000 0.00000000 0.00000000 0.00000000
Neuron 5 1 0.00000000 1 0.00000000 0.00000000 0.00000000 0.00000000
Neuron 6 2 0.00000000 1 0.00000000 0.00000000 0.00000000 0.00000000
Neuron 7 4 1.00000000 6 3.73995526 0.00000000 0.00000000 -0.03738690
Neuron 8 4 1.00000000 6 3.49867913 0.00000000 0.00000000 0.47188076
Neuron 9 3 0.50000000 6 3.30295556 0.00000000 0.00000000 -0.40010622
Neuron 10 3 0.50000000 6 3.45419338 0.00000000 0.00000000 -0.32081641
Link 1 9 1 0 0.02154388
Link 2 9 2 0 -0.30729440
Link 3 9 3 0 -0.25816379
Link 4 9 4 0 0.71762758
Link 5 9 5 0 -0.70414668
Link 6 9 6 0 -0.14147113
Link 1 10 7 0 -0.47553967
Link 2 10 8 0 -0.51918373
Link 3 10 9 0 -0.05277842
Link 4 10 10 0 -0.25909333
Link 5 10 11 0 -0.09858663
Link 6 10 12 0 0.14093824
Link 9 7 13 0 0.65253207
Link 10 7 14 0 0.25737487
Link 9 8 15 0 -0.08873424
Link 10 8 16 0 -0.30800329
GenomeEnd

