GenomeStart 1090
Neuron 1 1 0.00000000 1 0.00000000 0.00000000 0.00000000 0.00000000
Neuron 2 1 0.00000000 1 0.00000000 0.00000000 0.00000000 0.00000000
Neuron 3 1 0.00000000 1 0.00000000 0.00000000 0.00000000 0.00000000
Neuron 4 1 0.00000000 1 0.00000000 0.00000000 0.00000000 0.00000000
Neuron 5 1 0.00000000 1 0.00000000 0.00000000 0.00000000 0.00000000
Neuron 6 2 0.00000000 1 0.00000000 0.00000000 0.00000000 0.00000000
Neuron 7 4 1.00000000 2 3.59632959 0.00000000 0.00000000 -0.10529745
Neuron 8 4 1.00000000 2 3.29278204 0.00000000 0.00000000 0.49707140
Neuron 9 3 0.50000000 6 3.43610532 0.00000000 0.00000000 0.07453327
Neuron 10 3 0.50000000 9 3.19013612 0.00000000 0.00000000 -0.29855707
Link 1 9 1 0 -0.96891107
Link 2 9 2 0 0.43498943
Link 3 9 3 0 0.08678930
Link 4 9 4 0 -0.19123554
Link 5 9 5 0 0.05638484
Link 6 9 6 0 -0.77919802
Link 1 10 7 0 -0.48581176
Link 2 10 8 0 0.00590234
Link 3 10 9 0 -0.23262424
Link 4 10 10 0 0.72353118
Link 5 10 11 0 0.41385743
Link 6 10 12 0 -0.51116421
Link 9 7 13 0 -0.36159656
Link 10 7 14 0 -0.74025798
Link 9 8 15 0 -0.43049393
Link 10 8 16 0 0.64816551
Link 3 7 41 0 0.03941833
GenomeEnd

