GenomeStart 2800
Neuron 1 1 0.00000000 1 0.00000000 0.00000000 0.00000000 0.00000000
Neuron 2 1 0.00000000 1 0.00000000 0.00000000 0.00000000 0.00000000
Neuron 3 1 0.00000000 1 0.00000000 0.00000000 0.00000000 0.00000000
Neuron 4 1 0.00000000 1 0.00000000 0.00000000 0.00000000 0.00000000
Neuron 5 1 0.00000000 1 0.00000000 0.00000000 0.00000000 0.00000000
Neuron 6 2 0.00000000 1 0.00000000 0.00000000 0.00000000 0.00000000
Neuron 7 4 1.00000000 4 3.26672409 0.00000000 0.00000000 -0.07751786
Neuron 8 4 1.00000000 9 3.53008322 0.00000000 0.00000000 0.06669510
Neuron 9 3 0.50000000 6 3.42990768 0.00000000 0.00000000 -0.32382491
Neuron 10 3 0.50000000 6 3.33333087 0.00000000 0.00000000 0.06916432
Link 1 9 1 0 0.05259882
Link 2 9 2 0 0.06690583
Link 3 9 3 0 0.89497580
Link 4 9 4 0 -0.36569672
Link 5 9 5 0 -0.15957723
Link 6 9 6 0 -0.76623971
Link 1 10 7 0 -0.06610331
Link 2 10 8 0 -0.49542486
Link 3 10 9 0 -0.11283505
Link 4 10 10 0 0.39773308
Link 5 10 11 0 0.52154672
Link 6 10 12 0 -0.26389407
Link 9 7 13 0 0.55891678
Link 10 7 14 0 -0.29333644
Link 9 8 15 0 0.18057836
Link 10 8 16 0 -0.01951126
GenomeEnd

