GenomeStart 2800
Neuron 1 1 0.00000000 1 0.00000000 0.00000000 0.00000000 0.00000000
Neuron 2 1 0.00000000 1 0.00000000 0.00000000 0.00000000 0.00000000
Neuron 3 1 0.00000000 1 0.00000000 0.00000000 0.00000000 0.00000000
Neuron 4 1 0.00000000 1 0.00000000 0.00000000 0.00000000 0.00000000
Neuron 5 1 0.00000000 1 0.00000000 0.00000000 0.00000000 0.00000000
Neuron 6 2 0.00000000 1 0.00000000 0.00000000 0.00000000 0.00000000
Neuron 7 4 1.00000000 2 3.40166047 0.00000000 0.00000000 -0.23720606
Neuron 8 4 1.00000000 11 3.83097723 0.00000000 0.00000000 -0.05147214
Neuron 9 3 0.50000000 9 3.81442467 0.00000000 0.00000000 -0.29924298
Neuron 10 3 0.50000000 6 3.75074562 0.00000000 0.00000000 0.19217761
Link 1 9 1 0 -0.45014196
Link 2 9 2 0 -0.01094164
Link 3 9 3 0 0.03031498
Link 4 9 4 0 -0.07456070
Link 5 9 5 0 0.22486868
Link 6 9 6 0 -0.18952178
Link 1 10 7 0 0.00558223
Link 2 10 8 0 -0.31425337
Link 3 10 9 0 0.40118751
Link 4 10 10 0 -0.34891987
Link 5 10 11 0 0.07875067
Link 6 10 12 0 -0.33472020
Link 9 7 13 0 -0.18148276
Link 10 7 14 0 -0.92965679
Link 9 8 15 0 -0.48867746
Link 10 8 16 0 -0.39130104
GenomeEnd

