GenomeStart 1677
Neuron 1 1 0.00000000 1 0.00000000 0.00000000 0.00000000 0.00000000
Neuron 2 1 0.00000000 1 0.00000000 0.00000000 0.00000000 0.00000000
Neuron 3 1 0.00000000 1 0.00000000 0.00000000 0.00000000 0.00000000
Neuron 4 1 0.00000000 1 0.00000000 0.00000000 0.00000000 0.00000000
Neuron 5 1 0.00000000 1 0.00000000 0.00000000 0.00000000 0.00000000
Neuron 6 2 0.00000000 1 0.00000000 0.00000000 0.00000000 0.00000000
Neuron 7 4 1.00000000 2 3.68920067 0.00000000 0.00000000 0.48038327
Neuron 8 4 1.00000000 11 3.56037437 0.00000000 0.00000000 -0.28650167
Neuron 9 3 0.50000000 6 3.63345004 0.00000000 0.00000000 -0.08937805
Neuron 10 3 0.50000000 6 3.46465161 0.00000000 0.00000000 -0.01034012
Link 1 9 1 0 -0.32755244
Link 2 9 2 0 -0.04788783
Link 3 9 3 0 -0.08875684
Link 4 9 4 0 -0.32345729
Link 5 9 5 0 0.21440532
Link 6 9 6 0 -0.32313453
Link 1 10 7 0 -0.02926317
Link 2 10 8 0 0.54763952
Link 3 10 9 0 0.29431773
Link 4 10 10 0 0.33313626
Link 5 10 11 0 0.21321635
Link 6 10 12 0 -0.01878453
Link 9 7 13 0 -0.00540933
Link 10 7 14 0 0.29107795
Link 9 8 15 0 0.31846335
Link 10 8 16 0 -0.10180998
GenomeEnd

