GenomeStart 2562
Neuron 1 1 0.00000000 1 0.00000000 0.00000000 0.00000000 0.00000000
Neuron 2 1 0.00000000 1 0.00000000 0.00000000 0.00000000 0.00000000
Neuron 3 1 0.00000000 1 0.00000000 0.00000000 0.00000000 0.00000000
Neuron 4 1 0.00000000 1 0.00000000 0.00000000 0.00000000 0.00000000
Neuron 5 1 0.00000000 1 0.00000000 0.00000000 0.00000000 0.00000000
Neuron 6 2 0.00000000 1 0.00000000 0.00000000 0.00000000 0.00000000
Neuron 7 4 1.00000000 2 3.54912032 0.00000000 0.00000000 0.20426930
Neuron 8 4 1.00000000 4 3.48309766 0.00000000 0.00000000 -0.11831411
Neuron 9 3 0.50000000 6 3.34210699 0.00000000 0.00000000 -0.15090757
Neuron 10 3 0.50000000 6 3.60931812 0.00000000 0.00000000 0.13869530
Link 1 9 1 0 -0.62678046
Link 2 9 2 0 0.30062691
Link 3 9 3 0 0.20265129
Link 4 9 4 0 -0.10814272
Link 5 9 5 0 0.19645382
Link 6 9 6 0 -0.16052668
Link 1 10 7 0 0.01059967
Link 2 10 8 0 -0.38022290
Link 3 10 9 0 -0.19650406
Link 4 10 10 0 0.26231530
Link 5 10 11 0 0.18543961
Link 6 10 12 0 -0.28961824
Link 9 7 13 0 0.04543394
Link 10 7 14 0 -0.56234054
Link 9 8 15 0 0.12710595
Link 10 8 16 0 0.17818738
GenomeEnd

