GenomeStart 485
Neuron 1 1 0.00000000 1 0.00000000 0.00000000 0.00000000 0.00000000
Neuron 2 1 0.00000000 1 0.00000000 0.00000000 0.00000000 0.00000000
Neuron 3 1 0.00000000 1 0.00000000 0.00000000 0.00000000 0.00000000
Neuron 4 1 0.00000000 1 0.00000000 0.00000000 0.00000000 0.00000000
Neuron 5 1 0.00000000 1 0.00000000 0.00000000 0.00000000 0.00000000
Neuron 6 2 0.00000000 1 0.00000000 0.00000000 0.00000000 0.00000000
Neuron 7 4 1.00000000 9 3.48854351 0.00000000 0.00000000 0.73592853
Neuron 8 4 1.00000000 2 3.36003294 0.00000000 0.00000000 0.12974994
Neuron 9 3 0.50000000 9 3.55311482 0.00000000 0.00000000 -0.58782782
Neuron 10 3 0.50000000 6 3.79653670 0.00000000 0.00000000 -0.16696598
Link 1 9 1 0 -0.18880617
Link 2 9 2 0 -0.37130705
Link 3 9 3 0 0.80732672
Link 4 9 4 0 -0.72926606
Link 5 9 5 0 -0.61568314
Link 6 9 6 0 -0.04765321
Link 1 10 7 0 -0.75406417
Link 2 10 8 0 0.32864439
Link 3 10 9 0 0.01474569
Link 4 10 10 0 -0.18975160
Link 5 10 11 0 0.42630887
Link 6 10 12 0 0.10907369
Link 9 7 13 0 -0.46970226
Link 10 7 14 0 0.45921522
Link 9 8 15 0 -0.71309928
Link 10 8 16 0 0.73420627
GenomeEnd

