GenomeStart 2650
Neuron 1 1 0.00000000 1 0.00000000 0.00000000 0.00000000 0.00000000
Neuron 2 1 0.00000000 1 0.00000000 0.00000000 0.00000000 0.00000000
Neuron 3 1 0.00000000 1 0.00000000 0.00000000 0.00000000 0.00000000
Neuron 4 1 0.00000000 1 0.00000000 0.00000000 0.00000000 0.00000000
Neuron 5 1 0.00000000 1 0.00000000 0.00000000 0.00000000 0.00000000
Neuron 6 2 0.00000000 1 0.00000000 0.00000000 0.00000000 0.00000000
Neuron 7 4 1.00000000 2 3.20583577 0.00000000 0.00000000 0.64052286
Neuron 8 4 1.00000000 2 3.73485573 0.00000000 0.00000000 -0.02174754
Neuron 9 3 0.50000000 6 3.33770036 0.00000000 0.00000000 -0.38492109
Neuron 10 3 0.50000000 6 3.19485993 0.00000000 0.00000000 0.24724691
Link 1 9 1 0 -0.00991128
Link 2 9 2 0 -0.00076112
Link 3 9 3 0 -0.43786606
Link 4 9 4 0 -0.59282348
Link 5 9 5 0 0.35042280
Link 6 9 6 0 0.79159404
Link 1 10 7 0 0.16379244
Link 2 10 8 0 0.44689606
Link 3 10 9 0 0.74351187
Link 4 10 10 0 -0.24642936
Link 5 10 11 0 -0.58192954
Link 6 10 12 0 0.12057419
Link 9 7 13 0 0.14536957
Link 10 7 14 0 0.06159099
Link 9 8 15 0 0.05724065
Link 10 8 16 0 -0.13143846
Link 2 8 36 0 0.10707097
GenomeEnd

