GenomeStart 1728
Neuron 1 1 0.00000000 1 0.00000000 0.00000000 0.00000000 0.00000000
Neuron 2 1 0.00000000 1 0.00000000 0.00000000 0.00000000 0.00000000
Neuron 3 1 0.00000000 1 0.00000000 0.00000000 0.00000000 0.00000000
Neuron 4 1 0.00000000 1 0.00000000 0.00000000 0.00000000 0.00000000
Neuron 5 1 0.00000000 1 0.00000000 0.00000000 0.00000000 0.00000000
Neuron 6 2 0.00000000 1 0.00000000 0.00000000 0.00000000 0.00000000
Neuron 7 4 1.00000000 11 3.47157624 0.00000000 0.00000000 -0.17746119
Neuron 8 4 1.00000000 4 3.19898642 0.00000000 0.00000000 0.44481743
Neuron 9 3 0.50000000 6 3.48936862 0.00000000 0.00000000 0.05984409
Neuron 10 3 0.50000000 6 3.42295094 0.00000000 0.00000000 -0.27699226
Link 1 9 1 0 -0.31188870
Link 2 9 2 0 -0.37690888
Link 3 9 3 0 0.33368660
Link 4 9 4 0 0.08434448
Link 5 9 5 0 0.11610110
Link 6 9 6 0 -0.28316745
Link 1 10 7 0 -0.10292110
Link 2 10 8 0 0.09184942
Link 3 10 9 0 -0.64510892
Link 4 10 10 0 -0.26844041
Link 5 10 11 0 -0.47786435
Link 6 10 12 0 0.38332377
Link 9 7 13 0 -0.07450214
Link 10 7 14 0 0.56133024
Link 9 8 15 0 0.25253418
Link 10 8 16 0 -0.04073420
Link 6 7 45 0 0.23722075
GenomeEnd

