GenomeStart 1400
Neuron 1 1 0.00000000 1 0.00000000 0.00000000 0.00000000 0.00000000
Neuron 2 1 0.00000000 1 0.00000000 0.00000000 0.00000000 0.00000000
Neuron 3 1 0.00000000 1 0.00000000 0.00000000 0.00000000 0.00000000
Neuron 4 1 0.00000000 1 0.00000000 0.00000000 0.00000000 0.00000000
Neuron 5 1 0.00000000 1 0.00000000 0.00000000 0.00000000 0.00000000
Neuron 6 2 0.00000000 1 0.00000000 0.00000000 0.00000000 0.00000000
Neuron 7 4 1.00000000 2 3.46806737 0.00000000 0.00000000 -0.28898093
Neuron 8 4 1.00000000 11 3.83403531 0.00000000 0.00000000 0.11090727
Neuron 9 3 0.50000000 6 3.47178209 0.00000000 0.00000000 0.01475458
Neuron 10 3 0.50000000 6 3.34146033 0.00000000 0.00000000 0.06783482
Link 1 9 1 0 0.03962657
Link 2 9 2 0 0.05342306
Link 3 9 3 0 -0.01676877
Link 4 9 4 0 -0.29297073
Link 5 9 5 0 -0.10012144
Link 6 9 6 0 0.61566138
Link 1 10 7 0 0.15021924
Link 2 10 8 0 0.20744806
Link 3 10 9 0 -0.07057984
Link 4 10 10 0 -0.67356488
Link 5 10 11 0 0.24159451
Link 6 10 12 0 -0.82239237
Link 9 7 13 0 0.33229940
Link 10 7 14 0 0.27413514
Link 9 8 15 0 -0.32621326
Link 10 8 16 0 0.15169634
GenomeEnd

