GenomeStart 212
Neuron 1 1 0.00000000 1 0.00000000 0.00000000 0.00000000 0.00000000
Neuron 2 1 0.00000000 1 0.00000000 0.00000000 0.00000000 0.00000000
Neuron 3 1 0.00000000 1 0.00000000 0.00000000 0.00000000 0.00000000
Neuron 4 1 0.00000000 1 0.00000000 0.00000000 0.00000000 0.00000000
Neuron 5 1 0.00000000 1 0.00000000 0.00000000 0.00000000 0.00000000
Neuron 6 2 0.00000000 1 0.00000000 0.00000000 0.00000000 0.00000000
Neuron 7 4 1.00000000 6 3.50671303 0.00000000 0.00000000 0.05875358
Neuron 8 4 1.00000000 2 3.66077216 0.00000000 0.00000000 -0.22235411
Neuron 9 3 0.50000000 6 3.49401684 0.00000000 0.00000000 0.11595726
Neuron 10 3 0.50000000 6 3.58377091 0.00000000 0.00000000 0.25759256
Link 1 9 1 0 -0.03226076
Link 2 9 2 0 -0.74690824
Link 3 9 3 0 -0.06290192
Link 4 9 4 0 0.24674947
Link 5 9 5 0 -0.51001201
Link 6 9 6 0 0.11258992
Link 1 10 7 0 -0.12198710
Link 2 10 8 0 -0.37413564
Link 3 10 9 0 0.16696080
Link 4 10 10 0 0.23194704
Link 5 10 11 0 0.51620749
Link 6 10 12 0 0.90167902
Link 9 7 13 0 -0.66587323
Link 10 7 14 0 -0.39893523
Link 9 8 15 0 -0.06774569
Link 10 8 16 0 -0.02712640
GenomeEnd

