GenomeStart 38
Neuron 1 1 0.00000000 1 0.00000000 0.00000000 0.00000000 0.00000000
Neuron 2 1 0.00000000 1 0.00000000 0.00000000 0.00000000 0.00000000
Neuron 3 1 0.00000000 1 0.00000000 0.00000000 0.00000000 0.00000000
Neuron 4 1 0.00000000 1 0.00000000 0.00000000 0.00000000 0.00000000
Neuron 5 1 0.00000000 1 0.00000000 0.00000000 0.00000000 0.00000000
Neuron 6 2 0.00000000 1 0.00000000 0.00000000 0.00000000 0.00000000
Neuron 7 4 1.00000000 2 3.58155680 0.00000000 0.00000000 0.54472224
Neuron 8 4 1.00000000 2 3.81457285 0.00000000 0.00000000 -0.00418739
Neuron 9 3 0.50000000 6 3.33320226 0.00000000 0.00000000 0.23577059
Neuron 10 3 0.50000000 9 3.71302565 0.00000000 0.00000000 -0.39929549
Link 1 9 1 0 0.03945617
Link 2 9 2 0 0.60489151
Link 3 9 3 0 -0.06525449
Link 4 9 4 0 0.17985978
Link 5 9 5 0 0.87552524
Link 6 9 6 0 0.11344254
Link 1 10 7 0 0.26520464
Link 2 10 8 0 -0.05849236
Link 3 10 9 0 0.60370087
Link 4 10 10 0 -0.36358463
Link 5 10 11 0 0.02722005
Link 6 10 12 0 -0.18657242
Link 9 7 13 0 0.49005819
Link 10 7 14 0 -0.64959149
Link 9 8 15 0 0.04771294
Link 10 8 16 0 -0.27445462
GenomeEnd

