GenomeStart 440
Neuron 1 1 0.00000000 1 0.00000000 0.00000000 0.00000000 0.00000000
Neuron 2 1 0.00000000 1 0.00000000 0.00000000 0.00000000 0.00000000
Neuron 3 1 0.00000000 1 0.00000000 0.00000000 0.00000000 0.00000000
Neuron 4 1 0.00000000 1 0.00000000 0.00000000 0.00000000 0.00000000
Neuron 5 1 0.00000000 1 0.00000000 0.00000000 0.00000000 0.00000000
Neuron 6 2 0.00000000 1 0.00000000 0.00000000 0.00000000 0.00000000
Neuron 7 4 1.00000000 2 3.27664838 0.00000000 0.00000000 0.28858190
Neuron 8 4 1.00000000 2 3.86159398 0.00000000 0.00000000 0.62770829
Neuron 9 3 0.50000000 6 3.18647734 0.00000000 0.00000000 0.68397795
Neuron 10 3 0.50000000 6 3.34256594 0.00000000 0.00000000 -0.82179539
Link 1 9 1 0 -0.04990837
Link 2 9 2 0 -0.78965526
Link 3 9 3 0 0.42022161
Link 4 9 4 0 0.51474243
Link 5 9 5 0 0.47674394
Link 6 9 6 0 0.18920950
Link 1 10 7 0 -0.11644955
Link 2 10 8 0 0.51023859
Link 3 10 9 0 -0.41770476
Link 4 10 10 0 -0.08887322
Link 5 10 11 0 -0.56881599
Link 6 10 12 0 -0.01449790
Link 9 7 13 0 0.61109176
Link 10 7 14 0 -0.27936803
Link 9 8 15 0 0.59456073
Link 10 8 16 0 0.03979467
GenomeEnd

