GenomeStart 1581
Neuron 1 1 0.00000000 1 0.00000000 0.00000000 0.00000000 0.00000000
Neuron 2 1 0.00000000 1 0.00000000 0.00000000 0.00000000 0.00000000
Neuron 3 1 0.00000000 1 0.00000000 0.00000000 0.00000000 0.00000000
Neuron 4 1 0.00000000 1 0.00000000 0.00000000 0.00000000 0.00000000
Neuron 5 1 0.00000000 1 0.00000000 0.00000000 0.00000000 0.00000000
Neuron 6 2 0.00000000 1 0.00000000 0.00000000 0.00000000 0.00000000
Neuron 7 4 1.00000000 2 3.29757070 0.00000000 0.00000000 -0.19264434
Neuron 8 4 1.00000000 11 3.85095424 0.00000000 0.00000000 -0.29051039
Neuron 9 3 0.50000000 6 3.79336930 0.00000000 0.00000000 0.05965349
Neuron 10 3 0.50000000 4 3.09695339 0.00000000 0.00000000 -0.46457581
Link 1 9 1 0 0.31048432
Link 2 9 2 0 -0.40259993
Link 3 9 3 0 0.25783078
Link 4 9 4 0 0.44601705
Link 5 9 5 0 0.12663761
Link 6 9 6 0 -0.40265035
Link 1 10 7 0 -0.05546630
Link 2 10 8 0 -0.29453399
Link 3 10 9 0 0.17940228
Link 4 10 10 0 0.55605177
Link 5 10 11 0 -0.13871603
Link 6 10 12 0 -0.32720934
Link 9 7 13 0 -0.23278883
Link 10 7 14 0 0.06382497
Link 9 8 15 0 -0.49528666
Link 10 8 16 0 -0.35186645
GenomeEnd

