GenomeStart 1050
Neuron 1 1 0.00000000 1 0.00000000 0.00000000 0.00000000 0.00000000
Neuron 2 1 0.00000000 1 0.00000000 0.00000000 0.00000000 0.00000000
Neuron 3 1 0.00000000 1 0.00000000 0.00000000 0.00000000 0.00000000
Neuron 4 1 0.00000000 1 0.00000000 0.00000000 0.00000000 0.00000000
Neuron 5 1 0.00000000 1 0.00000000 0.00000000 0.00000000 0.00000000
Neuron 6 2 0.00000000 1 0.00000000 0.00000000 0.00000000 0.00000000
Neuron 7 4 1.00000000 2 3.47905841 0.00000000 0.00000000 0.01606345
Neuron 8 4 1.00000000 2 3.54006629 0.00000000 0.00000000 -0.09826757
Neuron 9 3 0.50000000 6 3.44690827 0.00000000 0.00000000 0.36100165
Neuron 10 3 0.50000000 6 3.68140758 0.00000000 0.00000000 0.06790425
Link 1 9 1 0 -0.20482149
Link 2 9 2 0 0.53272205
Link 3 9 3 0 -0.61304071
Link 4 9 4 0 -0.04095985
Link 5 9 5 0 0.05504117
Link 6 9 6 0 -0.29428380
Link 1 10 7 0 -0.14522752
Link 2 10 8 0 0.59150664
Link 3 10 9 0 0.50076035
Link 4 10 10 0 0.34229410
Link 5 10 11 0 -0.11426787
Link 6 10 12 0 -0.72243236
Link 9 7 13 0 -0.43048895
Link 10 7 14 0 0.55064539
Link 9 8 15 0 -0.51030596
Link 10 8 16 0 0.29390932
GenomeEnd

