GenomeStart 1733
Neuron 1 1 0.00000000 1 0.00000000 0.00000000 0.00000000 0.00000000
Neuron 2 1 0.00000000 1 0.00000000 0.00000000 0.00000000 0.00000000
Neuron 3 1 0.00000000 1 0.00000000 0.00000000 0.00000000 0.00000000
Neuron 4 1 0.00000000 1 0.00000000 0.00000000 0.00000000 0.00000000
Neuron 5 1 0.00000000 1 0.00000000 0.00000000 0.00000000 0.00000000
Neuron 6 2 0.00000000 1 0.00000000 0.00000000 0.00000000 0.00000000
Neuron 7 4 1.00000000 2 3.56825898 0.00000000 0.00000000 0.15856674
Neuron 8 4 1.00000000 11 3.50727611 0.00000000 0.00000000 0.55813118
Neuron 9 3 0.50000000 6 3.24530480 0.00000000 0.00000000 -0.64607829
Neuron 10 3 0.50000000 6 3.73209625 0.00000000 0.00000000 -0.23620665
Neuron 17 3 0.25000000 9 4.10362136 0.00000000 0.00000000 0.36970395
Link 1 9 1 0 0.06246891
Link 2 9 2 0 -0.49262315
Link 4 9 4 0 -0.26225529
Link 5 9 5 0 0.53699227
Link 6 9 6 0 0.17733857
Link 1 10 7 0 -0.27477654
Link 2 10 8 0 -0.00122296
Link 3 10 9 0 0.20199246
Link 4 10 10 0 0.18565978
Link 5 10 11 0 -0.26556969
Link 6 10 12 0 0.37505314
Link 9 7 13 0 -0.78594138
Link 10 7 14 0 -0.15431465
Link 9 8 15 0 0.02965908
Link 10 8 16 0 0.58207995
Link 3 17 42 0 1.00000000
Link 17 9 43 0 0.12215557
GenomeEnd

