GenomeStart 2479
Neuron 1 1 0.00000000 1 0.00000000 0.00000000 0.00000000 0.00000000
Neuron 2 1 0.00000000 1 0.00000000 0.00000000 0.00000000 0.00000000
Neuron 3 1 0.00000000 1 0.00000000 0.00000000 0.00000000 0.00000000
Neuron 4 1 0.00000000 1 0.00000000 0.00000000 0.00000000 0.00000000
Neuron 5 1 0.00000000 1 0.00000000 0.00000000 0.00000000 0.00000000
Neuron 6 2 0.00000000 1 0.00000000 0.00000000 0.00000000 0.00000000
Neuron 7 4 1.00000000 2 3.38368014 0.00000000 0.00000000 0.03630937
Neuron 8 4 1.00000000 6 3.69100656 0.00000000 0.00000000 0.61997968
Neuron 9 3 0.50000000 4 3.24703949 0.00000000 0.00000000 0.06584760
Neuron 10 3 0.50000000 6 3.33143929 0.00000000 0.00000000 0.02730987
Neuron 21 3 0.25000000 11 4.17947211 0.00000000 0.00000000 -0.41910180
Link 1 9 1 0 0.48226267
Link 2 9 2 0 -0.05933795
Link 4 9 4 0 -0.37300668
Link 5 9 5 0 0.08210701
Link 6 9 6 0 0.44036617
Link 1 10 7 0 -0.08807595
Link 2 10 8 0 -0.14203665
Link 3 10 9 0 -0.14059518
Link 4 10 10 0 0.45548505
Link 5 10 11 0 0.12601440
Link 6 10 12 0 0.17725327
Link 9 7 13 0 -0.25874334
Link 10 7 14 0 -0.18234767
Link 9 8 15 0 -0.13669685
Link 10 8 16 0 0.30186926
Link 3 21 56 0 -0.70790491
Link 21 9 57 0 0.45498930
GenomeEnd

