GenomeStart 362
Neuron 1 1 0.00000000 1 0.00000000 0.00000000 0.00000000 0.00000000
Neuron 2 1 0.00000000 1 0.00000000 0.00000000 0.00000000 0.00000000
Neuron 3 1 0.00000000 1 0.00000000 0.00000000 0.00000000 0.00000000
Neuron 4 1 0.00000000 1 0.00000000 0.00000000 0.00000000 0.00000000
Neuron 5 1 0.00000000 1 0.00000000 0.00000000 0.00000000 0.00000000
Neuron 6 2 0.00000000 1 0.00000000 0.00000000 0.00000000 0.00000000
Neuron 7 4 1.00000000 2 3.48698231 0.00000000 0.00000000 -0.74660562
Neuron 8 4 1.00000000 9 3.13926669 0.00000000 0.00000000 -0.27125350
Neuron 9 3 0.50000000 6 3.70980791 0.00000000 0.00000000 -0.36633161
Neuron 10 3 0.50000000 6 3.33982270 0.00000000 0.00000000 0.60758968
Link 1 9 1 0 -0.31956150
Link 2 9 2 0 -0.39424506
Link 3 9 3 0 0.10683117
Link 4 9 4 0 -0.22940060
Link 5 9 5 0 0.27275317
Link 6 9 6 0 0.30102063
Link 1 10 7 0 0.08532445
Link 2 10 8 0 -0.47438351
Link 3 10 9 0 0.55275838
Link 4 10 10 0 -0.35625169
Link 5 10 11 0 0.35065373
Link 6 10 12 0 -0.34127482
Link 9 7 13 0 0.16985457
Link 10 7 14 0 -0.46938315
Link 9 8 15 0 0.11472885
Link 10 8 16 0 -0.81231464
GenomeEnd

