GenomeStart 1786
Neuron 1 1 0.00000000 1 0.00000000 0.00000000 0.00000000 0.00000000
Neuron 2 1 0.00000000 1 0.00000000 0.00000000 0.00000000 0.00000000
Neuron 3 1 0.00000000 1 0.00000000 0.00000000 0.00000000 0.00000000
Neuron 4 1 0.00000000 1 0.00000000 0.00000000 0.00000000 0.00000000
Neuron 5 1 0.00000000 1 0.00000000 0.00000000 0.00000000 0.00000000
Neuron 6 2 0.00000000 1 0.00000000 0.00000000 0.00000000 0.00000000
Neuron 7 4 1.00000000 2 3.64928523 0.00000000 0.00000000 0.21602659
Neuron 8 4 1.00000000 2 3.01173506 0.00000000 0.00000000 0.10659463
Neuron 9 3 0.50000000 6 3.30165783 0.00000000 0.00000000 0.24385384
Neuron 10 3 0.50000000 9 3.31943285 0.00000000 0.00000000 0.29379507
Link 1 9 1 0 0.09728285
Link 2 9 2 0 -0.08478818
Link 3 9 3 0 -0.57605237
Link 4 9 4 0 0.29984457
Link 5 9 5 0 -0.40103576
Link 6 9 6 0 -0.46933833
Link 1 10 7 0 0.03881447
Link 2 10 8 0 0.52041431
Link 3 10 9 0 0.25358115
Link 4 10 10 0 -0.50721296
Link 5 10 11 0 -0.96787678
Link 6 10 12 0 -0.29126963
Link 9 7 13 0 0.00263161
Link 10 7 14 0 0.15271247
Link 9 8 15 0 -0.06599395
Link 10 8 16 0 0.04282211
GenomeEnd

