GenomeStart 33947
Neuron 1 1 0.00000000 1 0.00000000 0.00000000 0.00000000 0.00000000
Neuron 2 1 0.00000000 1 0.00000000 0.00000000 0.00000000 0.00000000
Neuron 3 1 0.00000000 1 0.00000000 0.00000000 0.00000000 0.00000000
Neuron 4 1 0.00000000 1 0.00000000 0.00000000 0.00000000 0.00000000
Neuron 5 1 0.00000000 1 0.00000000 0.00000000 0.00000000 0.00000000
Neuron 6 2 0.00000000 1 0.00000000 0.00000000 0.00000000 0.00000000
Neuron 7 4 1.00000000 9 3.48487971 0.00000000 0.00000000 -0.09983580
Neuron 8 4 1.00000000 11 3.39040399 0.00000000 0.00000000 0.65369478
Neuron 9 3 0.50000000 6 3.47704136 0.00000000 0.00000000 -0.34265624
Neuron 10 3 0.50000000 6 3.64341989 0.00000000 0.00000000 -0.54975916
Neuron 12 3 0.25000000 4 3.50126508 0.00000000 0.00000000 -0.57073271
Neuron 18 3 0.25000000 6 2.77892134 0.00000000 0.00000000 -0.50300978
Neuron 19 3 0.75000000 4 2.73727823 0.00000000 0.00000000 -0.49931837
Neuron 20 3 0.75000000 11 0.70446316 0.00000000 0.00000000 -0.01582903
Neuron 28 3 0.87500000 6 2.78904578 0.00000000 0.00000000 0.13271792
Neuron 33 3 0.37500000 6 6.33810918 0.00000000 0.00000000 0.48845053
Link 1 9 1 0 -0.28209624
Link 3 9 3 0 0.59512757
Link 5 9 5 0 0.26266745
Link 6 9 6 0 -0.59688368
Link 2 10 8 0 0.05542642
Link 3 10 9 0 -0.39784716
Link 5 10 11 0 0.39266432
Link 6 10 12 0 0.11845820
Link 9 7 13 0 -0.66424533
Link 1 12 23 0 -0.01521892
Link 12 10 24 0 -0.22382979
Link 4 18 48 0 0.83932611
Link 10 19 52 0 -0.09903933
Link 10 20 56 0 0.11432982
Link 20 7 57 0 -0.14368800
Link 19 28 100 0 0.15446658
Link 28 8 101 0 -0.06747961
Link 18 33 136 0 0.01721340
Link 33 9 137 0 0.04006443
GenomeEnd

