GenomeStart 4201
Neuron 1 1 0.00000000 1 0.00000000 0.00000000 0.00000000 0.00000000
Neuron 2 1 0.00000000 1 0.00000000 0.00000000 0.00000000 0.00000000
Neuron 3 1 0.00000000 1 0.00000000 0.00000000 0.00000000 0.00000000
Neuron 4 1 0.00000000 1 0.00000000 0.00000000 0.00000000 0.00000000
Neuron 5 1 0.00000000 1 0.00000000 0.00000000 0.00000000 0.00000000
Neuron 6 2 0.00000000 1 0.00000000 0.00000000 0.00000000 0.00000000
Neuron 7 4 1.00000000 2 3.47183847 0.00000000 0.00000000 -0.84285276
Neuron 8 4 1.00000000 2 3.22029794 0.00000000 0.00000000 -0.47172684
Neuron 9 3 0.50000000 11 3.53740807 0.00000000 0.00000000 -0.47657513
Neuron 10 3 0.50000000 6 3.48731517 0.00000000 0.00000000 -0.38150177
Neuron 22 3 0.25000000 11 1.01310677 0.00000000 0.00000000 -0.38990553
Link 1 9 1 0 -0.03661390
Link 3 9 3 0 -0.04138773
Link 4 9 4 0 -0.18371620
Link 5 9 5 0 -0.52754566
Link 6 9 6 0 0.31688255
Link 1 10 7 0 0.15026709
Link 2 10 8 0 0.26563599
Link 3 10 9 0 -0.06978965
Link 4 10 10 0 0.30598365
Link 5 10 11 0 -0.34111622
Link 6 10 12 0 0.24833722
Link 9 7 13 0 0.15458130
Link 10 7 14 0 0.45984257
Link 9 8 15 0 0.28382482
Link 10 8 16 0 0.23799348
Link 1 8 22 0 -0.05858378
Link 2 22 65 0 1.00000000
Link 22 9 66 0 0.09079697
GenomeEnd

