GenomeStart 654
Neuron 1 1 0.00000000 1 0.00000000 0.00000000 0.00000000 0.00000000
Neuron 2 1 0.00000000 1 0.00000000 0.00000000 0.00000000 0.00000000
Neuron 3 1 0.00000000 1 0.00000000 0.00000000 0.00000000 0.00000000
Neuron 4 1 0.00000000 1 0.00000000 0.00000000 0.00000000 0.00000000
Neuron 5 1 0.00000000 1 0.00000000 0.00000000 0.00000000 0.00000000
Neuron 6 2 0.00000000 1 0.00000000 0.00000000 0.00000000 0.00000000
Neuron 7 4 1.00000000 2 3.40426827 0.00000000 0.00000000 -0.61112649
Neuron 8 4 1.00000000 2 3.58669065 0.00000000 0.00000000 -0.14493908
Neuron 9 3 0.50000000 9 3.82601293 0.00000000 0.00000000 -0.13691140
Neuron 10 3 0.50000000 9 3.54283782 0.00000000 0.00000000 0.61121723
Link 1 9 1 0 0.80649906
Link 2 9 2 0 -0.81987460
Link 3 9 3 0 -0.27513251
Link 4 9 4 0 0.04462235
Link 5 9 5 0 0.48551008
Link 6 9 6 0 -0.26911381
Link 1 10 7 0 -0.01889711
Link 2 10 8 0 -0.52418940
Link 3 10 9 0 -0.34128522
Link 4 10 10 0 -0.04161797
Link 5 10 11 0 -0.08963692
Link 6 10 12 0 0.54696045
Link 9 7 13 0 0.00553878
Link 10 7 14 0 0.31488658
Link 9 8 15 0 0.75610358
Link 10 8 16 0 -0.47889084
GenomeEnd

