GenomeStart 796
Neuron 1 1 0.00000000 1 0.00000000 0.00000000 0.00000000 0.00000000
Neuron 2 1 0.00000000 1 0.00000000 0.00000000 0.00000000 0.00000000
Neuron 3 1 0.00000000 1 0.00000000 0.00000000 0.00000000 0.00000000
Neuron 4 1 0.00000000 1 0.00000000 0.00000000 0.00000000 0.00000000
Neuron 5 1 0.00000000 1 0.00000000 0.00000000 0.00000000 0.00000000
Neuron 6 2 0.00000000 1 0.00000000 0.00000000 0.00000000 0.00000000
Neuron 7 4 1.00000000 2 3.49787631 0.00000000 0.00000000 -0.55325159
Neuron 8 4 1.00000000 2 3.43499300 0.00000000 0.00000000 -0.32498065
Neuron 9 3 0.50000000 6 3.48694711 0.00000000 0.00000000 0.58837817
Neuron 10 3 0.50000000 6 3.66345383 0.00000000 0.00000000 -0.70600514
Link 1 9 1 0 -0.06488100
Link 2 9 2 0 0.46422466
Link 3 9 3 0 -0.21108106
Link 4 9 4 0 -0.57140727
Link 5 9 5 0 -0.32192098
Link 6 9 6 0 -0.64431511
Link 1 10 7 0 0.16885550
Link 2 10 8 0 0.00764054
Link 3 10 9 0 0.06532563
Link 4 10 10 0 -0.34985787
Link 5 10 11 0 0.00174113
Link 6 10 12 0 0.45534749
Link 9 7 13 0 -0.18475600
Link 10 7 14 0 -0.19088970
Link 9 8 15 0 0.29640069
Link 10 8 16 0 0.55215337
GenomeEnd

