GenomeStart 1401
Neuron 1 1 0.00000000 1 0.00000000 0.00000000 0.00000000 0.00000000
Neuron 2 1 0.00000000 1 0.00000000 0.00000000 0.00000000 0.00000000
Neuron 3 1 0.00000000 1 0.00000000 0.00000000 0.00000000 0.00000000
Neuron 4 1 0.00000000 1 0.00000000 0.00000000 0.00000000 0.00000000
Neuron 5 1 0.00000000 1 0.00000000 0.00000000 0.00000000 0.00000000
Neuron 6 2 0.00000000 1 0.00000000 0.00000000 0.00000000 0.00000000
Neuron 7 4 1.00000000 2 3.74692014 0.00000000 0.00000000 0.73068463
Neuron 8 4 1.00000000 2 3.38646386 0.00000000 0.00000000 -0.56443809
Neuron 9 3 0.50000000 6 3.63102059 0.00000000 0.00000000 0.87503893
Neuron 10 3 0.50000000 6 3.63009949 0.00000000 0.00000000 -0.26594605
Link 1 9 1 0 -0.40845723
Link 2 9 2 0 -0.15679059
Link 3 9 3 0 0.53119802
Link 4 9 4 0 0.24717249
Link 5 9 5 0 0.09965809
Link 6 9 6 0 -0.30403855
Link 1 10 7 0 -0.13240146
Link 2 10 8 0 0.11013775
Link 3 10 9 0 0.65206957
Link 4 10 10 0 -0.34030877
Link 5 10 11 0 -0.07392726
Link 6 10 12 0 0.46325043
Link 9 7 13 0 -0.24037406
Link 10 7 14 0 0.79324565
Link 9 8 15 0 0.42451658
Link 10 8 16 0 0.02931003
GenomeEnd

