GenomeStart 937
Neuron 1 1 0.00000000 1 0.00000000 0.00000000 0.00000000 0.00000000
Neuron 2 1 0.00000000 1 0.00000000 0.00000000 0.00000000 0.00000000
Neuron 3 1 0.00000000 1 0.00000000 0.00000000 0.00000000 0.00000000
Neuron 4 1 0.00000000 1 0.00000000 0.00000000 0.00000000 0.00000000
Neuron 5 1 0.00000000 1 0.00000000 0.00000000 0.00000000 0.00000000
Neuron 6 2 0.00000000 1 0.00000000 0.00000000 0.00000000 0.00000000
Neuron 7 4 1.00000000 2 3.22241441 0.00000000 0.00000000 0.16628029
Neuron 8 4 1.00000000 4 3.28223070 0.00000000 0.00000000 -0.17476828
Neuron 9 3 0.50000000 4 3.33092364 0.00000000 0.00000000 0.77153650
Neuron 10 3 0.50000000 6 3.37926078 0.00000000 0.00000000 -0.31790409
Link 1 9 1 0 -0.47252145
Link 2 9 2 0 0.11088280
Link 3 9 3 0 0.17842830
Link 4 9 4 0 -0.57041342
Link 5 9 5 0 0.04913459
Link 6 9 6 0 0.10101145
Link 1 10 7 0 0.02667674
Link 2 10 8 0 -0.72135042
Link 3 10 9 0 0.08517350
Link 4 10 10 0 0.05064059
Link 5 10 11 0 0.69413696
Link 6 10 12 0 0.16081874
Link 9 7 13 0 -0.12461026
Link 10 7 14 0 -0.37730641
Link 9 8 15 0 -0.32800893
Link 10 8 16 0 0.32600354
GenomeEnd

