GenomeStart 350
Neuron 1 1 0.00000000 1 0.00000000 0.00000000 0.00000000 0.00000000
Neuron 2 1 0.00000000 1 0.00000000 0.00000000 0.00000000 0.00000000
Neuron 3 1 0.00000000 1 0.00000000 0.00000000 0.00000000 0.00000000
Neuron 4 1 0.00000000 1 0.00000000 0.00000000 0.00000000 0.00000000
Neuron 5 1 0.00000000 1 0.00000000 0.00000000 0.00000000 0.00000000
Neuron 6 2 0.00000000 1 0.00000000 0.00000000 0.00000000 0.00000000
Neuron 7 4 1.00000000 2 3.75086931 0.00000000 0.00000000 0.09713999
Neuron 8 4 1.00000000 9 3.40711730 0.00000000 0.00000000 0.16091514
Neuron 9 3 0.50000000 6 3.48244507 0.00000000 0.00000000 -0.03326334
Neuron 10 3 0.50000000 6 3.51489397 0.00000000 0.00000000 0.02620399
Link 1 9 1 0 0.81980262
Link 2 9 2 0 0.02311960
Link 3 9 3 0 0.35866365
Link 4 9 4 0 -0.21889420
Link 5 9 5 0 0.08949657
Link 6 9 6 0 0.23580097
Link 1 10 7 0 -0.09601104
Link 2 10 8 0 0.49398787
Link 3 10 9 0 -0.24709328
Link 4 10 10 0 -0.49161356
Link 5 10 11 0 -0.84296169
Link 6 10 12 0 -0.37977243
Link 9 7 13 0 -0.09384021
Link 10 7 14 0 0.86960001
Link 9 8 15 0 -0.05892789
Link 10 8 16 0 -0.04702780
GenomeEnd

