GenomeStart 162
Neuron 1 1 0.00000000 1 0.00000000 0.00000000 0.00000000 0.00000000
Neuron 2 1 0.00000000 1 0.00000000 0.00000000 0.00000000 0.00000000
Neuron 3 1 0.00000000 1 0.00000000 0.00000000 0.00000000 0.00000000
Neuron 4 1 0.00000000 1 0.00000000 0.00000000 0.00000000 0.00000000
Neuron 5 1 0.00000000 1 0.00000000 0.00000000 0.00000000 0.00000000
Neuron 6 2 0.00000000 1 0.00000000 0.00000000 0.00000000 0.00000000
Neuron 7 4 1.00000000 4 3.24256984 0.00000000 0.00000000 0.56222327
Neuron 8 4 1.00000000 2 3.85861402 0.00000000 0.00000000 0.45896714
Neuron 9 3 0.50000000 6 3.53208371 0.00000000 0.00000000 -0.08982849
Neuron 10 3 0.50000000 6 3.21318825 0.00000000 0.00000000 0.18159510
Link 1 9 1 0 -0.22502619
Link 2 9 2 0 -0.16588813
Link 3 9 3 0 0.64346113
Link 4 9 4 0 0.64555449
Link 5 9 5 0 0.22373928
Link 6 9 6 0 -0.16049430
Link 1 10 7 0 0.30915727
Link 2 10 8 0 -0.82733649
Link 3 10 9 0 -0.13903143
Link 4 10 10 0 -0.00364030
Link 5 10 11 0 -0.12131526
Link 6 10 12 0 0.32805515
Link 9 7 13 0 -0.26039989
Link 10 7 14 0 -0.28132882
Link 9 8 15 0 -0.31467387
Link 10 8 16 0 -0.10737002
GenomeEnd

