GenomeStart 1050
Neuron 1 1 0.00000000 1 0.00000000 0.00000000 0.00000000 0.00000000
Neuron 2 1 0.00000000 1 0.00000000 0.00000000 0.00000000 0.00000000
Neuron 3 1 0.00000000 1 0.00000000 0.00000000 0.00000000 0.00000000
Neuron 4 1 0.00000000 1 0.00000000 0.00000000 0.00000000 0.00000000
Neuron 5 1 0.00000000 1 0.00000000 0.00000000 0.00000000 0.00000000
Neuron 6 2 0.00000000 1 0.00000000 0.00000000 0.00000000 0.00000000
Neuron 7 4 1.00000000 2 3.46417712 0.00000000 0.00000000 -0.63639095
Neuron 8 4 1.00000000 11 3.26338675 0.00000000 0.00000000 0.38084219
Neuron 9 3 0.50000000 6 3.36984219 0.00000000 0.00000000 -0.34771419
Neuron 10 3 0.50000000 6 3.17963664 0.00000000 0.00000000 -0.60362763
Link 1 9 1 0 -0.11336396
Link 2 9 2 0 0.36825425
Link 3 9 3 0 -0.30734937
Link 4 9 4 0 0.69182690
Link 5 9 5 0 0.09225424
Link 6 9 6 0 0.27216735
Link 1 10 7 0 0.14613628
Link 2 10 8 0 0.03609398
Link 3 10 9 0 0.38305833
Link 4 10 10 0 0.37235036
Link 5 10 11 0 0.34575978
Link 6 10 12 0 -0.43775868
Link 9 7 13 0 0.09236080
Link 10 7 14 0 0.33438499
Link 9 8 15 0 -0.59835099
Link 10 8 16 0 0.65388906
GenomeEnd

