GenomeStart 144
Neuron 1 1 0.00000000 1 0.00000000 0.00000000 0.00000000 0.00000000
Neuron 2 1 0.00000000 1 0.00000000 0.00000000 0.00000000 0.00000000
Neuron 3 1 0.00000000 1 0.00000000 0.00000000 0.00000000 0.00000000
Neuron 4 1 0.00000000 1 0.00000000 0.00000000 0.00000000 0.00000000
Neuron 5 1 0.00000000 1 0.00000000 0.00000000 0.00000000 0.00000000
Neuron 6 2 0.00000000 1 0.00000000 0.00000000 0.00000000 0.00000000
Neuron 7 4 1.00000000 9 3.24719103 0.00000000 0.00000000 0.17292128
Neuron 8 4 1.00000000 2 3.51085618 0.00000000 0.00000000 -0.29207192
Neuron 9 3 0.50000000 6 3.43608499 0.00000000 0.00000000 0.11147280
Neuron 10 3 0.50000000 6 3.50783860 0.00000000 0.00000000 0.39901120
Link 1 9 1 0 -0.24545943
Link 2 9 2 0 0.12637893
Link 3 9 3 0 0.21138625
Link 4 9 4 0 -0.36011422
Link 5 9 5 0 -0.69622845
Link 6 9 6 0 0.61496168
Link 1 10 7 0 -0.08527316
Link 2 10 8 0 -0.02598776
Link 3 10 9 0 -0.48236749
Link 4 10 10 0 0.00756134
Link 5 10 11 0 -0.71683957
Link 6 10 12 0 -0.70824472
Link 9 7 13 0 0.01022238
Link 10 7 14 0 -0.53836353
Link 9 8 15 0 0.70033019
Link 10 8 16 0 -0.45014450
GenomeEnd

