GenomeStart 1014
Neuron 1 1 0.00000000 1 0.00000000 0.00000000 0.00000000 0.00000000
Neuron 2 1 0.00000000 1 0.00000000 0.00000000 0.00000000 0.00000000
Neuron 3 1 0.00000000 1 0.00000000 0.00000000 0.00000000 0.00000000
Neuron 4 1 0.00000000 1 0.00000000 0.00000000 0.00000000 0.00000000
Neuron 5 1 0.00000000 1 0.00000000 0.00000000 0.00000000 0.00000000
Neuron 6 2 0.00000000 1 0.00000000 0.00000000 0.00000000 0.00000000
Neuron 7 4 1.00000000 2 3.06604735 0.00000000 0.00000000 0.26529885
Neuron 8 4 1.00000000 2 3.43760237 0.00000000 0.00000000 -0.62511417
Neuron 9 3 0.50000000 6 3.40474117 0.00000000 0.00000000 0.69495944
Neuron 10 3 0.50000000 6 3.45115245 0.00000000 0.00000000 -0.37861671
Link 1 9 1 0 -0.05021713
Link 2 9 2 0 0.23500798
Link 3 9 3 0 0.62491310
Link 4 9 4 0 -0.08360010
Link 5 9 5 0 0.26054326
Link 6 9 6 0 0.27318046
Link 1 10 7 0 0.10671227
Link 2 10 8 0 -0.23069796
Link 3 10 9 0 -0.28451076
Link 4 10 10 0 0.11283026
Link 5 10 11 0 0.38051594
Link 6 10 12 0 -0.47632626
Link 9 7 13 0 -0.31475795
Link 10 7 14 0 0.32916940
Link 9 8 15 0 -0.34006583
Link 10 8 16 0 -0.12388114
GenomeEnd

