GenomeStart 463
Neuron 1 1 0.00000000 1 0.00000000 0.00000000 0.00000000 0.00000000
Neuron 2 1 0.00000000 1 0.00000000 0.00000000 0.00000000 0.00000000
Neuron 3 1 0.00000000 1 0.00000000 0.00000000 0.00000000 0.00000000
Neuron 4 1 0.00000000 1 0.00000000 0.00000000 0.00000000 0.00000000
Neuron 5 1 0.00000000 1 0.00000000 0.00000000 0.00000000 0.00000000
Neuron 6 2 0.00000000 1 0.00000000 0.00000000 0.00000000 0.00000000
Neuron 7 4 1.00000000 6 3.65135950 0.00000000 0.00000000 0.22874566
Neuron 8 4 1.00000000 2 3.18232189 0.00000000 0.00000000 -0.07894144
Neuron 9 3 0.50000000 6 3.17467597 0.00000000 0.00000000 -0.44857809
Neuron 10 3 0.50000000 6 3.61617128 0.00000000 0.00000000 0.47651763
Link 1 9 1 0 0.01163306
Link 2 9 2 0 -0.15975420
Link 3 9 3 0 0.19359715
Link 4 9 4 0 0.38323025
Link 5 9 5 0 -0.55579246
Link 6 9 6 0 -0.10551236
Link 1 10 7 0 -0.41981852
Link 2 10 8 0 -0.08661273
Link 3 10 9 0 0.62123748
Link 4 10 10 0 -0.16888783
Link 5 10 11 0 0.17205689
Link 6 10 12 0 0.35934900
Link 9 7 13 0 -0.37557366
Link 10 7 14 0 0.24022329
Link 9 8 15 0 -0.39365896
Link 10 8 16 0 0.33022168
GenomeEnd

