GenomeStart 1400
Neuron 1 1 0.00000000 1 0.00000000 0.00000000 0.00000000 0.00000000
Neuron 2 1 0.00000000 1 0.00000000 0.00000000 0.00000000 0.00000000
Neuron 3 1 0.00000000 1 0.00000000 0.00000000 0.00000000 0.00000000
Neuron 4 1 0.00000000 1 0.00000000 0.00000000 0.00000000 0.00000000
Neuron 5 1 0.00000000 1 0.00000000 0.00000000 0.00000000 0.00000000
Neuron 6 2 0.00000000 1 0.00000000 0.00000000 0.00000000 0.00000000
Neuron 7 4 1.00000000 9 3.20929958 0.00000000 0.00000000 0.20432013
Neuron 8 4 1.00000000 2 3.47033148 0.00000000 0.00000000 0.06207904
Neuron 9 3 0.50000000 6 3.53545045 0.00000000 0.00000000 0.11205475
Neuron 10 3 0.50000000 6 3.42779097 0.00000000 0.00000000 0.54464335
Link 1 9 1 0 0.05000198
Link 2 9 2 0 -0.65404166
Link 3 9 3 0 0.15084147
Link 4 9 4 0 -0.26749888
Link 5 9 5 0 0.20143598
Link 6 9 6 0 0.34389035
Link 1 10 7 0 -0.01188337
Link 2 10 8 0 -0.18184636
Link 3 10 9 0 0.49986214
Link 4 10 10 0 -0.68473180
Link 5 10 11 0 0.13360488
Link 6 10 12 0 0.36818090
Link 9 7 13 0 -0.18823510
Link 10 7 14 0 0.86838214
Link 9 8 15 0 0.47760490
Link 10 8 16 0 -0.38875141
GenomeEnd

