GenomeStart 69
Neuron 1 1 0.00000000 1 0.00000000 0.00000000 0.00000000 0.00000000
Neuron 2 1 0.00000000 1 0.00000000 0.00000000 0.00000000 0.00000000
Neuron 3 1 0.00000000 1 0.00000000 0.00000000 0.00000000 0.00000000
Neuron 4 1 0.00000000 1 0.00000000 0.00000000 0.00000000 0.00000000
Neuron 5 1 0.00000000 1 0.00000000 0.00000000 0.00000000 0.00000000
Neuron 6 2 0.00000000 1 0.00000000 0.00000000 0.00000000 0.00000000
Neuron 7 4 1.00000000 2 3.29496232 0.00000000 0.00000000 -0.58790940
Neuron 8 4 1.00000000 2 3.58786530 0.00000000 0.00000000 0.31561326
Neuron 9 3 0.50000000 9 3.29506311 0.00000000 0.00000000 0.71648371
Neuron 10 3 0.50000000 6 3.66281638 0.00000000 0.00000000 -0.66453525
Link 1 9 1 0 -0.32074272
Link 2 9 2 0 -0.12155594
Link 3 9 3 0 -0.30840730
Link 4 9 4 0 -0.05013215
Link 5 9 5 0 -0.05823329
Link 6 9 6 0 -0.28909798
Link 1 10 7 0 -0.10310515
Link 2 10 8 0 0.31164312
Link 3 10 9 0 0.10467682
Link 4 10 10 0 -0.40905990
Link 5 10 11 0 0.13571384
Link 6 10 12 0 0.12097808
Link 9 7 13 0 -0.14592990
Link 10 7 14 0 0.70663480
Link 9 8 15 0 -0.38688549
Link 10 8 16 0 0.02246505
GenomeEnd

