GenomeStart 392
Neuron 1 1 0.00000000 1 0.00000000 0.00000000 0.00000000 0.00000000
Neuron 2 1 0.00000000 1 0.00000000 0.00000000 0.00000000 0.00000000
Neuron 3 1 0.00000000 1 0.00000000 0.00000000 0.00000000 0.00000000
Neuron 4 1 0.00000000 1 0.00000000 0.00000000 0.00000000 0.00000000
Neuron 5 1 0.00000000 1 0.00000000 0.00000000 0.00000000 0.00000000
Neuron 6 2 0.00000000 1 0.00000000 0.00000000 0.00000000 0.00000000
Neuron 7 4 1.00000000 9 3.50071270 0.00000000 0.00000000 0.06793931
Neuron 8 4 1.00000000 2 3.15508204 0.00000000 0.00000000 0.16324384
Neuron 9 3 0.50000000 6 3.76693789 0.00000000 0.00000000 0.72348259
Neuron 10 3 0.50000000 6 3.44060125 0.00000000 0.00000000 0.05479181
Link 1 9 1 0 -0.05317458
Link 2 9 2 0 0.50452165
Link 3 9 3 0 0.24810858
Link 4 9 4 0 -0.56171468
Link 5 9 5 0 -0.30362961
Link 6 9 6 0 0.30375664
Link 1 10 7 0 -0.75090659
Link 2 10 8 0 0.12760133
Link 3 10 9 0 -0.55458961
Link 4 10 10 0 -0.53462702
Link 5 10 11 0 0.11594260
Link 6 10 12 0 0.51537369
Link 9 7 13 0 0.26505747
Link 10 7 14 0 -0.09229034
Link 9 8 15 0 0.71976237
Link 10 8 16 0 -0.04804274
GenomeEnd

