GenomeStart 3082
Neuron 1 1 0.00000000 1 0.00000000 0.00000000 0.00000000 0.00000000
Neuron 2 1 0.00000000 1 0.00000000 0.00000000 0.00000000 0.00000000
Neuron 3 1 0.00000000 1 0.00000000 0.00000000 0.00000000 0.00000000
Neuron 4 1 0.00000000 1 0.00000000 0.00000000 0.00000000 0.00000000
Neuron 5 1 0.00000000 1 0.00000000 0.00000000 0.00000000 0.00000000
Neuron 6 2 0.00000000 1 0.00000000 0.00000000 0.00000000 0.00000000
Neuron 7 4 1.00000000 2 3.18773691 0.00000000 0.00000000 0.06772225
Neuron 8 4 1.00000000 11 3.48241037 0.00000000 0.00000000 -0.26207783
Neuron 9 3 0.50000000 6 3.48151651 0.00000000 0.00000000 0.21616206
Neuron 10 3 0.50000000 6 3.32140620 0.00000000 0.00000000 0.13714229
Link 1 9 1 0 -0.34704652
Link 3 9 3 0 0.20602223
Link 4 9 4 0 0.20813968
Link 5 9 5 0 0.02590510
Link 6 9 6 0 0.49513638
Link 1 10 7 0 0.03251260
Link 2 10 8 0 -0.02967857
Link 3 10 9 0 -0.22492471
Link 4 10 10 0 -0.58640159
Link 5 10 11 0 -0.03745250
Link 6 10 12 0 -0.29777865
Link 9 7 13 0 -0.08373351
Link 10 7 14 0 0.94586275
Link 9 8 15 0 -0.09380651
Link 10 8 16 0 -0.22062599
GenomeEnd

