GenomeStart 1326
Neuron 1 1 0.00000000 1 0.00000000 0.00000000 0.00000000 0.00000000
Neuron 2 1 0.00000000 1 0.00000000 0.00000000 0.00000000 0.00000000
Neuron 3 1 0.00000000 1 0.00000000 0.00000000 0.00000000 0.00000000
Neuron 4 1 0.00000000 1 0.00000000 0.00000000 0.00000000 0.00000000
Neuron 5 1 0.00000000 1 0.00000000 0.00000000 0.00000000 0.00000000
Neuron 6 2 0.00000000 1 0.00000000 0.00000000 0.00000000 0.00000000
Neuron 7 4 1.00000000 2 3.33927722 0.00000000 0.00000000 0.45654332
Neuron 8 4 1.00000000 6 3.22562815 0.00000000 0.00000000 0.14672754
Neuron 9 3 0.50000000 6 3.72398755 0.00000000 0.00000000 0.45062371
Neuron 10 3 0.50000000 9 3.23089034 0.00000000 0.00000000 0.72671770
Link 1 9 1 0 0.52335788
Link 2 9 2 0 0.70985866
Link 4 9 4 0 0.23078370
Link 5 9 5 0 0.47204030
Link 6 9 6 0 -0.42717296
Link 1 10 7 0 -0.05678856
Link 2 10 8 0 0.60739159
Link 3 10 9 0 0.41271779
Link 4 10 10 0 0.35153169
Link 5 10 11 0 -0.21372564
Link 6 10 12 0 0.14903171
Link 9 7 13 0 0.23102815
Link 10 7 14 0 0.13690769
Link 9 8 15 0 0.42748676
Link 10 8 16 0 0.08192404
GenomeEnd

