GenomeStart 1419
Neuron 1 1 0.00000000 1 0.00000000 0.00000000 0.00000000 0.00000000
Neuron 2 1 0.00000000 1 0.00000000 0.00000000 0.00000000 0.00000000
Neuron 3 1 0.00000000 1 0.00000000 0.00000000 0.00000000 0.00000000
Neuron 4 1 0.00000000 1 0.00000000 0.00000000 0.00000000 0.00000000
Neuron 5 1 0.00000000 1 0.00000000 0.00000000 0.00000000 0.00000000
Neuron 6 2 0.00000000 1 0.00000000 0.00000000 0.00000000 0.00000000
Neuron 7 4 1.00000000 2 3.20162781 0.00000000 0.00000000 -0.52101916
Neuron 8 4 1.00000000 2 3.37327870 0.00000000 0.00000000 -0.83864860
Neuron 9 3 0.50000000 11 3.42431261 0.00000000 0.00000000 0.08000381
Neuron 10 3 0.50000000 6 3.38186986 0.00000000 0.00000000 -0.60529634
Link 1 9 1 0 0.32867708
Link 2 9 2 0 0.28351230
Link 3 9 3 0 -0.71207192
Link 4 9 4 0 0.49746639
Link 5 9 5 0 -0.54656335
Link 6 9 6 0 -0.94075084
Link 1 10 7 0 -0.17780128
Link 2 10 8 0 0.23045008
Link 3 10 9 0 -0.73533487
Link 4 10 10 0 0.14361935
Link 5 10 11 0 0.12417560
Link 6 10 12 0 -0.62041179
Link 9 7 13 0 0.36056668
Link 10 7 14 0 0.32216600
Link 9 8 15 0 0.12597707
Link 10 8 16 0 -0.68689483
GenomeEnd

