GenomeStart 4014
Neuron 1 1 0.00000000 1 0.00000000 0.00000000 0.00000000 0.00000000
Neuron 2 1 0.00000000 1 0.00000000 0.00000000 0.00000000 0.00000000
Neuron 3 1 0.00000000 1 0.00000000 0.00000000 0.00000000 0.00000000
Neuron 4 1 0.00000000 1 0.00000000 0.00000000 0.00000000 0.00000000
Neuron 5 1 0.00000000 1 0.00000000 0.00000000 0.00000000 0.00000000
Neuron 6 2 0.00000000 1 0.00000000 0.00000000 0.00000000 0.00000000
Neuron 7 4 1.00000000 2 3.75701553 0.00000000 0.00000000 0.16004230
Neuron 8 4 1.00000000 2 3.46780263 0.00000000 0.00000000 -0.18275189
Neuron 9 3 0.50000000 9 3.85331547 0.00000000 0.00000000 0.47244593
Neuron 10 3 0.50000000 6 3.61461954 0.00000000 0.00000000 0.04349640
Link 1 9 1 0 -0.28794683
Link 2 9 2 0 -0.05002351
Link 3 9 3 0 -0.09195372
Link 4 9 4 0 -0.48398870
Link 5 9 5 0 0.56211465
Link 6 9 6 0 0.30107485
Link 1 10 7 0 0.24294724
Link 2 10 8 0 -0.18920204
Link 3 10 9 0 -0.09026275
Link 4 10 10 0 -0.83429801
Link 5 10 11 0 -0.13135653
Link 6 10 12 0 -0.55475956
Link 9 7 13 0 -0.25748495
Link 10 7 14 0 -0.02488920
Link 9 8 15 0 0.85098219
Link 10 8 16 0 0.45147712
Link 4 7 20 0 0.06511709
GenomeEnd

