GenomeStart 99
Neuron 1 1 0.00000000 1 0.00000000 0.00000000 0.00000000 0.00000000
Neuron 2 1 0.00000000 1 0.00000000 0.00000000 0.00000000 0.00000000
Neuron 3 1 0.00000000 1 0.00000000 0.00000000 0.00000000 0.00000000
Neuron 4 1 0.00000000 1 0.00000000 0.00000000 0.00000000 0.00000000
Neuron 5 1 0.00000000 1 0.00000000 0.00000000 0.00000000 0.00000000
Neuron 6 2 0.00000000 1 0.00000000 0.00000000 0.00000000 0.00000000
Neuron 7 4 1.00000000 2 3.47503443 0.00000000 0.00000000 -0.56429041
Neuron 8 4 1.00000000 4 3.45034693 0.00000000 0.00000000 0.12301535
Neuron 9 3 0.50000000 6 3.32969361 0.00000000 0.00000000 0.15495322
Neuron 10 3 0.50000000 6 3.65520252 0.00000000 0.00000000 -0.50827882
Link 1 9 1 0 0.14380284
Link 2 9 2 0 -0.47676338
Link 3 9 3 0 0.57188325
Link 4 9 4 0 0.39776230
Link 5 9 5 0 0.44476631
Link 6 9 6 0 0.08848909
Link 1 10 7 0 0.02129894
Link 2 10 8 0 -0.60296079
Link 3 10 9 0 0.59712609
Link 4 10 10 0 0.53051308
Link 5 10 11 0 0.17525607
Link 6 10 12 0 0.64895467
Link 9 7 13 0 0.40749372
Link 10 7 14 0 0.24308178
Link 9 8 15 0 -0.09414262
Link 10 8 16 0 -0.23361252
GenomeEnd

