GenomeStart 1050
Neuron 1 1 0.00000000 1 0.00000000 0.00000000 0.00000000 0.00000000
Neuron 2 1 0.00000000 1 0.00000000 0.00000000 0.00000000 0.00000000
Neuron 3 1 0.00000000 1 0.00000000 0.00000000 0.00000000 0.00000000
Neuron 4 1 0.00000000 1 0.00000000 0.00000000 0.00000000 0.00000000
Neuron 5 1 0.00000000 1 0.00000000 0.00000000 0.00000000 0.00000000
Neuron 6 2 0.00000000 1 0.00000000 0.00000000 0.00000000 0.00000000
Neuron 7 4 1.00000000 2 3.49016925 0.00000000 0.00000000 0.22998445
Neuron 8 4 1.00000000 9 3.17441630 0.00000000 0.00000000 -0.86543307
Neuron 9 3 0.50000000 11 3.29925940 0.00000000 0.00000000 0.44193605
Neuron 10 3 0.50000000 6 3.66125533 0.00000000 0.00000000 -0.48155844
Link 1 9 1 0 0.05813821
Link 2 9 2 0 0.22809443
Link 3 9 3 0 -0.53253547
Link 4 9 4 0 -0.13931170
Link 5 9 5 0 -0.09602947
Link 6 9 6 0 0.83591305
Link 1 10 7 0 0.01693043
Link 2 10 8 0 -0.62743733
Link 3 10 9 0 0.63272261
Link 4 10 10 0 0.24911516
Link 5 10 11 0 -0.53349182
Link 6 10 12 0 -0.01039231
Link 9 7 13 0 0.57592128
Link 10 7 14 0 -0.25060393
Link 9 8 15 0 -0.11196208
Link 10 8 16 0 0.09263317
GenomeEnd

