GenomeStart 2800
Neuron 1 1 0.00000000 1 0.00000000 0.00000000 0.00000000 0.00000000
Neuron 2 1 0.00000000 1 0.00000000 0.00000000 0.00000000 0.00000000
Neuron 3 1 0.00000000 1 0.00000000 0.00000000 0.00000000 0.00000000
Neuron 4 1 0.00000000 1 0.00000000 0.00000000 0.00000000 0.00000000
Neuron 5 1 0.00000000 1 0.00000000 0.00000000 0.00000000 0.00000000
Neuron 6 2 0.00000000 1 0.00000000 0.00000000 0.00000000 0.00000000
Neuron 7 4 1.00000000 2 3.38356070 0.00000000 0.00000000 -0.09794683
Neuron 8 4 1.00000000 2 3.84913513 0.00000000 0.00000000 0.70889552
Neuron 9 3 0.50000000 6 3.53817543 0.00000000 0.00000000 0.20658206
Neuron 10 3 0.50000000 6 3.60265384 0.00000000 0.00000000 -0.01188785
Link 1 9 1 0 0.06443036
Link 2 9 2 0 0.00913269
Link 3 9 3 0 -0.03536020
Link 4 9 4 0 -0.51836493
Link 5 9 5 0 0.01318934
Link 6 9 6 0 0.45321260
Link 1 10 7 0 0.04941084
Link 2 10 8 0 0.29567464
Link 3 10 9 0 -0.29299431
Link 4 10 10 0 -0.35597500
Link 5 10 11 0 -0.13974310
Link 6 10 12 0 0.63384812
Link 9 7 13 0 -0.12771266
Link 10 7 14 0 -0.65602257
Link 9 8 15 0 0.17630089
Link 10 8 16 0 -0.84172428
GenomeEnd

