GenomeStart 312
Neuron 1 1 0.00000000 1 0.00000000 0.00000000 0.00000000 0.00000000
Neuron 2 1 0.00000000 1 0.00000000 0.00000000 0.00000000 0.00000000
Neuron 3 1 0.00000000 1 0.00000000 0.00000000 0.00000000 0.00000000
Neuron 4 1 0.00000000 1 0.00000000 0.00000000 0.00000000 0.00000000
Neuron 5 1 0.00000000 1 0.00000000 0.00000000 0.00000000 0.00000000
Neuron 6 2 0.00000000 1 0.00000000 0.00000000 0.00000000 0.00000000
Neuron 7 4 1.00000000 2 3.49494614 0.00000000 0.00000000 0.50428478
Neuron 8 4 1.00000000 2 3.41341363 0.00000000 0.00000000 -0.06791207
Neuron 9 3 0.50000000 6 3.88228471 0.00000000 0.00000000 -0.29069121
Neuron 10 3 0.50000000 4 3.41039020 0.00000000 0.00000000 -0.19970302
Link 1 9 1 0 0.24494712
Link 2 9 2 0 0.21210674
Link 3 9 3 0 0.62967408
Link 4 9 4 0 0.21014782
Link 5 9 5 0 -0.10572156
Link 6 9 6 0 -0.12900029
Link 1 10 7 0 0.01177033
Link 2 10 8 0 -0.21142343
Link 3 10 9 0 0.33614775
Link 4 10 10 0 0.24863878
Link 5 10 11 0 0.46734087
Link 6 10 12 0 -0.02479605
Link 9 7 13 0 -0.65614083
Link 10 7 14 0 0.57001441
Link 9 8 15 0 -0.17755075
Link 10 8 16 0 0.04195273
GenomeEnd

