GenomeStart 1275
Neuron 1 1 0.00000000 1 0.00000000 0.00000000 0.00000000 0.00000000
Neuron 2 1 0.00000000 1 0.00000000 0.00000000 0.00000000 0.00000000
Neuron 3 1 0.00000000 1 0.00000000 0.00000000 0.00000000 0.00000000
Neuron 4 1 0.00000000 1 0.00000000 0.00000000 0.00000000 0.00000000
Neuron 5 1 0.00000000 1 0.00000000 0.00000000 0.00000000 0.00000000
Neuron 6 2 0.00000000 1 0.00000000 0.00000000 0.00000000 0.00000000
Neuron 7 4 1.00000000 2 3.48363312 0.00000000 0.00000000 0.60080248
Neuron 8 4 1.00000000 2 3.59400545 0.00000000 0.00000000 -0.12692771
Neuron 9 3 0.50000000 6 3.37415279 0.00000000 0.00000000 -0.40210072
Neuron 10 3 0.50000000 6 3.84823109 0.00000000 0.00000000 0.38609475
Link 1 9 1 0 -0.16884164
Link 2 9 2 0 0.72784198
Link 3 9 3 0 0.96303168
Link 4 9 4 0 0.06087146
Link 5 9 5 0 -0.67948036
Link 6 9 6 0 -0.03138708
Link 1 10 7 0 -0.17720612
Link 2 10 8 0 -0.51314694
Link 3 10 9 0 -0.15627880
Link 4 10 10 0 0.49413194
Link 5 10 11 0 0.02539261
Link 6 10 12 0 -0.40147667
Link 9 7 13 0 0.24369620
Link 10 7 14 0 0.16905562
Link 9 8 15 0 -0.39077062
Link 10 8 16 0 0.21649448
GenomeEnd

