GenomeStart 895
Neuron 1 1 0.00000000 1 0.00000000 0.00000000 0.00000000 0.00000000
Neuron 2 1 0.00000000 1 0.00000000 0.00000000 0.00000000 0.00000000
Neuron 3 1 0.00000000 1 0.00000000 0.00000000 0.00000000 0.00000000
Neuron 4 1 0.00000000 1 0.00000000 0.00000000 0.00000000 0.00000000
Neuron 5 1 0.00000000 1 0.00000000 0.00000000 0.00000000 0.00000000
Neuron 6 2 0.00000000 1 0.00000000 0.00000000 0.00000000 0.00000000
Neuron 7 4 1.00000000 2 3.83851853 0.00000000 0.00000000 0.50071166
Neuron 8 4 1.00000000 2 3.59700125 0.00000000 0.00000000 0.68099215
Neuron 9 3 0.50000000 6 3.45191449 0.00000000 0.00000000 -0.40250910
Neuron 10 3 0.50000000 6 3.63661209 0.00000000 0.00000000 0.19201737
Link 1 9 1 0 -0.32998991
Link 2 9 2 0 0.34208433
Link 3 9 3 0 0.02154229
Link 4 9 4 0 0.46818765
Link 5 9 5 0 -0.53007632
Link 6 9 6 0 -0.02966911
Link 1 10 7 0 0.14126276
Link 2 10 8 0 -0.12956320
Link 3 10 9 0 -0.01638134
Link 4 10 10 0 0.05661983
Link 5 10 11 0 -0.10870817
Link 6 10 12 0 0.66100996
Link 9 7 13 0 -0.69424335
Link 10 7 14 0 -0.67451206
Link 9 8 15 0 0.33225112
Link 10 8 16 0 -0.20849147
GenomeEnd

