GenomeStart 2109
Neuron 1 1 0.00000000 1 0.00000000 0.00000000 0.00000000 0.00000000
Neuron 2 1 0.00000000 1 0.00000000 0.00000000 0.00000000 0.00000000
Neuron 3 1 0.00000000 1 0.00000000 0.00000000 0.00000000 0.00000000
Neuron 4 1 0.00000000 1 0.00000000 0.00000000 0.00000000 0.00000000
Neuron 5 1 0.00000000 1 0.00000000 0.00000000 0.00000000 0.00000000
Neuron 6 2 0.00000000 1 0.00000000 0.00000000 0.00000000 0.00000000
Neuron 7 4 1.00000000 2 3.26100022 0.00000000 0.00000000 -0.32516608
Neuron 8 4 1.00000000 2 3.55372508 0.00000000 0.00000000 -0.15657486
Neuron 9 3 0.50000000 9 3.50005934 0.00000000 0.00000000 0.72179879
Neuron 10 3 0.50000000 6 3.47046580 0.00000000 0.00000000 -0.26321536
Link 1 9 1 0 -0.03601159
Link 2 9 2 0 0.26799729
Link 3 9 3 0 0.07507377
Link 4 9 4 0 0.25773171
Link 5 9 5 0 0.49453526
Link 1 10 7 0 -0.03837167
Link 2 10 8 0 0.05446032
Link 3 10 9 0 -0.55766323
Link 4 10 10 0 -0.94821818
Link 5 10 11 0 0.24170141
Link 6 10 12 0 -0.53285570
Link 9 7 13 0 0.57748351
Link 10 7 14 0 -0.54688974
Link 9 8 15 0 -0.00107666
Link 10 8 16 0 -0.51799091
Link 8 9 33 1 -0.08863384
GenomeEnd

