GenomeStart 4552
Neuron 1 1 0.00000000 1 0.00000000 0.00000000 0.00000000 0.00000000
Neuron 2 1 0.00000000 1 0.00000000 0.00000000 0.00000000 0.00000000
Neuron 3 1 0.00000000 1 0.00000000 0.00000000 0.00000000 0.00000000
Neuron 4 1 0.00000000 1 0.00000000 0.00000000 0.00000000 0.00000000
Neuron 5 1 0.00000000 1 0.00000000 0.00000000 0.00000000 0.00000000
Neuron 6 2 0.00000000 1 0.00000000 0.00000000 0.00000000 0.00000000
Neuron 7 4 1.00000000 2 3.49533732 0.00000000 0.00000000 0.12585453
Neuron 8 4 1.00000000 4 3.62695093 0.00000000 0.00000000 -0.42507868
Neuron 9 3 0.50000000 6 3.70555186 0.00000000 0.00000000 0.03939797
Neuron 10 3 0.50000000 6 3.69848427 0.00000000 0.00000000 -0.59909543
Link 1 9 1 0 0.22471528
Link 2 9 2 0 0.73990115
Link 3 9 3 0 -0.55804224
Link 4 9 4 0 -0.42156967
Link 5 9 5 0 -0.65687648
Link 6 9 6 0 0.53923333
Link 1 10 7 0 -0.01624556
Link 2 10 8 0 0.11215311
Link 3 10 9 0 -0.42254811
Link 5 10 11 0 -0.47019931
Link 6 10 12 0 -0.21282667
Link 9 7 13 0 -0.39769895
Link 10 7 14 0 -0.49942929
Link 9 8 15 0 -0.23752732
Link 10 8 16 0 0.32388930
Link 6 8 45 0 0.44479868
GenomeEnd

