GenomeStart 1231
Neuron 1 1 0.00000000 1 0.00000000 0.00000000 0.00000000 0.00000000
Neuron 2 1 0.00000000 1 0.00000000 0.00000000 0.00000000 0.00000000
Neuron 3 1 0.00000000 1 0.00000000 0.00000000 0.00000000 0.00000000
Neuron 4 1 0.00000000 1 0.00000000 0.00000000 0.00000000 0.00000000
Neuron 5 1 0.00000000 1 0.00000000 0.00000000 0.00000000 0.00000000
Neuron 6 2 0.00000000 1 0.00000000 0.00000000 0.00000000 0.00000000
Neuron 7 4 1.00000000 2 3.68307467 0.00000000 0.00000000 0.04271508
Neuron 8 4 1.00000000 2 3.44773775 0.00000000 0.00000000 0.95645484
Neuron 9 3 0.50000000 4 3.19500280 0.00000000 0.00000000 -0.69204018
Neuron 10 3 0.50000000 4 3.53028240 0.00000000 0.00000000 0.45789005
Link 1 9 1 0 0.09636456
Link 2 9 2 0 -0.13665190
Link 3 9 3 0 0.60482799
Link 4 9 4 0 -0.17368397
Link 5 9 5 0 -0.37337259
Link 6 9 6 0 -0.00416161
Link 1 10 7 0 0.08846626
Link 2 10 8 0 -0.47041844
Link 3 10 9 0 -0.00014331
Link 4 10 10 0 -0.21675676
Link 5 10 11 0 -0.17377187
Link 6 10 12 0 0.46678999
Link 9 7 13 0 0.33734190
Link 10 7 14 0 0.28385236
Link 9 8 15 0 0.25565795
Link 10 8 16 0 -0.09366105
GenomeEnd

