GenomeStart 4247
Neuron 1 1 0.00000000 1 0.00000000 0.00000000 0.00000000 0.00000000
Neuron 2 1 0.00000000 1 0.00000000 0.00000000 0.00000000 0.00000000
Neuron 3 1 0.00000000 1 0.00000000 0.00000000 0.00000000 0.00000000
Neuron 4 1 0.00000000 1 0.00000000 0.00000000 0.00000000 0.00000000
Neuron 5 1 0.00000000 1 0.00000000 0.00000000 0.00000000 0.00000000
Neuron 6 2 0.00000000 1 0.00000000 0.00000000 0.00000000 0.00000000
Neuron 7 4 1.00000000 2 3.66480234 0.00000000 0.00000000 -0.53943732
Neuron 8 4 1.00000000 11 3.22624609 0.00000000 0.00000000 -0.05220608
Neuron 9 3 0.50000000 9 3.25804346 0.00000000 0.00000000 -0.48835390
Neuron 10 3 0.50000000 6 3.33457990 0.00000000 0.00000000 -0.45711284
Neuron 12 3 0.25000000 6 2.93777120 0.00000000 0.00000000 -0.18074855
Link 1 9 1 0 0.05412783
Link 2 9 2 0 -0.17776969
Link 3 9 3 0 0.57065883
Link 4 9 4 0 0.12482195
Link 5 9 5 0 -0.56301889
Link 6 9 6 0 0.45221149
Link 2 10 8 0 0.90093706
Link 3 10 9 0 -0.27152739
Link 4 10 10 0 0.01550889
Link 5 10 11 0 0.07702242
Link 6 10 12 0 -0.11476373
Link 9 7 13 0 0.22232623
Link 10 7 14 0 0.73337431
Link 9 8 15 0 -0.66266349
Link 10 8 16 0 0.23827357
Link 9 10 18 0 -0.13612942
Link 1 12 24 0 -0.14721947
Link 12 10 25 0 0.63241315
GenomeEnd

