GenomeStart 480
Neuron 1 1 0.00000000 1 0.00000000 0.00000000 0.00000000 0.00000000
Neuron 2 1 0.00000000 1 0.00000000 0.00000000 0.00000000 0.00000000
Neuron 3 1 0.00000000 1 0.00000000 0.00000000 0.00000000 0.00000000
Neuron 4 1 0.00000000 1 0.00000000 0.00000000 0.00000000 0.00000000
Neuron 5 1 0.00000000 1 0.00000000 0.00000000 0.00000000 0.00000000
Neuron 6 2 0.00000000 1 0.00000000 0.00000000 0.00000000 0.00000000
Neuron 7 4 1.00000000 4 3.61654935 0.00000000 0.00000000 -0.45973512
Neuron 8 4 1.00000000 2 3.22548747 0.00000000 0.00000000 0.33279888
Neuron 9 3 0.50000000 6 3.56878224 0.00000000 0.00000000 -0.37012827
Neuron 10 3 0.50000000 6 3.37994283 0.00000000 0.00000000 0.59657541
Link 1 9 1 0 0.67698126
Link 2 9 2 0 -0.19430452
Link 3 9 3 0 -0.27565778
Link 4 9 4 0 0.21960159
Link 5 9 5 0 0.73495908
Link 6 9 6 0 -0.66906273
Link 1 10 7 0 0.58516811
Link 2 10 8 0 -0.04520908
Link 3 10 9 0 -0.71780679
Link 4 10 10 0 -0.64893569
Link 5 10 11 0 0.09907453
Link 6 10 12 0 -0.85733757
Link 9 7 13 0 -0.14514649
Link 10 7 14 0 -0.57131432
Link 9 8 15 0 0.05668679
Link 10 8 16 0 -0.70710323
GenomeEnd

