GenomeStart 5257
Neuron 1 1 0.00000000 1 0.00000000 0.00000000 0.00000000 0.00000000
Neuron 2 1 0.00000000 1 0.00000000 0.00000000 0.00000000 0.00000000
Neuron 3 1 0.00000000 1 0.00000000 0.00000000 0.00000000 0.00000000
Neuron 4 1 0.00000000 1 0.00000000 0.00000000 0.00000000 0.00000000
Neuron 5 1 0.00000000 1 0.00000000 0.00000000 0.00000000 0.00000000
Neuron 6 2 0.00000000 1 0.00000000 0.00000000 0.00000000 0.00000000
Neuron 7 4 1.00000000 2 3.14538729 0.00000000 0.00000000 0.70919908
Neuron 8 4 1.00000000 4 3.45015391 0.00000000 0.00000000 0.06639658
Neuron 9 3 0.50000000 9 3.52420964 0.00000000 0.00000000 -0.69502113
Neuron 10 3 0.50000000 11 3.06832136 0.00000000 0.00000000 -0.38783931
Neuron 18 3 0.25000000 11 4.19397992 0.00000000 0.00000000 -0.45043609
Link 1 9 1 0 0.07350218
Link 2 9 2 0 -0.22705386
Link 3 9 3 0 -0.00099487
Link 4 9 4 0 -0.47735431
Link 5 9 5 0 0.25988606
Link 6 9 6 0 -0.51449825
Link 2 10 8 0 -0.22128501
Link 3 10 9 0 -0.42032675
Link 4 10 10 0 -0.06976433
Link 5 10 11 0 0.10916774
Link 6 10 12 0 0.40333463
Link 9 7 13 0 0.50795817
Link 10 7 14 0 -0.10939925
Link 9 8 15 0 0.05343127
Link 10 8 16 0 -0.40161691
Link 1 18 50 0 -0.50928883
Link 18 10 51 0 0.02293384
Link 4 18 76 0 0.21207237
GenomeEnd

