GenomeStart 1742
Neuron 1 1 0.00000000 1 0.00000000 0.00000000 0.00000000 0.00000000
Neuron 2 1 0.00000000 1 0.00000000 0.00000000 0.00000000 0.00000000
Neuron 3 1 0.00000000 1 0.00000000 0.00000000 0.00000000 0.00000000
Neuron 4 1 0.00000000 1 0.00000000 0.00000000 0.00000000 0.00000000
Neuron 5 1 0.00000000 1 0.00000000 0.00000000 0.00000000 0.00000000
Neuron 6 2 0.00000000 1 0.00000000 0.00000000 0.00000000 0.00000000
Neuron 7 4 1.00000000 4 3.43332568 0.00000000 0.00000000 0.56096193
Neuron 8 4 1.00000000 6 3.46567517 0.00000000 0.00000000 -0.61000473
Neuron 9 3 0.50000000 6 3.55796761 0.00000000 0.00000000 0.08515464
Neuron 10 3 0.50000000 6 3.19596192 0.00000000 0.00000000 -0.21292637
Neuron 14 3 0.25000000 4 2.37794534 0.00000000 0.00000000 0.73088382
Link 1 9 1 0 0.41765720
Link 3 9 3 0 0.18628569
Link 4 9 4 0 -0.25230682
Link 5 9 5 0 0.06772689
Link 6 9 6 0 -0.41031726
Link 1 10 7 0 -0.08002746
Link 2 10 8 0 0.08168845
Link 3 10 9 0 0.01714612
Link 4 10 10 0 0.54482307
Link 5 10 11 0 0.10413132
Link 6 10 12 0 -0.80921309
Link 9 7 13 0 -0.00932014
Link 10 7 14 0 -0.13008353
Link 9 8 15 0 -0.61235622
Link 10 8 16 0 -0.05283501
Link 1 8 27 0 -0.08551394
Link 2 14 35 0 1.00000000
Link 14 9 36 0 -0.04261554
GenomeEnd

