GenomeStart 1046
Neuron 1 1 0.00000000 1 0.00000000 0.00000000 0.00000000 0.00000000
Neuron 2 1 0.00000000 1 0.00000000 0.00000000 0.00000000 0.00000000
Neuron 3 1 0.00000000 1 0.00000000 0.00000000 0.00000000 0.00000000
Neuron 4 1 0.00000000 1 0.00000000 0.00000000 0.00000000 0.00000000
Neuron 5 1 0.00000000 1 0.00000000 0.00000000 0.00000000 0.00000000
Neuron 6 2 0.00000000 1 0.00000000 0.00000000 0.00000000 0.00000000
Neuron 7 4 1.00000000 2 3.23214997 0.00000000 0.00000000 0.75033992
Neuron 8 4 1.00000000 2 3.80228142 0.00000000 0.00000000 0.04833148
Neuron 9 3 0.50000000 6 3.43928225 0.00000000 0.00000000 -0.04320479
Neuron 10 3 0.50000000 6 3.20105545 0.00000000 0.00000000 -0.17574115
Link 1 9 1 0 0.40811277
Link 2 9 2 0 -0.07667178
Link 3 9 3 0 0.33774550
Link 4 9 4 0 -0.11140292
Link 5 9 5 0 0.12382584
Link 6 9 6 0 -0.22975253
Link 1 10 7 0 0.81572108
Link 2 10 8 0 0.18913740
Link 3 10 9 0 0.73933070
Link 4 10 10 0 -0.10104439
Link 5 10 11 0 0.24812251
Link 6 10 12 0 -0.52991180
Link 9 7 13 0 0.49817391
Link 10 7 14 0 0.44814240
Link 9 8 15 0 0.19759033
Link 10 8 16 0 -0.06160561
GenomeEnd

