GenomeStart 1495
Neuron 1 1 0.00000000 1 0.00000000 0.00000000 0.00000000 0.00000000
Neuron 2 1 0.00000000 1 0.00000000 0.00000000 0.00000000 0.00000000
Neuron 3 1 0.00000000 1 0.00000000 0.00000000 0.00000000 0.00000000
Neuron 4 1 0.00000000 1 0.00000000 0.00000000 0.00000000 0.00000000
Neuron 5 1 0.00000000 1 0.00000000 0.00000000 0.00000000 0.00000000
Neuron 6 2 0.00000000 1 0.00000000 0.00000000 0.00000000 0.00000000
Neuron 7 4 1.00000000 2 3.35759924 0.00000000 0.00000000 0.22339531
Neuron 8 4 1.00000000 6 3.45680696 0.00000000 0.00000000 -0.30714357
Neuron 9 3 0.50000000 6 3.08379017 0.00000000 0.00000000 -0.03471697
Neuron 10 3 0.50000000 6 3.57754394 0.00000000 0.00000000 0.16488552
Link 1 9 1 0 0.13336695
Link 2 9 2 0 0.78284757
Link 3 9 3 0 0.17264543
Link 4 9 4 0 -0.82417279
Link 5 9 5 0 -0.09871416
Link 6 9 6 0 0.72787859
Link 1 10 7 0 -0.09326019
Link 2 10 8 0 -0.06575631
Link 3 10 9 0 -0.04724166
Link 4 10 10 0 -0.44266315
Link 5 10 11 0 -0.24981993
Link 6 10 12 0 -0.34735050
Link 9 7 13 0 0.24799722
Link 10 7 14 0 0.27682627
Link 9 8 15 0 0.37188392
Link 10 8 16 0 -0.03943689
GenomeEnd

