GenomeStart 1706
Neuron 1 1 0.00000000 1 0.00000000 0.00000000 0.00000000 0.00000000
Neuron 2 1 0.00000000 1 0.00000000 0.00000000 0.00000000 0.00000000
Neuron 3 1 0.00000000 1 0.00000000 0.00000000 0.00000000 0.00000000
Neuron 4 1 0.00000000 1 0.00000000 0.00000000 0.00000000 0.00000000
Neuron 5 1 0.00000000 1 0.00000000 0.00000000 0.00000000 0.00000000
Neuron 6 2 0.00000000 1 0.00000000 0.00000000 0.00000000 0.00000000
Neuron 7 4 1.00000000 2 3.18350937 0.00000000 0.00000000 -0.31863801
Neuron 8 4 1.00000000 6 3.36935655 0.00000000 0.00000000 -0.31473479
Neuron 9 3 0.50000000 11 3.81770063 0.00000000 0.00000000 -0.75050963
Neuron 10 3 0.50000000 6 3.46584764 0.00000000 0.00000000 0.49987860
Link 1 9 1 0 -0.49398321
Link 2 9 2 0 -0.06437437
Link 3 9 3 0 -0.04159680
Link 4 9 4 0 0.17521382
Link 5 9 5 0 -0.28525469
Link 6 9 6 0 0.18626854
Link 1 10 7 0 -0.12598745
Link 2 10 8 0 -0.35984869
Link 3 10 9 0 0.11108007
Link 4 10 10 0 0.37479141
Link 5 10 11 0 0.21144635
Link 6 10 12 0 -0.37400437
Link 9 7 13 0 -0.10695002
Link 10 7 14 0 -0.58115827
Link 9 8 15 0 0.44282107
Link 10 8 16 0 -0.34363861
GenomeEnd

