GenomeStart 631
Neuron 1 1 0.00000000 1 0.00000000 0.00000000 0.00000000 0.00000000
Neuron 2 1 0.00000000 1 0.00000000 0.00000000 0.00000000 0.00000000
Neuron 3 1 0.00000000 1 0.00000000 0.00000000 0.00000000 0.00000000
Neuron 4 1 0.00000000 1 0.00000000 0.00000000 0.00000000 0.00000000
Neuron 5 1 0.00000000 1 0.00000000 0.00000000 0.00000000 0.00000000
Neuron 6 2 0.00000000 1 0.00000000 0.00000000 0.00000000 0.00000000
Neuron 7 4 1.00000000 9 3.78450696 0.00000000 0.00000000 0.32324849
Neuron 8 4 1.00000000 2 3.56595260 0.00000000 0.00000000 -0.72683174
Neuron 9 3 0.50000000 6 3.19848148 0.00000000 0.00000000 -0.37227137
Neuron 10 3 0.50000000 6 3.05377970 0.00000000 0.00000000 0.21862012
Link 1 9 1 0 0.57991413
Link 2 9 2 0 0.30382405
Link 3 9 3 0 0.56660661
Link 4 9 4 0 -0.19998085
Link 5 9 5 0 -0.38357706
Link 6 9 6 0 -0.64701254
Link 1 10 7 0 0.37174685
Link 2 10 8 0 0.21789991
Link 3 10 9 0 0.22636576
Link 4 10 10 0 0.19179334
Link 5 10 11 0 0.08725436
Link 6 10 12 0 -0.03840462
Link 9 7 13 0 0.58913000
Link 10 7 14 0 0.17748962
Link 9 8 15 0 -0.08797373
Link 10 8 16 0 0.17619442
GenomeEnd

