GenomeStart 5599
Neuron 1 1 0.00000000 1 0.00000000 0.00000000 0.00000000 0.00000000
Neuron 2 1 0.00000000 1 0.00000000 0.00000000 0.00000000 0.00000000
Neuron 3 1 0.00000000 1 0.00000000 0.00000000 0.00000000 0.00000000
Neuron 4 1 0.00000000 1 0.00000000 0.00000000 0.00000000 0.00000000
Neuron 5 1 0.00000000 1 0.00000000 0.00000000 0.00000000 0.00000000
Neuron 6 2 0.00000000 1 0.00000000 0.00000000 0.00000000 0.00000000
Neuron 7 4 1.00000000 2 3.63677053 0.00000000 0.00000000 -0.19339216
Neuron 8 4 1.00000000 2 3.22599865 0.00000000 0.00000000 -0.08074066
Neuron 9 3 0.50000000 6 3.44301347 0.00000000 0.00000000 0.73985739
Neuron 10 3 0.50000000 4 3.52093424 0.00000000 0.00000000 -0.01471014
Neuron 19 3 0.75000000 6 5.51135406 0.00000000 0.00000000 0.15970685
Link 1 9 1 0 0.02754405
Link 2 9 2 0 -0.33434736
Link 3 9 3 0 -0.54906979
Link 4 9 4 0 0.43146653
Link 5 9 5 0 0.81572980
Link 6 9 6 0 0.33319198
Link 1 10 7 0 -0.29207671
Link 2 10 8 0 0.43166654
Link 3 10 9 0 -0.23284855
Link 4 10 10 0 -0.52555849
Link 5 10 11 0 0.28665919
Link 6 10 12 0 -0.05992766
Link 9 7 13 0 0.33119002
Link 10 7 14 0 0.31950016
Link 10 8 16 0 -0.17722734
Link 9 19 46 0 -0.87071055
Link 19 8 47 0 0.48573790
GenomeEnd

