GenomeStart 491
Neuron 1 1 0.00000000 1 0.00000000 0.00000000 0.00000000 0.00000000
Neuron 2 1 0.00000000 1 0.00000000 0.00000000 0.00000000 0.00000000
Neuron 3 1 0.00000000 1 0.00000000 0.00000000 0.00000000 0.00000000
Neuron 4 1 0.00000000 1 0.00000000 0.00000000 0.00000000 0.00000000
Neuron 5 1 0.00000000 1 0.00000000 0.00000000 0.00000000 0.00000000
Neuron 6 2 0.00000000 1 0.00000000 0.00000000 0.00000000 0.00000000
Neuron 7 4 1.00000000 2 3.75998865 0.00000000 0.00000000 -0.16724151
Neuron 8 4 1.00000000 2 3.79684863 0.00000000 0.00000000 0.15246166
Neuron 9 3 0.50000000 6 3.49924796 0.00000000 0.00000000 -0.34987737
Neuron 10 3 0.50000000 9 3.90815110 0.00000000 0.00000000 -0.05830336
Link 1 9 1 0 -0.31409269
Link 2 9 2 0 0.65622504
Link 3 9 3 0 0.35793908
Link 4 9 4 0 -0.40661022
Link 5 9 5 0 0.26542916
Link 6 9 6 0 0.52499579
Link 1 10 7 0 -0.03542660
Link 2 10 8 0 -0.80307977
Link 3 10 9 0 -0.37199350
Link 4 10 10 0 0.34667414
Link 5 10 11 0 0.30965862
Link 6 10 12 0 -0.10940903
Link 9 7 13 0 0.30505043
Link 10 7 14 0 0.31582611
Link 9 8 15 0 -0.47229549
Link 10 8 16 0 -0.35380909
GenomeEnd

