GenomeStart 960
Neuron 1 1 0.00000000 1 0.00000000 0.00000000 0.00000000 0.00000000
Neuron 2 1 0.00000000 1 0.00000000 0.00000000 0.00000000 0.00000000
Neuron 3 1 0.00000000 1 0.00000000 0.00000000 0.00000000 0.00000000
Neuron 4 1 0.00000000 1 0.00000000 0.00000000 0.00000000 0.00000000
Neuron 5 1 0.00000000 1 0.00000000 0.00000000 0.00000000 0.00000000
Neuron 6 2 0.00000000 1 0.00000000 0.00000000 0.00000000 0.00000000
Neuron 7 4 1.00000000 2 3.24178345 0.00000000 0.00000000 -0.25313620
Neuron 8 4 1.00000000 2 3.83180578 0.00000000 0.00000000 -0.06318085
Neuron 9 3 0.50000000 9 3.49700194 0.00000000 0.00000000 -0.05006052
Neuron 10 3 0.50000000 6 3.80677002 0.00000000 0.00000000 -0.17822185
Link 1 9 1 0 0.20613474
Link 2 9 2 0 -0.35702782
Link 3 9 3 0 0.72586386
Link 4 9 4 0 0.24092844
Link 5 9 5 0 -1.08735478
Link 6 9 6 0 0.31335827
Link 1 10 7 0 -0.08805285
Link 2 10 8 0 -0.77718676
Link 3 10 9 0 -0.45283989
Link 4 10 10 0 0.57085701
Link 5 10 11 0 0.17473994
Link 6 10 12 0 -0.29465178
Link 9 7 13 0 0.45360657
Link 10 7 14 0 -0.65486519
Link 9 8 15 0 -0.64415109
Link 10 8 16 0 -0.69854614
GenomeEnd

