GenomeStart 700
Neuron 1 1 0.00000000 1 0.00000000 0.00000000 0.00000000 0.00000000
Neuron 2 1 0.00000000 1 0.00000000 0.00000000 0.00000000 0.00000000
Neuron 3 1 0.00000000 1 0.00000000 0.00000000 0.00000000 0.00000000
Neuron 4 1 0.00000000 1 0.00000000 0.00000000 0.00000000 0.00000000
Neuron 5 1 0.00000000 1 0.00000000 0.00000000 0.00000000 0.00000000
Neuron 6 2 0.00000000 1 0.00000000 0.00000000 0.00000000 0.00000000
Neuron 7 4 1.00000000 2 3.55489477 0.00000000 0.00000000 0.69074185
Neuron 8 4 1.00000000 2 3.91773166 0.00000000 0.00000000 0.01416113
Neuron 9 3 0.50000000 6 3.29455388 0.00000000 0.00000000 -0.62458056
Neuron 10 3 0.50000000 6 3.67319329 0.00000000 0.00000000 0.13794573
Link 1 9 1 0 0.24812344
Link 2 9 2 0 0.17722295
Link 3 9 3 0 0.21339780
Link 4 9 4 0 -0.77852053
Link 5 9 5 0 -0.73554310
Link 6 9 6 0 -0.38402443
Link 1 10 7 0 -0.00162876
Link 2 10 8 0 -0.40315168
Link 3 10 9 0 0.85124100
Link 4 10 10 0 -0.15328555
Link 5 10 11 0 0.28571105
Link 6 10 12 0 -0.03790109
Link 9 7 13 0 0.29884737
Link 10 7 14 0 0.21733718
Link 9 8 15 0 0.00961698
Link 10 8 16 0 0.13499046
GenomeEnd

