GenomeStart 2651
Neuron 1 1 0.00000000 1 0.00000000 0.00000000 0.00000000 0.00000000
Neuron 2 1 0.00000000 1 0.00000000 0.00000000 0.00000000 0.00000000
Neuron 3 1 0.00000000 1 0.00000000 0.00000000 0.00000000 0.00000000
Neuron 4 1 0.00000000 1 0.00000000 0.00000000 0.00000000 0.00000000
Neuron 5 1 0.00000000 1 0.00000000 0.00000000 0.00000000 0.00000000
Neuron 6 2 0.00000000 1 0.00000000 0.00000000 0.00000000 0.00000000
Neuron 7 4 1.00000000 2 3.10304555 0.00000000 0.00000000 -0.10703001
Neuron 8 4 1.00000000 2 3.61700810 0.00000000 0.00000000 -0.38463490
Neuron 9 3 0.50000000 6 3.57448513 0.00000000 0.00000000 0.10693065
Neuron 10 3 0.50000000 6 3.52025443 0.00000000 0.00000000 -0.48892034
Link 1 9 1 0 -0.11602110
Link 2 9 2 0 0.17319266
Link 3 9 3 0 0.71943751
Link 4 9 4 0 -0.07346454
Link 5 9 5 0 0.35816861
Link 6 9 6 0 -0.59034430
Link 1 10 7 0 0.00143649
Link 2 10 8 0 -0.26306340
Link 3 10 9 0 0.42110907
Link 4 10 10 0 0.39821285
Link 5 10 11 0 0.09646145
Link 6 10 12 0 -0.72044026
Link 9 7 13 0 0.09130337
Link 10 7 14 0 0.89192429
Link 9 8 15 0 -0.38527004
Link 10 8 16 0 -0.39856018
GenomeEnd

