GenomeStart 2101
Neuron 1 1 0.00000000 1 0.00000000 0.00000000 0.00000000 0.00000000
Neuron 2 1 0.00000000 1 0.00000000 0.00000000 0.00000000 0.00000000
Neuron 3 1 0.00000000 1 0.00000000 0.00000000 0.00000000 0.00000000
Neuron 4 1 0.00000000 1 0.00000000 0.00000000 0.00000000 0.00000000
Neuron 5 1 0.00000000 1 0.00000000 0.00000000 0.00000000 0.00000000
Neuron 6 2 0.00000000 1 0.00000000 0.00000000 0.00000000 0.00000000
Neuron 7 4 1.00000000 11 3.46796976 0.00000000 0.00000000 -0.09680115
Neuron 8 4 1.00000000 2 3.69409945 0.00000000 0.00000000 -0.32058355
Neuron 9 3 0.50000000 6 3.21433769 0.00000000 0.00000000 -0.27384750
Neuron 10 3 0.50000000 6 3.10743220 0.00000000 0.00000000 0.06589868
Link 1 9 1 0 0.03666135
Link 2 9 2 0 -0.01706625
Link 3 9 3 0 -0.67072805
Link 4 9 4 0 0.44515655
Link 5 9 5 0 0.14257416
Link 6 9 6 0 0.21764597
Link 1 10 7 0 0.24545620
Link 2 10 8 0 0.06067066
Link 3 10 9 0 0.05548711
Link 4 10 10 0 0.29932937
Link 5 10 11 0 0.05284150
Link 6 10 12 0 0.36341120
Link 9 7 13 0 -0.20532303
Link 10 7 14 0 -0.33180781
Link 9 8 15 0 -0.05829344
Link 10 8 16 0 -0.41011696
GenomeEnd

