GenomeStart 540
Neuron 1 1 0.00000000 1 0.00000000 0.00000000 0.00000000 0.00000000
Neuron 2 1 0.00000000 1 0.00000000 0.00000000 0.00000000 0.00000000
Neuron 3 1 0.00000000 1 0.00000000 0.00000000 0.00000000 0.00000000
Neuron 4 1 0.00000000 1 0.00000000 0.00000000 0.00000000 0.00000000
Neuron 5 1 0.00000000 1 0.00000000 0.00000000 0.00000000 0.00000000
Neuron 6 2 0.00000000 1 0.00000000 0.00000000 0.00000000 0.00000000
Neuron 7 4 1.00000000 2 3.13294521 0.00000000 0.00000000 -0.34363276
Neuron 8 4 1.00000000 2 3.87267457 0.00000000 0.00000000 -0.21873570
Neuron 9 3 0.50000000 6 3.39170282 0.00000000 0.00000000 0.45954297
Neuron 10 3 0.50000000 6 3.32750158 0.00000000 0.00000000 -0.66479304
Link 1 9 1 0 -0.50744113
Link 2 9 2 0 -0.02961759
Link 3 9 3 0 0.18715281
Link 4 9 4 0 0.44050555
Link 5 9 5 0 0.79656673
Link 6 9 6 0 -0.02437096
Link 1 10 7 0 0.96861560
Link 2 10 8 0 0.43986199
Link 3 10 9 0 0.22259417
Link 4 10 10 0 0.61845408
Link 5 10 11 0 -0.53101009
Link 6 10 12 0 -0.24381868
Link 9 7 13 0 -0.21186251
Link 10 7 14 0 0.11681385
Link 9 8 15 0 0.08696092
Link 10 8 16 0 0.31987552
GenomeEnd

