GenomeStart 1392
Neuron 1 1 0.00000000 1 0.00000000 0.00000000 0.00000000 0.00000000
Neuron 2 1 0.00000000 1 0.00000000 0.00000000 0.00000000 0.00000000
Neuron 3 1 0.00000000 1 0.00000000 0.00000000 0.00000000 0.00000000
Neuron 4 1 0.00000000 1 0.00000000 0.00000000 0.00000000 0.00000000
Neuron 5 1 0.00000000 1 0.00000000 0.00000000 0.00000000 0.00000000
Neuron 6 2 0.00000000 1 0.00000000 0.00000000 0.00000000 0.00000000
Neuron 7 4 1.00000000 9 3.48681659 0.00000000 0.00000000 0.20590321
Neuron 8 4 1.00000000 4 3.54149897 0.00000000 0.00000000 -0.74092374
Neuron 9 3 0.50000000 6 3.67049240 0.00000000 0.00000000 0.03125874
Neuron 10 3 0.50000000 6 3.31670583 0.00000000 0.00000000 0.81932160
Link 1 9 1 0 0.08807585
Link 2 9 2 0 0.32213199
Link 3 9 3 0 -0.75417363
Link 4 9 4 0 0.28922289
Link 5 9 5 0 -0.62385181
Link 6 9 6 0 0.54744565
Link 1 10 7 0 0.19579719
Link 2 10 8 0 0.46431476
Link 3 10 9 0 -0.23404055
Link 4 10 10 0 -0.12192976
Link 5 10 11 0 0.66807287
Link 6 10 12 0 0.42038065
Link 9 7 13 0 -0.66706477
Link 10 7 14 0 -0.37218687
Link 9 8 15 0 0.39841149
Link 10 8 16 0 -0.48997996
GenomeEnd

