GenomeStart 1951
Neuron 1 1 0.00000000 1 0.00000000 0.00000000 0.00000000 0.00000000
Neuron 2 1 0.00000000 1 0.00000000 0.00000000 0.00000000 0.00000000
Neuron 3 1 0.00000000 1 0.00000000 0.00000000 0.00000000 0.00000000
Neuron 4 1 0.00000000 1 0.00000000 0.00000000 0.00000000 0.00000000
Neuron 5 1 0.00000000 1 0.00000000 0.00000000 0.00000000 0.00000000
Neuron 6 2 0.00000000 1 0.00000000 0.00000000 0.00000000 0.00000000
Neuron 7 4 1.00000000 2 3.30288090 0.00000000 0.00000000 0.04267554
Neuron 8 4 1.00000000 2 3.62716159 0.00000000 0.00000000 0.20470627
Neuron 9 3 0.50000000 6 3.93764606 0.00000000 0.00000000 -0.83245135
Neuron 10 3 0.50000000 6 3.35640253 0.00000000 0.00000000 -0.11267307
Link 1 9 1 0 0.18250503
Link 2 9 2 0 0.48206967
Link 3 9 3 0 0.62336436
Link 4 9 4 0 0.85518576
Link 5 9 5 0 0.05825886
Link 6 9 6 0 0.00398482
Link 1 10 7 0 0.33227033
Link 2 10 8 0 0.22234135
Link 3 10 9 0 -0.55219339
Link 4 10 10 0 -0.45933794
Link 5 10 11 0 -0.05819698
Link 6 10 12 0 -0.27538019
Link 9 7 13 0 -0.70194778
Link 10 7 14 0 0.41825102
Link 9 8 15 0 -0.40020415
Link 10 8 16 0 0.23806682
Link 2 7 37 0 0.18318674
GenomeEnd

