GenomeStart 700
Neuron 1 1 0.00000000 1 0.00000000 0.00000000 0.00000000 0.00000000
Neuron 2 1 0.00000000 1 0.00000000 0.00000000 0.00000000 0.00000000
Neuron 3 1 0.00000000 1 0.00000000 0.00000000 0.00000000 0.00000000
Neuron 4 1 0.00000000 1 0.00000000 0.00000000 0.00000000 0.00000000
Neuron 5 1 0.00000000 1 0.00000000 0.00000000 0.00000000 0.00000000
Neuron 6 2 0.00000000 1 0.00000000 0.00000000 0.00000000 0.00000000
Neuron 7 4 1.00000000 2 3.77191334 0.00000000 0.00000000 0.10579154
Neuron 8 4 1.00000000 2 3.65346569 0.00000000 0.00000000 0.74300676
Neuron 9 3 0.50000000 6 3.53134535 0.00000000 0.00000000 -0.41373946
Neuron 10 3 0.50000000 6 3.39963490 0.00000000 0.00000000 -0.31487834
Link 1 9 1 0 0.47562809
Link 2 9 2 0 -0.79453110
Link 3 9 3 0 -0.14488656
Link 4 9 4 0 -0.66658449
Link 5 9 5 0 -0.46960539
Link 6 9 6 0 -0.01495721
Link 1 10 7 0 -0.06610357
Link 2 10 8 0 -0.62762817
Link 3 10 9 0 0.47560362
Link 4 10 10 0 -0.20840664
Link 5 10 11 0 -0.75156385
Link 6 10 12 0 0.35657391
Link 9 7 13 0 0.25147037
Link 10 7 14 0 0.09238827
Link 9 8 15 0 0.25136275
Link 10 8 16 0 -0.33975737
GenomeEnd

