GenomeStart 861
Neuron 1 1 0.00000000 1 0.00000000 0.00000000 0.00000000 0.00000000
Neuron 2 1 0.00000000 1 0.00000000 0.00000000 0.00000000 0.00000000
Neuron 3 1 0.00000000 1 0.00000000 0.00000000 0.00000000 0.00000000
Neuron 4 1 0.00000000 1 0.00000000 0.00000000 0.00000000 0.00000000
Neuron 5 1 0.00000000 1 0.00000000 0.00000000 0.00000000 0.00000000
Neuron 6 2 0.00000000 1 0.00000000 0.00000000 0.00000000 0.00000000
Neuron 7 4 1.00000000 2 3.33800339 0.00000000 0.00000000 0.73271247
Neuron 8 4 1.00000000 2 3.42334774 0.00000000 0.00000000 0.52815829
Neuron 9 3 0.50000000 6 3.35380715 0.00000000 0.00000000 -0.22884871
Neuron 10 3 0.50000000 6 3.28230933 0.00000000 0.00000000 -0.56918289
Link 1 9 1 0 -0.03007841
Link 2 9 2 0 0.08297746
Link 3 9 3 0 -0.07890768
Link 4 9 4 0 0.03688890
Link 5 9 5 0 -0.25781262
Link 6 9 6 0 -0.03470673
Link 1 10 7 0 -0.41876411
Link 2 10 8 0 -0.14193157
Link 3 10 9 0 -0.16608176
Link 4 10 10 0 0.02833743
Link 5 10 11 0 0.25013869
Link 6 10 12 0 -0.02104908
Link 9 7 13 0 -0.23871984
Link 10 7 14 0 -0.69366300
Link 9 8 15 0 0.40610377
Link 10 8 16 0 0.00145549
GenomeEnd

