GenomeStart 225
Neuron 1 1 0.00000000 1 0.00000000 0.00000000 0.00000000 0.00000000
Neuron 2 1 0.00000000 1 0.00000000 0.00000000 0.00000000 0.00000000
Neuron 3 1 0.00000000 1 0.00000000 0.00000000 0.00000000 0.00000000
Neuron 4 1 0.00000000 1 0.00000000 0.00000000 0.00000000 0.00000000
Neuron 5 1 0.00000000 1 0.00000000 0.00000000 0.00000000 0.00000000
Neuron 6 2 0.00000000 1 0.00000000 0.00000000 0.00000000 0.00000000
Neuron 7 4 1.00000000 2 3.57317213 0.00000000 0.00000000 0.38466524
Neuron 8 4 1.00000000 2 3.37601272 0.00000000 0.00000000 -0.06727848
Neuron 9 3 0.50000000 9 3.71273529 0.00000000 0.00000000 -0.35060859
Neuron 10 3 0.50000000 6 3.35312552 0.00000000 0.00000000 0.77187288
Link 1 9 1 0 0.14167992
Link 2 9 2 0 -0.08606998
Link 3 9 3 0 -0.18505803
Link 4 9 4 0 0.21297879
Link 5 9 5 0 0.28447739
Link 6 9 6 0 -0.67466063
Link 1 10 7 0 -0.02966486
Link 2 10 8 0 -0.37187134
Link 3 10 9 0 0.43174824
Link 4 10 10 0 -0.02507449
Link 5 10 11 0 -0.54158471
Link 6 10 12 0 -0.11724412
Link 9 7 13 0 0.29958857
Link 10 7 14 0 -0.56996375
Link 9 8 15 0 -0.36581279
Link 10 8 16 0 0.73663881
GenomeEnd

