GenomeStart 1931
Neuron 1 1 0.00000000 1 0.00000000 0.00000000 0.00000000 0.00000000
Neuron 2 1 0.00000000 1 0.00000000 0.00000000 0.00000000 0.00000000
Neuron 3 1 0.00000000 1 0.00000000 0.00000000 0.00000000 0.00000000
Neuron 4 1 0.00000000 1 0.00000000 0.00000000 0.00000000 0.00000000
Neuron 5 1 0.00000000 1 0.00000000 0.00000000 0.00000000 0.00000000
Neuron 6 2 0.00000000 1 0.00000000 0.00000000 0.00000000 0.00000000
Neuron 7 4 1.00000000 2 3.28806809 0.00000000 0.00000000 -0.27812566
Neuron 8 4 1.00000000 11 3.72382514 0.00000000 0.00000000 0.13797400
Neuron 9 3 0.50000000 9 3.88054676 0.00000000 0.00000000 0.36540502
Neuron 10 3 0.50000000 6 3.57313649 0.00000000 0.00000000 0.15997715
Link 1 9 1 0 0.13888485
Link 2 9 2 0 -0.11487203
Link 3 9 3 0 -0.69803267
Link 4 9 4 0 0.61252839
Link 5 9 5 0 -0.14362056
Link 6 9 6 0 0.43323167
Link 1 10 7 0 0.03284716
Link 2 10 8 0 -0.23909445
Link 3 10 9 0 -0.01844233
Link 4 10 10 0 -0.50046766
Link 5 10 11 0 -0.07747923
Link 6 10 12 0 0.60664724
Link 9 7 13 0 -0.09195632
Link 10 7 14 0 0.40196073
Link 9 8 15 0 -0.66579202
Link 10 8 16 0 0.41642864
GenomeEnd

