GenomeStart 1539
Neuron 1 1 0.00000000 1 0.00000000 0.00000000 0.00000000 0.00000000
Neuron 2 1 0.00000000 1 0.00000000 0.00000000 0.00000000 0.00000000
Neuron 3 1 0.00000000 1 0.00000000 0.00000000 0.00000000 0.00000000
Neuron 4 1 0.00000000 1 0.00000000 0.00000000 0.00000000 0.00000000
Neuron 5 1 0.00000000 1 0.00000000 0.00000000 0.00000000 0.00000000
Neuron 6 2 0.00000000 1 0.00000000 0.00000000 0.00000000 0.00000000
Neuron 7 4 1.00000000 2 3.82563204 0.00000000 0.00000000 0.14885173
Neuron 8 4 1.00000000 9 3.37434267 0.00000000 0.00000000 -0.04274994
Neuron 9 3 0.50000000 6 3.39533870 0.00000000 0.00000000 0.61493448
Neuron 10 3 0.50000000 6 3.50182502 0.00000000 0.00000000 -0.77169566
Link 1 9 1 0 0.05608026
Link 2 9 2 0 -0.12483955
Link 3 9 3 0 -0.67244732
Link 4 9 4 0 -0.08072152
Link 5 9 5 0 0.75769751
Link 6 9 6 0 0.43301567
Link 1 10 7 0 0.01375706
Link 2 10 8 0 0.21055891
Link 3 10 9 0 0.23361505
Link 4 10 10 0 0.39851916
Link 5 10 11 0 0.36578200
Link 6 10 12 0 0.16632847
Link 9 7 13 0 -0.39263937
Link 10 7 14 0 0.35745616
Link 9 8 15 0 -0.29985978
Link 10 8 16 0 0.66257156
GenomeEnd

