GenomeStart 1273
Neuron 1 1 0.00000000 1 0.00000000 0.00000000 0.00000000 0.00000000
Neuron 2 1 0.00000000 1 0.00000000 0.00000000 0.00000000 0.00000000
Neuron 3 1 0.00000000 1 0.00000000 0.00000000 0.00000000 0.00000000
Neuron 4 1 0.00000000 1 0.00000000 0.00000000 0.00000000 0.00000000
Neuron 5 1 0.00000000 1 0.00000000 0.00000000 0.00000000 0.00000000
Neuron 6 2 0.00000000 1 0.00000000 0.00000000 0.00000000 0.00000000
Neuron 7 4 1.00000000 11 3.57515662 0.00000000 0.00000000 0.09869462
Neuron 8 4 1.00000000 2 3.59385824 0.00000000 0.00000000 0.52185698
Neuron 9 3 0.50000000 6 3.13937276 0.00000000 0.00000000 0.59896391
Neuron 10 3 0.50000000 6 3.76039136 0.00000000 0.00000000 -0.69829231
Link 1 9 1 0 -0.07329544
Link 2 9 2 0 -0.44522065
Link 3 9 3 0 0.42906933
Link 4 9 4 0 -0.51000890
Link 5 9 5 0 -0.19614069
Link 6 9 6 0 0.66556699
Link 1 10 7 0 0.10671710
Link 2 10 8 0 -0.55105224
Link 3 10 9 0 0.12067079
Link 4 10 10 0 -0.66652420
Link 5 10 11 0 0.04964955
Link 6 10 12 0 0.15713971
Link 9 7 13 0 0.52235130
Link 10 7 14 0 0.04665885
Link 9 8 15 0 -0.07213736
Link 10 8 16 0 0.14511941
Link 9 10 17 0 -0.68029284
GenomeEnd

