GenomeStart 3500
Neuron 1 1 0.00000000 1 0.00000000 0.00000000 0.00000000 0.00000000
Neuron 2 1 0.00000000 1 0.00000000 0.00000000 0.00000000 0.00000000
Neuron 3 1 0.00000000 1 0.00000000 0.00000000 0.00000000 0.00000000
Neuron 4 1 0.00000000 1 0.00000000 0.00000000 0.00000000 0.00000000
Neuron 5 1 0.00000000 1 0.00000000 0.00000000 0.00000000 0.00000000
Neuron 6 2 0.00000000 1 0.00000000 0.00000000 0.00000000 0.00000000
Neuron 7 4 1.00000000 2 3.22574608 0.00000000 0.00000000 0.07087934
Neuron 8 4 1.00000000 6 3.54944480 0.00000000 0.00000000 0.76295276
Neuron 9 3 0.50000000 6 3.44732095 0.00000000 0.00000000 -0.05565084
Neuron 10 3 0.50000000 6 3.35596137 0.00000000 0.00000000 -0.10106083
Link 1 9 1 0 -0.11354613
Link 2 9 2 0 0.17196241
Link 3 9 3 0 -0.32670242
Link 4 9 4 0 0.45452075
Link 5 9 5 0 0.52150322
Link 6 9 6 0 -0.37074896
Link 1 10 7 0 -0.26678138
Link 2 10 8 0 -0.02537162
Link 3 10 9 0 0.27520164
Link 4 10 10 0 0.40947512
Link 5 10 11 0 0.32691308
Link 6 10 12 0 -0.40437748
Link 9 7 13 0 0.18457684
Link 10 7 14 0 0.30635151
Link 9 8 15 0 -0.79597971
Link 10 8 16 0 -0.17195129
GenomeEnd

