GenomeStart 2810
Neuron 1 1 0.00000000 1 0.00000000 0.00000000 0.00000000 0.00000000
Neuron 2 1 0.00000000 1 0.00000000 0.00000000 0.00000000 0.00000000
Neuron 3 1 0.00000000 1 0.00000000 0.00000000 0.00000000 0.00000000
Neuron 4 1 0.00000000 1 0.00000000 0.00000000 0.00000000 0.00000000
Neuron 5 1 0.00000000 1 0.00000000 0.00000000 0.00000000 0.00000000
Neuron 6 2 0.00000000 1 0.00000000 0.00000000 0.00000000 0.00000000
Neuron 7 4 1.00000000 9 3.54782328 0.00000000 0.00000000 0.16002089
Neuron 8 4 1.00000000 6 3.44305350 0.00000000 0.00000000 -0.13180773
Neuron 9 3 0.50000000 6 3.71287237 0.00000000 0.00000000 -0.09569992
Neuron 10 3 0.50000000 6 3.25993608 0.00000000 0.00000000 0.62840271
Link 1 9 1 0 0.14543085
Link 2 9 2 0 0.49002828
Link 3 9 3 0 -0.05589862
Link 4 9 4 0 -0.07523727
Link 5 9 5 0 -0.18557199
Link 6 9 6 0 -0.08934788
Link 1 10 7 0 -0.10163950
Link 2 10 8 0 0.09457381
Link 3 10 9 0 0.24932516
Link 4 10 10 0 -0.78663937
Link 5 10 11 0 -0.31928105
Link 6 10 12 0 -0.58937207
Link 9 7 13 0 -0.57032081
Link 10 7 14 0 0.54078468
Link 9 8 15 0 0.05131333
Link 10 8 16 0 0.22618566
GenomeEnd

