GenomeStart 3151
Neuron 1 1 0.00000000 1 0.00000000 0.00000000 0.00000000 0.00000000
Neuron 2 1 0.00000000 1 0.00000000 0.00000000 0.00000000 0.00000000
Neuron 3 1 0.00000000 1 0.00000000 0.00000000 0.00000000 0.00000000
Neuron 4 1 0.00000000 1 0.00000000 0.00000000 0.00000000 0.00000000
Neuron 5 1 0.00000000 1 0.00000000 0.00000000 0.00000000 0.00000000
Neuron 6 2 0.00000000 1 0.00000000 0.00000000 0.00000000 0.00000000
Neuron 7 4 1.00000000 2 3.64525353 0.00000000 0.00000000 0.12529409
Neuron 8 4 1.00000000 9 3.15713402 0.00000000 0.00000000 -0.40869987
Neuron 9 3 0.50000000 6 3.47849752 0.00000000 0.00000000 0.32305968
Neuron 10 3 0.50000000 6 3.31125864 0.00000000 0.00000000 -0.95135787
Link 1 9 1 0 0.36693293
Link 2 9 2 0 0.24402371
Link 3 9 3 0 0.05025412
Link 4 9 4 0 0.75046285
Link 5 9 5 0 -0.31650421
Link 6 9 6 0 0.06925576
Link 1 10 7 0 0.00877579
Link 2 10 8 0 0.60405595
Link 3 10 9 0 0.25473475
Link 4 10 10 0 -0.35501524
Link 5 10 11 0 -0.14164498
Link 6 10 12 0 0.26983289
Link 9 7 13 0 -0.02151299
Link 10 7 14 0 -0.50153211
Link 9 8 15 0 -0.19531413
Link 10 8 16 0 -0.07815809
GenomeEnd

