GenomeStart 892
Neuron 1 1 0.00000000 1 0.00000000 0.00000000 0.00000000 0.00000000
Neuron 2 1 0.00000000 1 0.00000000 0.00000000 0.00000000 0.00000000
Neuron 3 1 0.00000000 1 0.00000000 0.00000000 0.00000000 0.00000000
Neuron 4 1 0.00000000 1 0.00000000 0.00000000 0.00000000 0.00000000
Neuron 5 1 0.00000000 1 0.00000000 0.00000000 0.00000000 0.00000000
Neuron 6 2 0.00000000 1 0.00000000 0.00000000 0.00000000 0.00000000
Neuron 7 4 1.00000000 2 3.48745315 0.00000000 0.00000000 0.12027404
Neuron 8 4 1.00000000 9 3.33665386 0.00000000 0.00000000 -0.55517961
Neuron 9 3 0.50000000 6 3.23978172 0.00000000 0.00000000 -0.06209173
Neuron 10 3 0.50000000 6 3.86414906 0.00000000 0.00000000 -0.05656536
Link 1 9 1 0 -0.05343688
Link 2 9 2 0 0.14030580
Link 3 9 3 0 0.04632830
Link 4 9 4 0 -0.06782424
Link 5 9 5 0 -0.14474411
Link 6 9 6 0 0.23762207
Link 1 10 7 0 0.10578539
Link 2 10 8 0 0.13717162
Link 3 10 9 0 0.20106863
Link 4 10 10 0 -0.96961089
Link 5 10 11 0 0.30050423
Link 6 10 12 0 -0.11459445
Link 9 7 13 0 -0.15421125
Link 10 7 14 0 -0.72517014
Link 9 8 15 0 -0.12822894
Link 10 8 16 0 -0.08727868
GenomeEnd

