GenomeStart 1211
Neuron 1 1 0.00000000 1 0.00000000 0.00000000 0.00000000 0.00000000
Neuron 2 1 0.00000000 1 0.00000000 0.00000000 0.00000000 0.00000000
Neuron 3 1 0.00000000 1 0.00000000 0.00000000 0.00000000 0.00000000
Neuron 4 1 0.00000000 1 0.00000000 0.00000000 0.00000000 0.00000000
Neuron 5 1 0.00000000 1 0.00000000 0.00000000 0.00000000 0.00000000
Neuron 6 2 0.00000000 1 0.00000000 0.00000000 0.00000000 0.00000000
Neuron 7 4 1.00000000 9 3.34555538 0.00000000 0.00000000 -0.37699040
Neuron 8 4 1.00000000 6 3.47189080 0.00000000 0.00000000 -0.61432228
Neuron 9 3 0.50000000 6 3.67395579 0.00000000 0.00000000 0.09008906
Neuron 10 3 0.50000000 6 3.28132330 0.00000000 0.00000000 -0.24934664
Link 1 9 1 0 0.08798358
Link 2 9 2 0 -0.35811231
Link 3 9 3 0 -0.23201890
Link 4 9 4 0 -0.58142399
Link 5 9 5 0 -0.07745160
Link 6 9 6 0 -0.06890601
Link 1 10 7 0 -0.14076993
Link 2 10 8 0 0.03236949
Link 3 10 9 0 0.21806693
Link 4 10 10 0 -0.15539015
Link 5 10 11 0 0.61910099
Link 6 10 12 0 -0.14371441
Link 9 7 13 0 -0.65915227
Link 10 7 14 0 -0.05938440
Link 9 8 15 0 -0.17937427
Link 10 8 16 0 -0.36041585
GenomeEnd

