GenomeStart 1711
Neuron 1 1 0.00000000 1 0.00000000 0.00000000 0.00000000 0.00000000
Neuron 2 1 0.00000000 1 0.00000000 0.00000000 0.00000000 0.00000000
Neuron 3 1 0.00000000 1 0.00000000 0.00000000 0.00000000 0.00000000
Neuron 4 1 0.00000000 1 0.00000000 0.00000000 0.00000000 0.00000000
Neuron 5 1 0.00000000 1 0.00000000 0.00000000 0.00000000 0.00000000
Neuron 6 2 0.00000000 1 0.00000000 0.00000000 0.00000000 0.00000000
Neuron 7 4 1.00000000 2 3.84574088 0.00000000 0.00000000 0.11623610
Neuron 8 4 1.00000000 2 3.36531489 0.00000000 0.00000000 0.48579482
Neuron 9 3 0.50000000 4 3.56651829 0.00000000 0.00000000 0.38222989
Neuron 10 3 0.50000000 9 3.79894847 0.00000000 0.00000000 -0.19367178
Neuron 11 3 0.25000000 11 4.31500491 0.00000000 0.00000000 -0.39875859
Link 1 9 1 0 0.09564345
Link 2 9 2 0 -0.93490556
Link 4 9 4 0 -0.06479829
Link 5 9 5 0 1.06486886
Link 6 9 6 0 -0.25854215
Link 1 10 7 0 0.03271057
Link 2 10 8 0 0.50169536
Link 3 10 9 0 0.39774591
Link 4 10 10 0 0.39659022
Link 5 10 11 0 0.01585471
Link 6 10 12 0 -0.70100489
Link 9 7 13 0 -0.48196109
Link 10 7 14 0 -0.81321832
Link 9 8 15 0 0.16329529
Link 10 8 16 0 -0.74450954
Link 3 11 19 0 1.00725296
Link 11 9 20 0 0.04039913
GenomeEnd

